called	-0.008176463656127453 0.014807004481554031 -0.014508016407489777 -0.008922632783651352 0.00485715689137578 -4.5807744027115405E-4 0.008731087669730186 0.00658264709636569 -0.014252087101340294 0.006438425276428461 -0.002652219496667385 0.017859190702438354 -0.017749903723597527 0.002103883307427168 -0.010877637192606926 0.01728062704205513 0.012930161319673061 -0.016722064465284348 -0.00988195464015007 0.013847993686795235 -2.3192459775600582E-4 0.015291932970285416 -0.015364514663815498 -0.008639175444841385 0.007911425083875656
during	-0.005605253856629133 0.005594414658844471 -0.006306701805442572 -0.012869504280388355 -0.01243535615503788 -0.0016036169836297631 0.013504641130566597 0.011901927180588245 -0.0016384478658437729 0.01027932483702898 0.016704652458429337 0.017788967117667198 0.008540098555386066 -0.007756628096103668 -0.009827526286244392 0.012461249716579914 -0.0019333260133862495 -0.0023066347930580378 0.019944356754422188 0.008259621448814869 0.005551439244300127 0.003406243398785591 -1.805538049666211E-4 -0.012150160036981106 -0.017120013013482094
<NUMBER>	0.009084036573767662 -0.004888132680207491 0.009991033002734184 -0.0047327433712780476 0.0043343110010027885 0.013493750244379044 -0.010583154857158661 0.006200910545885563 -0.012874838896095753 -0.017493892461061478 -0.008583961054682732 -0.013029547408223152 -0.010238510556519032 -0.0036219970788806677 0.009833787567913532 -0.016878711059689522 0.018620414659380913 -0.008628420531749725 -0.011263641528785229 -0.002191785955801606 0.014397737570106983 0.0038439747877418995 0.010425327345728874 -3.6166206700727344E-4 0.016093723475933075
troops	-0.005722873378545046 -0.015039174817502499 -0.009324513375759125 -0.0175549928098917 -0.0061498237773776054 -0.01560121588408947 0.003091010032221675 -0.019252395257353783 -0.018832648172974586 0.006782059092074633 0.003870391985401511 0.007226557936519384 -0.003694775979965925 0.0199788399040699 0.018083736300468445 -0.011677253060042858 0.012571088969707489 -0.0139767462387681 0.019173165783286095 -0.014064189046621323 -0.009919917210936546 0.0010623905109241605 0.01188274472951889 -0.019643081352114677 0.01162017323076725
without	-0.010888093151152134 -0.015433484688401222 -0.010775190778076649 -0.004494896158576012 0.017668090760707855 -0.01745018921792507 0.014310989528894424 0.014982471242547035 0.013386694714426994 0.012337406165897846 0.0077697779051959515 -0.013398091308772564 0.004613993689417839 0.00236922362819314 -0.0017756219021975994 -0.010827855207026005 -0.0043964507058262825 0.0055756354704499245 0.008797517977654934 0.0014047290896996856 0.01765824295580387 0.0035551367327570915 -0.018766997382044792 -0.003341288072988391 0.013589647598564625
would	-0.005482591688632965 -0.004417965654283762 -0.009859535843133926 0.00961246807128191 -0.0182393379509449 0.0016183853149414062 -0.017426425591111183 -2.009420277317986E-4 -0.005927081685513258 -0.004214627202600241 0.009836762212216854 -6.215943722054362E-4 -0.013345743529498577 0.004421086981892586 -0.014072935096919537 -0.007902936078608036 0.004022980574518442 0.003447996685281396 -0.013983112759888172 -0.017571188509464264 0.014190532267093658 -0.018161749467253685 0.00783002283424139 -0.011074325069785118 -0.018374575302004814
province	-0.01700809970498085 0.005471269600093365 0.011998714879155159 -0.003571383422240615 -0.00596545310690999 -0.004833415150642395 0.0031965922098606825 0.017899710685014725 0.008763819932937622 -0.004274776671081781 -0.019561631605029106 0.015160744078457355 -0.008057653903961182 0.003168338444083929 0.015744563192129135 -0.016097063198685646 0.006513596512377262 0.016570299863815308 0.019993435591459274 -0.010896317660808563 0.0014360025525093079 -0.011786607094109058 0.009268512018024921 -0.019950831308960915 -0.01592234894633293
rio	-0.019413504749536514 0.0137110510841012 0.0010121564846485853 -0.01262568961828947 0.01643320918083191 -0.01672213338315487 -0.0072747403755784035 0.010562408715486526 -0.004206083249300718 -0.011820484884083271 0.019078614190220833 -0.011058771051466465 -0.011414993554353714 0.005914855282753706 -0.0028946013189852238 -0.016956977546215057 0.014681917615234852 -0.008635097183287144 0.008296901360154152 0.0034241247922182083 0.010318583808839321 -0.0011863124091178179 0.007736347150057554 -0.01983642764389515 0.008929550647735596
they	0.01876015216112137 -0.0029914183542132378 0.006261213682591915 -0.01331262942403555 -0.018262501806020737 -0.01775454916059971 -0.016308940947055817 -0.016105392947793007 0.012603124603629112 0.006188972853124142 -0.013478933833539486 0.017817316576838493 -0.01818823628127575 -0.00394113315269351 -0.017524946480989456 0.008972125127911568 0.019174640998244286 0.012607446871697903 -0.01265814621001482 0.007648358587175608 -0.004639960825443268 0.014991856180131435 -0.0020982972346246243 0.007789059542119503 -0.002078552031889558
recife	-0.011660667136311531 0.00759646762162447 -0.014501203782856464 -0.007165367715060711 -0.004630672745406628 0.009989502839744091 0.007302083075046539 -0.014305992983281612 0.01827213354408741 -0.004491501022130251 -0.015631239861249924 0.011731237173080444 0.004637677222490311 0.003465426852926612 0.017998162657022476 -0.01809636503458023 0.01847904734313488 0.01207410916686058 -0.013233881443738937 0.005340630654245615 0.013897712342441082 -0.010527403093874454 0.017621982842683792 0.014278633520007133 -0.002624731743708253
order	0.015431886538863182 -0.015897316858172417 -0.0064355144277215 -0.01726803183555603 -0.005287891253829002 -0.009421993046998978 0.0015038989949971437 -0.0015448052436113358 0.01133581530302763 -0.009083340875804424 0.011347293853759766 -0.011881578713655472 -0.016870416700839996 -0.006802381481975317 0.015982089564204216 0.009291918016970158 -0.008535200729966164 -0.0069952369667589664 0.006802576594054699 0.007244542241096497 0.0057723140344023705 7.801040774211287E-4 5.439600136014633E-5 -0.0042745997197926044 -0.015516229905188084
evaldo	0.002736826427280903 -0.008093707263469696 0.017488984391093254 0.019239814952015877 0.01602679118514061 -0.0023152439389377832 -0.015245173126459122 -0.001998517196625471 -0.0024491646327078342 -0.01268457155674696 0.005742379929870367 2.6525603607296944E-4 0.014308084733784199 0.0075129559263587 -4.8406526912003756E-4 -0.007516713347285986 0.0119129978120327 0.002893490018323064 -0.007980789989233017 -0.009560092352330685 -0.018372604623436928 0.0013068810803815722 -0.00806932058185339 -0.005573526490479708 -0.018652833998203278
provinces	0.01046715211123228 -0.017091622576117516 -0.004909327253699303 0.015029314905405045 0.0028976972680538893 0.010710188187658787 0.012542902491986752 0.01996641978621483 -0.004130901303142309 -0.012424475513398647 0.005980811081826687 0.002637153957039118 -0.00450855353847146 -0.00737548666074872 -0.006109768524765968 -0.016640570014715195 -0.001868155668489635 0.002167484490200877 0.01029609888792038 0.018830692395567894 0.0022641438990831375 -0.016745582222938538 0.017970627173781395 -0.008338834159076214 -0.01592225767672062
lisbon	-0.019996531307697296 -0.014303432777523994 0.01295684278011322 0.010437374003231525 -0.016116701066493988 -0.0027372855693101883 -0.012431884184479713 0.008393917232751846 0.01570926234126091 0.019768867641687393 0.005232561379671097 0.007295082323253155 0.007746526040136814 -3.421428264118731E-4 -0.012248317711055279 0.005325745791196823 -0.003927574492990971 -0.010876663960516453 0.004280347377061844 0.007786435540765524 -0.015224596485495567 -0.007346926257014275 -0.013136154972016811 -0.0030996312852948904 -0.011412698775529861
in	0.0034316133242100477 -0.01643957383930683 0.01329923328012228 -0.018149102106690407 -0.004254363011568785 -0.013757854700088501 0.013529093936085701 -0.009605945087969303 0.018195053562521935 0.018079297617077827 -0.014688779599964619 -0.015707099810242653 -0.015329193323850632 0.008854404091835022 0.01880960538983345 -0.007595932576805353 0.00684548681601882 0.006187247112393379 0.01858900673687458 0.013117752969264984 -0.019459417089819908 0.01385630015283823 0.005478013772517443 -0.01295443344861269 0.01809266395866871
is	0.011010689660906792 -0.01964809186756611 0.015648864209651947 -0.011079875752329826 -0.0010666241869330406 0.0074855913408100605 -0.005730557255446911 -0.005547680892050266 -0.011922643519937992 0.00614126306027174 -0.004808995872735977 0.002882783068343997 0.008675974793732166 0.004259633831679821 -0.012840663082897663 0.009961505420506 -0.01782548427581787 -0.005689919460564852 -0.016061007976531982 -8.935119258239865E-4 0.0031386930495500565 0.009459689259529114 -0.0037898586597293615 0.0021623969078063965 -0.005562121048569679
it	-0.013196980580687523 0.0023945108987390995 0.01052001491189003 0.019334813579916954 0.003955888096243143 -0.017527494579553604 0.014412290416657925 0.008451620116829872 -0.008049714379012585 -0.015873145312070847 -0.016945136711001396 0.01349072065204382 -0.0016246343730017543 0.015241180546581745 -0.014048787765204906 -0.007841937243938446 -0.004574834834784269 0.010671964846551418 -0.011225537396967411 -0.018377408385276794 0.007902612909674644 0.0023277439177036285 -0.005717060063034296 0.0022985057439655066 0.010698044672608376
court	0.012279181741178036 -0.005341394804418087 -0.019795410335063934 -0.009105709381401539 0.0013780713779851794 0.006346861366182566 -0.012205535545945168 -0.0022087565157562494 -0.008459536358714104 0.008094959892332554 -0.014872315339744091 -0.016925936564803123 0.008229004219174385 0.011013788171112537 -0.016158340498805046 -0.014422371052205563 -0.014790216460824013 -0.006460969801992178 -0.004074438009411097 0.017321884632110596 -0.003843362908810377 0.01918192394077778 -0.01942525804042816 -7.678763940930367E-4 0.00456894189119339
an	-0.01331312581896782 0.01733570732176304 -0.019130250439047813 -0.012847596779465675 0.01915472187101841 0.009758560918271542 -0.01445318479090929 0.018320415169000626 -0.006614936050027609 0.01379430666565895 -0.0031425661873072386 -0.018437517806887627 0.011762448586523533 0.0047931852750480175 8.717497112229466E-4 0.008373643271625042 0.011804753914475441 -0.01060156524181366 0.0054490892216563225 0.012551157735288143 0.007320610340684652 0.016375135630369186 0.0010023402282968163 0.0017097574891522527 -0.0078042373061180115
as	0.011345780454576015 0.0010093416785821319 0.008906584233045578 0.009404092095792294 4.027390677947551E-4 -0.004211936146020889 0.010634703561663628 0.013599906116724014 -0.019537145271897316 0.006017595063894987 -5.786014371551573E-4 0.01722102425992489 -0.013342722319066525 -0.009805270470678806 -0.018595587462186813 -0.015336588956415653 0.0038143680430948734 0.00323845143429935 -0.006447125691920519 0.008604172617197037 5.937368769082241E-5 -0.012426014058291912 0.008158739656209946 0.010908085852861404 0.013246237300336361
at	0.011134098283946514 -0.01170528307557106 -7.880824850872159E-4 -0.017297862097620964 0.010074689984321594 -0.015377821400761604 -0.01198673713952303 0.005352382082492113 0.0188077874481678 0.007538408041000366 0.013562769629061222 0.012332492507994175 0.009011654183268547 0.016386428847908974 -0.015934733673930168 -0.01776021160185337 -0.0059393928386271 -0.012327894568443298 -0.005638208240270615 0.011104601435363293 -0.013310138136148453 0.0032133806962519884 0.012034101411700249 -0.004961482714861631 -0.019310129806399345
brother	0.009527846239507198 0.015460969880223274 0.011004216969013214 -0.01912732981145382 0.002828393131494522 -0.008438064716756344 -0.014308792538940907 0.0025952327996492386 -0.0015587700763717294 -0.002785956719890237 -0.009961877018213272 -0.01338441763073206 0.001299821538850665 -0.012196935713291168 0.005384777206927538 -0.014760402031242847 -0.017077798023819923 0.010150606743991375 0.018024487420916557 0.01165276113897562 0.01206143107265234 0.007557990029454231 0.007380960509181023 -0.008104166947305202 0.0025990200228989124
frei	0.010171664878726006 -0.0032269705552607775 0.009116774424910545 -0.010708337649703026 0.0077768899500370026 0.015750600025057793 0.019185658544301987 0.0010441370541229844 -0.008882885798811913 -0.004201232921332121 0.009443605318665504 9.908148786053061E-4 -4.393574199639261E-4 -0.01607302576303482 -0.019246987998485565 -0.01582779735326767 -0.004114970564842224 0.012782077305018902 0.014514045789837837 -0.005960897076874971 -0.01451120711863041 -0.012840650975704193 0.01799028366804123 -0.01188267208635807 0.006613504607230425
other	0.017231319099664688 -0.008239944465458393 5.27197727933526E-4 -0.015130570158362389 -4.0466932114213705E-4 -0.015623434446752071 0.01717733033001423 0.01837080344557762 0.0031047556549310684 0.016908269375562668 -0.01848657615482807 -0.003870322136208415 -0.01770499348640442 0.014603939838707447 0.006824415177106857 -0.0075055756606161594 -0.015367856249213219 0.008036754094064236 -0.008166780695319176 0.0113912932574749 0.016415191814303398 -0.013484371826052666 -0.01064060628414154 0.019872359931468964 0.01462425198405981
be	-0.013641142286360264 -0.002229798585176468 0.010459805838763714 -0.002213916275650263 0.009179956279695034 -0.015784937888383865 -0.005529885180294514 0.002998308278620243 -0.01258912030607462 0.0029625133611261845 0.012325351126492023 0.019083339720964432 -5.177888670004904E-5 -0.009091245010495186 0.015458923764526844 0.018848111853003502 -0.00914965569972992 -0.008122246712446213 0.01837003044784069 -0.018217075616121292 -0.010662620887160301 -0.0031032804399728775 -0.016213398426771164 0.01957128196954727 0.011843760497868061
south	0.0030467144679278135 0.005368916317820549 0.011827400885522366 -0.008903367444872856 1.1547424946911633E-4 -0.0071834078989923 0.0012702032690867782 -0.002985722618177533 0.016451988369226456 0.007890498265624046 -0.012076216749846935 -0.00899242889136076 -0.009815104305744171 4.0427118074148893E-4 -0.015591769479215145 -0.005094208754599094 0.0020006783306598663 0.015873875468969345 -0.0052042314782738686 0.010228912346065044 0.014019622467458248 0.004041086416691542 0.006665263790637255 -0.0030871687922626734 -0.015199958346784115
against	-0.011119085364043713 -0.013140590861439705 -0.014627262018620968 -0.0024948150385171175 -0.015257901512086391 -0.005538062192499638 -0.0010451814159750938 0.016651514917612076 -0.009781621396541595 -0.010010412894189358 -0.005786655005067587 0.011237960308790207 -0.006853221450001001 -0.007029196247458458 -0.009015734307467937 -4.948211717419326E-4 -0.01468339841812849 0.009651320986449718 0.010859190486371517 0.0024273796007037163 0.014137860387563705 -0.014424855820834637 -0.0032159287948161364 -0.01826334185898304 -0.011152672581374645
republican	0.011956211179494858 -0.017068173736333847 -0.010431157425045967 -0.005929026287049055 -0.0030192409176379442 -0.01264517568051815 -0.01845313422381878 -0.013467350043356419 -0.017476126551628113 -0.0058595542795956135 -0.009522364474833012 -0.01715828850865364 -0.009945419616997242 -0.010587411932647228 -0.005457343999296427 0.014757515862584114 -0.019844504073262215 0.003277981886640191 0.0012401913991197944 0.006345656700432301 0.016046471893787384 -0.0022932402789592743 -9.996319422498345E-4 -0.006174417212605476 -0.01603163592517376
government	-0.014994896948337555 1.7283139459323138E-4 -0.018440572544932365 0.0039384332485497 0.019605262205004692 0.016619069501757622 0.018133027479052544 -0.016572294756770134 0.01013109739869833 0.01832091435790062 0.014016862958669662 -0.002808572957292199 0.014001778326928616 -0.0034440704621374607 -0.014319946058094501 0.013695969246327877 0.015657436102628708 0.010702992789447308 0.007479214575141668 -0.01769835874438286 -1.0188700252911076E-4 -0.007154630497097969 0.005933420732617378 0.01753877103328705 -0.005481588188558817
pernambuco	-0.01224762387573719 -0.007929373532533646 0.015204831957817078 0.018514420837163925 0.0025640102103352547 0.0016504141967743635 -0.016342593356966972 -0.002506269607692957 -0.0031229546293616295 0.007324733771383762 0.015178391709923744 0.01588115096092224 0.01799621246755123 0.012485825456678867 -0.005626628175377846 -0.006342088337987661 -0.009660318493843079 0.0010690458584576845 -0.013408364728093147 0.01108164619654417 -0.003424698021262884 0.014056584797799587 -0.016736671328544617 -0.01161731407046318 -0.007177039515227079
by	-0.008169878274202347 0.00880866963416338 -0.014833370223641396 0.005335260182619095 0.006268887780606747 -0.0035954415798187256 0.0024751778692007065 -0.018180815503001213 0.01426550094038248 0.01558731123805046 0.013780567795038223 0.010431598871946335 -0.015333892777562141 0.003030874766409397 -0.004909600596874952 -0.011992251500487328 0.006654211785644293 -0.0010541651863604784 0.0043825446628034115 0.008865131065249443 -0.01699223741889 -0.01632610522210598 0.00971191842108965 -0.019399302080273628 0.01679973304271698
december	-0.00127934361808002 -8.351307478733361E-4 0.005152707453817129 0.004671849776059389 0.003585872007533908 0.010433574207127094 0.00866005104035139 -0.013048149645328522 -0.018604058772325516 -0.01411979179829359 0.011242548935115337 0.01671338826417923 0.011038732714951038 0.0075913346372544765 0.01144343800842762 -5.266653024591506E-4 0.018742620944976807 -0.015072397887706757 -0.013349964283406734 0.001183566520921886 0.016063379123806953 0.011315960437059402 0.014846676960587502 -0.0056380038149654865 0.0031476004514843225
where	-0.006766248494386673 -0.013790549710392952 -0.013931126333773136 -0.006129604764282703 -0.009364190511405468 -0.01964893937110901 0.0031504009384661913 0.015909241512417793 -0.015267564915120602 0.0029827523976564407 -0.0027548850048333406 0.004385045729577541 -0.01301489770412445 0.00986867118626833 0.004557371139526367 -0.0013433906715363264 0.011563959531486034 0.001609058235771954 0.015058313496410847 -0.0025229412131011486 -0.007626707665622234 -0.01320844329893589 0.011876188218593597 0.013270231895148754 -0.009546681307256222
after	-9.154344443231821E-4 7.008437532931566E-4 0.011244433000683784 -0.01351690012961626 0.0010181405814364552 0.004815246444195509 -0.019523000344634056 0.016513552516698837 0.0027327784337103367 -0.004377685487270355 -8.331504795933142E-5 0.018834395334124565 -0.015018720179796219 -0.014845376834273338 0.016369178891181946 0.013723389245569706 -0.0028011337853968143 -0.008366902358829975 -0.017315637320280075 0.019009718671441078 0.011019092984497547 -0.006148362532258034 0.006585090421140194 -0.00885459128767252 -0.01156733836978674
confederation	0.015369738452136517 0.0129811130464077 -1.9546235853340477E-4 0.007510344032198191 0.01131636742502451 0.011893820948898792 0.012954451143741608 0.009529296308755875 -0.00719047524034977 -0.009787633083760738 -0.004297708161175251 -0.0165035892277956 0.00323624350130558 -0.004735593218356371 -0.00528669822961092 -0.005102571099996567 -0.008667723275721073 -0.007770954631268978 0.007065415382385254 0.011254917830228806 -0.01673690602183342 -0.006382280495017767 -0.003990939352661371 -0.009937162511050701 0.01917431876063347
janeiro	0.007353653199970722 0.01114165410399437 0.009170301258563995 0.01604459062218666 -0.016536053270101547 0.0069397506304085255 -0.011264286935329437 -0.00887132529169321 0.016526995226740837 0.00860421359539032 -0.012058418244123459 -0.011941528879106045 -0.00937194935977459 0.013417284935712814 -5.892012268304825E-4 0.010839041322469711 -0.007583578582853079 0.010283274576067924 0.0010746545158326626 -0.009063603356480598 0.009520039893686771 -0.019438637420535088 0.01773439720273018 0.010141205042600632 -0.013107690960168839
a	0.00541091850027442 -0.01180940493941307 0.016931578516960144 0.010334321297705173 0.011272839270532131 0.016520805656909943 -0.004837277345359325 0.0015550171956419945 -0.013998228125274181 -0.015493170358240604 0.007399235852062702 -0.012886516749858856 -0.014298087917268276 -0.005140441004186869 0.018231550231575966 -0.005425527226179838 -0.011419391259551048 -0.012714624404907227 0.01449697744101286 -0.01986236497759819 0.014473972842097282 0.007143928203731775 -0.01837662234902382 0.018403450027108192 -0.0065002297051250935
jose	-0.013141836039721966 -0.013187440112233162 -0.018558505922555923 3.160296764690429E-4 -0.004366121720522642 -0.016312250867486 -0.011065412312746048 0.017094237729907036 -0.009073418565094471 0.010000556707382202 -0.008582442998886108 0.012431466951966286 0.01454859133809805 0.01335690263658762 0.0017139281844720244 0.0025427592918276787 -0.011542079970240593 -0.016645772382616997 -0.0061300708912312984 0.01018819585442543 -0.009231356903910637 -0.018236437812447548 -0.01372755691409111 2.3706165666226298E-4 -0.011391587555408478
one	0.013896125368773937 -0.01955774426460266 0.018264925107359886 -0.01826232299208641 0.016721049323678017 -0.004403555765748024 -0.001801774138584733 -0.016636837273836136 -0.013216197490692139 0.013529750518500805 0.007000620476901531 0.018293168395757675 0.012652994133532047 0.014929558150470257 0.016457565128803253 -0.005066956393420696 0.019845951348543167 0.0070854006335139275 -0.016268661245703697 -0.01131932158023119 0.004860138986259699 0.005893080495297909 -0.005353177897632122 0.014558752998709679 -0.01418707799166441
i	-0.017403578385710716 -0.013487126678228378 -0.01978081837296486 0.013079104013741016 0.009704484604299068 0.008450700901448727 0.014029464684426785 0.019732600077986717 0.018711822107434273 0.013722128234803677 0.0026429046411067247 -0.00537263834849 -0.010624852031469345 -0.011519057676196098 -0.010089733637869358 0.009424060583114624 0.006522055249661207 -0.005878016818314791 -0.018657326698303223 0.005380541551858187 -0.019323788583278656 -0.009248395450413227 -0.005294551141560078 0.010958652012050152 -0.019738472998142242
the	-0.017409509047865868 0.008951358497142792 -0.0021556776482611895 -0.006619598716497421 -0.016695549711585045 0.002814494539052248 0.012187705375254154 -0.016527974978089333 0.012462218292057514 -0.005482078064233065 0.007089443039149046 0.009468009695410728 -0.007099481765180826 0.017360810190439224 0.019955510273575783 -0.004260677844285965 -0.011766597628593445 0.009203942492604256 0.003525324398651719 0.016251644119620323 0.006290629971772432 -0.004822883754968643 -7.588169537484646E-4 -0.016057632863521576 -0.019758356735110283
mello	-0.012613601051270962 -0.0028676267247647047 0.008002031594514847 0.012761781923472881 0.016236241906881332 -0.016363101080060005 -0.012575170025229454 0.012244673445820808 0.007737249135971069 -0.007126449141651392 -0.0038934585172683 0.011083841323852539 0.004395459312945604 0.009226624853909016 -0.01831999607384205 6.645958637818694E-4 -0.0089576980099082 0.004895415157079697 0.005152545403689146 4.618830280378461E-4 -0.015805069357156754 0.003153529018163681 -0.00895676389336586 -0.016875969246029854 0.016621123999357224
to	-0.012584131211042404 0.010692773386836052 0.012330125086009502 -0.01848389394581318 -0.015079539269208908 -0.015538347885012627 -0.010033135302364826 -0.0041889832355082035 0.014238789677619934 -0.007026995066553354 -0.0037254171911627054 0.016032187268137932 0.003833296475932002 0.006138561759144068 0.014067042618989944 0.017229313030838966 -0.0189045462757349 -0.01377839408814907 -0.015316832810640335 0.008598452433943748 0.012573103420436382 0.00934865977615118 -0.01870592124760151 -0.016541114076972008 -0.015213939361274242
under	0.010782517492771149 -0.00600009597837925 -0.016200777143239975 0.015326961874961853 0.005982083268463612 0.007752934470772743 -0.0011757328175008297 0.0019717083778232336 0.015909796580672264 -3.4599131322465837E-4 7.1972596924752E-4 -0.009711715392768383 7.487518596462905E-4 -0.005942830350250006 0.005943054333329201 -0.014292932115495205 -0.012133846990764141 0.013567298650741577 -0.002488798229023814 -0.017431525513529778 0.01974538341164589 -3.476321289781481E-4 -0.0034753039944916964 0.019962742924690247 4.045595051138662E-5
imperial	-0.012351784855127335 0.005253604147583246 -0.016026943922042847 -0.013168697245419025 0.007985002361238003 -0.014217143878340721 -0.006147854961454868 0.011838040314614773 0.007685348857194185 0.01050008274614811 -0.004863985814154148 0.006811582017689943 -0.003973922226577997 0.015838438645005226 0.016504328697919846 0.011195412836968899 8.012077305465937E-4 -0.012319131754338741 0.009698835201561451 0.013231121003627777 -0.010294905863702297 0.005844801664352417 0.010397427715361118 0.0027623381465673447 -0.0015832645585760474
movement	0.00923179928213358 0.004672850016504526 -0.01523112878203392 0.006073067430406809 -0.01910204254090786 0.01177496463060379 0.019789287820458412 0.01001638825982809 0.005384722724556923 0.004212306812405586 0.017904596403241158 -0.0046378024853765965 0.018011437729001045 -0.010591930709779263 -0.012141884304583073 0.00730642257258296 0.011189527809619904 0.013924036175012589 0.007006550673395395 0.013970916159451008 -0.014233577996492386 -0.0016433572163805366 -0.0014515593647956848 -0.008203350007534027 0.004924872890114784
da	-0.01667766645550728 -0.019356481730937958 0.012972863391041756 0.006241232622414827 0.008457712829113007 0.015303179621696472 0.004590629134327173 0.002338335383683443 0.009278971701860428 -0.011063744314014912 0.0033228029496967793 -0.006311084143817425 0.012562969699501991 -7.982542156241834E-4 0.007087886333465576 0.010549424216151237 0.00387162365950644 -0.003576127579435706 0.0177240539342165 0.005483665969222784 0.00408976012840867 0.001106600626371801 -0.019691189751029015 -0.01217246800661087 -0.012343649752438068
first	-0.017609871923923492 -0.017599478363990784 0.006804649252444506 0.019718946889042854 0.008463949896395206 -0.007591531611979008 0.014132692478597164 -0.013395561836659908 -0.00447366526350379 0.0031681619584560394 0.004633629694581032 -0.015179086476564407 0.014026723802089691 0.01946042664349079 0.008620754815638065 0.007782363798469305 0.012449805624783039 -0.0073606898076832294 0.017963534221053123 -0.0032343429047614336 -0.003635202068835497 0.008776002563536167 -0.012448390014469624 -0.013111112639307976 -0.011357967741787434
board	0.011289481073617935 -0.013611000031232834 -0.0038585702423006296 -0.011422468349337578 -0.006975558586418629 0.004099696408957243 0.01788235642015934 0.008414164185523987 -5.614395486190915E-4 0.004847587551921606 0.017746899276971817 -0.01266386266797781 -0.003453298704698682 -0.012801035307347775 -0.010229028761386871 0.0182807520031929 0.010374676436185837 0.01033561211079359 -0.008683258667588234 -0.014072820544242859 0.014356550760567188 -0.007574501447379589 -0.006422361359000206 -0.015365281142294407 -0.016830353066325188
but	0.010428903624415398 -0.008000127971172333 0.0019518279004842043 -0.015765702351927757 -0.006912813987582922 -0.002207803539931774 -0.018197832629084587 0.017060410231351852 0.008514642715454102 -0.013991039246320724 0.0010705405147746205 0.0017598886042833328 0.00235403492115438 0.01774441823363304 0.019209014251828194 0.004021053668111563 0.005877265240997076 0.012903034687042236 0.0027248188853263855 0.0013625180581584573 0.005468124058097601 0.00558210164308548 2.4282775120809674E-4 0.00454036146402359 -0.01485422719269991
francisco	0.01694261096417904 -0.01655062660574913 0.01587330922484398 -0.01981460116803646 -0.013913492672145367 -0.012910284101963043 -0.01901787705719471 -0.018071431666612625 0.015101281926035881 -0.007646217010915279 -0.014007799327373505 0.016769427806138992 0.014727411791682243 0.011050265282392502 0.0034407335333526134 -0.006561134941875935 0.018460243940353394 0.005646097473800182 -0.019591836258769035 -0.009736305102705956 0.010152830742299557 0.0076737250201404095 0.001512671820819378 0.01411929726600647 -0.00571545772254467
de	0.0184558667242527 -0.01149449311196804 0.006618864368647337 0.004732444416731596 0.008347020484507084 -0.0024334134068340063 -0.013287119567394257 0.01731007918715477 0.010430794209241867 0.012283606454730034 -0.004020210355520248 -0.0010384636698290706 -0.01076905895024538 -0.0030454439111053944 -0.0031007262878119946 -8.804444223642349E-4 -0.0022461710032075644 -0.0032193188089877367 0.001572542591020465 0.013307268731296062 -0.01279167365282774 -0.007194362580776215 -0.0044713374227285385 -0.015507912263274193 0.014565073885023594
silva	0.007216995116323233 -0.017340492457151413 0.010862793773412704 0.00808897614479065 -0.009333603084087372 0.01882774941623211 0.015009029768407345 -0.010328334756195545 -0.0060240416787564754 -0.0012338625965639949 0.002949449932202697 0.005764748901128769 -0.002333381213247776 -0.00517706573009491 -0.015868162736296654 0.015023395419120789 -0.01984613761305809 0.018806276842951775 -0.012606244534254074 -0.013695113360881805 -0.01727142184972763 0.002629227936267853 0.010106607340276241 0.0016215150244534016 -0.019380517303943634
political	-0.01724935881793499 -0.015057996846735477 -8.289322722703218E-4 -6.761316326446831E-4 -0.0060879383236169815 0.002712399000301957 0.018616707995533943 0.01745491847395897 -0.017817342653870583 -0.010864535346627235 0.007758441846817732 -0.009182781912386417 -0.014283285476267338 -0.016840236261487007 -0.006709132343530655 0.0076248194091022015 0.01856384612619877 0.0024550880771130323 0.01075801718980074 0.012437484227120876 0.01342194527387619 0.009751137346029282 -0.005146604496985674 -0.01267786044627428 0.019712308421730995
had	-0.0015722576063126326 0.0037258227821439505 0.013994266279041767 0.0021616690792143345 0.002564581111073494 0.01711345836520195 -0.010249337181448936 -0.015490713529288769 -0.015232734382152557 0.01389326062053442 -0.00772798852995038 0.01753062941133976 -0.005406742915511131 -0.016383156180381775 0.017561525106430054 -0.017427876591682434 0.01240028627216816 0.005912403110414743 -0.019306035712361336 0.009985599666833878 0.00851858127862215 0.019978325814008713 0.007808158174157143 -0.019919108599424362 0.018963297829031944
main	0.01794142834842205 0.01847524754703045 0.010765361599624157 -0.0029343131463974714 -0.0037472762633115053 -0.013668877072632313 -0.0013351605739444494 -0.004545815754681826 -0.009810833260416985 0.01743367873132229 -0.003413918660953641 3.663891984615475E-4 0.011989708989858627 0.0072199441492557526 -0.015120537020266056 0.018215566873550415 0.010253220796585083 0.018348073586821556 0.013886590488255024 -0.01057280134409666 -0.005528355948626995 -0.006027332041412592 -0.007493439596146345 -0.017075031995773315 0.01898672617971897
do	0.013515601865947247 -0.015946734696626663 -0.008168475702404976 0.015027912333607674 -0.01005577202886343 -0.01692649908363819 -0.00457472400739789 -0.01580384187400341 0.016308225691318512 0.019101860001683235 -0.017083536833524704 0.012694419361650944 -0.005077651236206293 0.00777699938043952 -0.013274148106575012 0.0184238962829113 -0.019045531749725342 -0.003841823199763894 -0.017815373837947845 0.0041819168254733086 0.01215521339327097 -0.016950735822319984 0.016520027071237564 0.011818848550319672 0.0018224995583295822
independence	0.019322793930768967 0.011154374107718468 -0.011926698498427868 0.011889194138348103 0.01921546645462513 0.016636790707707405 -0.005555600859224796 -0.008118226192891598 -0.0040224893018603325 -0.018137184903025627 -0.004383047576993704 0.016294624656438828 0.01063588261604309 0.0029368922114372253 -0.014372538775205612 0.005442952737212181 -0.0015778685919940472 0.005643833894282579 -0.01169009879231453 -0.0040660821832716465 0.016022806987166405 0.01610518991947174 0.009000360034406185 -0.007067882921546698 0.005839010700583458
him	-0.008435391820967197 0.01438062358647585 0.01297487411648035 -0.007687866222113371 0.010474368929862976 -0.0062517402693629265 -0.0034401107113808393 -0.017496105283498764 0.01899588853120804 0.006783070042729378 -0.015949105843901634 -0.0043823812156915665 0.013037656433880329 -0.008993088267743587 -0.01991780661046505 -0.004701375495642424 -0.006790745072066784 -0.00511230668053031 0.010963485576212406 -0.0033418431412428617 -8.419613004662097E-5 -9.187979740090668E-4 -0.01715881936252117 0.009455365128815174 0.006482693366706371
that	0.013951974920928478 -0.01331513561308384 8.140185382217169E-4 -0.01954689621925354 0.01693510077893734 -0.01111551932990551 -0.004006549250334501 0.016306502744555473 -0.016686612740159035 0.0027690683491528034 -0.005002579651772976 0.0017600646242499352 0.006058864761143923 -1.9755835819523782E-4 -0.017678551375865936 0.01040668971836567 -0.019291793927550316 0.019913040101528168 -0.004130435176193714 -0.0157536081969738 0.010208784602582455 -0.015478687360882759 -0.003491923213005066 -0.011170443147420883 -0.012671837583184242
his	0.012726693414151669 0.010680495761334896 0.0190398171544075 -0.009125111624598503 0.0035518454387784004 -0.00487870117649436 0.0025546448305249214 0.01471998542547226 0.012780522927641869 -0.014086047187447548 -0.0015778507804498076 0.013561312109231949 -0.0014267419464886189 -0.010827045887708664 -0.017463117837905884 0.011304455809295177 0.005839027930051088 -0.007887935265898705 -0.01390763372182846 0.01746714860200882 0.016435816884040833 -0.011595860123634338 -0.00539212254807353 -0.003991586156189442 -0.003672846360132098
members	-0.009084505029022694 -0.0032171194907277822 0.007867878302931786 0.006285759154707193 -0.010474614799022675 0.00489454623311758 0.018378065899014473 -0.007055618800222874 -0.0174449160695076 -0.019519267603754997 -0.009007865563035011 -0.0015339802484959364 0.015303741209208965 -0.004202508367598057 -0.014260551892220974 0.01936989091336727 0.014590447768568993 0.00972701981663704 0.012491290457546711 -0.012003437615931034 0.018156960606575012 -0.007966019213199615 0.01547517254948616 0.011708532460033894 0.017391202971339226
only	0.01345202699303627 0.0018271348671987653 -0.006128625478595495 0.0013362016761675477 0.008522085845470428 0.016553770750761032 0.008089669980108738 0.0011978937545791268 0.006354403216391802 0.01159742008894682 0.014847151935100555 -0.010154731571674347 -0.004984392784535885 -0.0052449363283813 0.01907140016555786 -0.005347264464944601 0.003949145320802927 0.008367437869310379 -0.003146943636238575 -0.019421393051743507 -0.006446188315749168 -0.014407000504434109 0.013007336296141148 -0.010388205759227276 -0.007034141570329666
provincial	-0.013561459258198738 0.01192190870642662 0.005614324472844601 -0.0038827043026685715 1.1188493772351649E-5 0.012494223192334175 -0.004922972526401281 -0.007647030986845493 0.015415048226714134 7.67385819926858E-4 -0.009523943066596985 -0.01462240144610405 0.005140827968716621 -0.009526385925710201 -0.004780811723321676 0.00890058372169733 -0.005942467600107193 0.017194541171193123 -0.014386777766048908 -0.002076833276078105 -0.0024722907692193985 0.0023114015348255634 0.0019985029939562082 0.005628085695207119 0.005698951426893473
military	0.011642256751656532 0.013667910359799862 0.014674265868961811 0.012216640636324883 0.018634021282196045 -0.0140462601557374 -0.0013176709180697799 0.001342061092145741 -0.019592080265283585 0.01703197881579399 0.0059234038926661015 -0.016513511538505554 0.010221722535789013 0.017345979809761047 -0.019791949540376663 0.0079043572768569 0.005646376870572567 -0.0010440333280712366 0.015264560468494892 -0.005097890738397837 -0.010953566990792751 0.0035413657315075397 0.008006228134036064 0.015593674033880234 -0.0027553921099752188
from	9.121206239797175E-4 0.0025995648466050625 -0.014527217485010624 0.009596102871000767 0.014704098924994469 0.019850583747029305 0.017560750246047974 -0.006881308276206255 0.011650539003312588 0.013850124552845955 -0.018404532223939896 0.018390227109193802 0.015193602070212364 -0.015596351586282253 4.993074107915163E-4 0.010410753078758717 -0.016232946887612343 -0.0152848269790411 -0.012824668549001217 0.015368424355983734 0.01477239653468132 -0.003246982814744115 0.015600095503032207 -0.003753659315407276 0.017018096521496773
which	-0.01859484426677227 0.016183311119675636 0.007185065187513828 0.0018813736969605088 -0.0022293594665825367 0.008824270218610764 0.01650991290807724 -0.005932244937866926 0.006651706527918577 -0.00933474488556385 -0.004851250443607569 -0.01492817047983408 0.008548343554139137 -0.016007699072360992 0.018836556002497673 -0.010804145596921444 0.002049377653747797 0.01231390330940485 -0.007659814320504665 -0.00932398159056902 -0.014750850386917591 0.006930029019713402 -0.013251724652945995 0.0021575242280960083 -0.012133825570344925
took	8.527458412572742E-4 0.00883807148784399 -0.018612820655107498 -0.005493307486176491 0.014015340246260166 0.0187742430716753 -0.0035538726951926947 -0.012250323779881 0.008299397304654121 0.013558183796703815 -0.002859637141227722 -0.014592134393751621 0.0157936904579401 0.009845425374805927 8.253879495896399E-4 -0.0013112557353451848 0.009890641085803509 -0.005661787465214729 -0.003180739004164934 -0.01364709809422493 0.014647857286036015 0.013372774235904217 -0.004290835466235876 -0.013268914073705673 0.008093234151601791
this	-0.019227737560868263 7.522699306719005E-4 0.01560064498335123 0.015428467653691769 0.0022983690723776817 0.004082388244569302 -0.009856509976089 -0.017347531393170357 -0.005107617471367121 0.01741284877061844 -0.01422587689012289 0.008699866011738777 -0.016656674444675446 -0.017762906849384308 -0.001395497121848166 -0.009673958644270897 -9.687060373835266E-4 0.0018818230601027608 -0.007124477531760931 0.018580541014671326 0.012960415333509445 -0.016431646421551704 -0.014382167719304562 -0.005020953249186277 0.008254259824752808
cabral	0.006232756190001965 -0.014198390766978264 -0.004083254374563694 -0.0011427926365286112 -0.010777427814900875 -0.002626065630465746 -0.004323945380747318 0.01491384394466877 0.018460381776094437 -0.012379705905914307 -0.0042715296149253845 -0.015299973078072071 0.00861475057899952 0.01079364214092493 0.01381073147058487 -0.002092737937346101 -0.01776300184428692 -0.012978801503777504 0.005498476792126894 0.004605479538440704 0.015219034627079964 0.00562501884996891 0.008327345363795757 0.016856912523508072 0.005742988083511591
were	-6.130049587227404E-5 -0.01825193129479885 -0.01086446177214384 -0.004787113051861525 0.01561941672116518 0.019847078248858452 0.010774608701467514 0.01598932407796383 0.010331262834370136 -0.011822574771940708 -0.0049720644019544125 0.0025348386261612177 0.0034740709234029055 0.017731882631778717 -0.009333385154604912 -6.268195575103164E-4 0.00779604259878397 -2.4386074801441282E-4 -0.015101506374776363 0.014409090392291546 -0.007992985658347607 0.010016102343797684 0.003255104646086693 0.0014724215725436807 0.012246043421328068
support	0.016036374494433403 -0.01880381442606449 -0.01607999950647354 -0.005418186075985432 -0.001972007332369685 -0.017962543293833733 0.002046968787908554 -0.018830880522727966 -5.023799021728337E-4 -0.007389676757156849 0.017790941521525383 0.005398307926952839 -0.0071728844195604324 -0.0021462468430399895 8.606142946518958E-4 0.001196470344439149 -0.006561861839145422 0.019786326214671135 0.00450525525957346 -0.01255232933908701 -0.01436873059719801 -0.009048308245837688 0.019555017352104187 -0.014391908422112465 0.011485537514090538
mug	0.004384072031825781 0.015702178701758385 -0.01497463509440422 -0.0022437528241425753 -0.011652866378426552 0.009921169839799404 0.0018978912848979235 -0.01758888177573681 0.0184813030064106 -0.01682216115295887 0.011201540939509869 0.012867766432464123 -0.006379150319844484 0.007700422778725624 0.016262108460068703 0.003592655062675476 0.00685751810669899 -0.01893286034464836 0.0012464544270187616 3.707497089635581E-4 0.006686902139335871 -0.0032704551704227924 -0.009763632901012897 -0.015485186129808426 0.012991862371563911
who	0.01132186595350504 0.016803177073597908 -0.009397872723639011 0.015268160030245781 -0.005136347841471434 -0.014165909960865974 0.011369053274393082 0.013246703892946243 0.016684267669916153 -0.0011395603651180863 0.016719240695238113 -0.004554553423076868 -0.0072438158094882965 0.016629742458462715 0.008663397282361984 0.005437174346297979 0.013254106044769287 0.013086500577628613 -0.01742580719292164 0.01848110370337963 -0.011609398759901524 -0.008735688403248787 -1.3672937348019332E-4 -0.01663064956665039 -0.011480444110929966
since	0.015832999721169472 0.017791152000427246 -0.005786526016891003 0.002793495077639818 0.01849304884672165 0.00819758977741003 -0.010469412431120872 -0.018455911427736282 0.012658036313951015 0.016105065122246742 -0.016541531309485435 0.005322625394910574 0.0021580166649073362 -0.011690713465213776 0.006634919438511133 1.8945404735859483E-4 0.006573251914232969 -0.012170782312750816 0.013432694599032402 0.00170428107958287 -0.010110859759151936 0.0037938670720905066 0.0010546237463131547 -9.52520698774606E-4 0.012560314498841763
yokels	0.017432384192943573 0.010851787403225899 -0.004492101725190878 -0.004258395172655582 0.018963655456900597 0.0031673528719693422 0.012983444146811962 -0.017031049355864525 0.012333592399954796 -8.455885108560324E-4 -0.01356328185647726 -0.019908519461750984 0.0032745792996138334 0.006167889107018709 -0.014453377574682236 -0.014651728793978691 0.01535491831600666 -0.00431247940286994 0.012813983485102654 -0.016330871731042862 -0.008589377626776695 0.009481343440711498 -0.007272439543157816 0.011984756216406822 0.014178458601236343
brazil	0.013267510570585728 -0.012205948121845722 0.004273385275155306 -0.012793675065040588 -0.006246983539313078 -0.011791208758950233 -8.055548532865942E-4 0.00921426247805357 0.01603412814438343 0.004215761087834835 -0.004831720143556595 0.019357716664671898 -0.008568815886974335 0.002255707746371627 -0.007420112378895283 0.014626940712332726 -0.010763196274638176 -0.003617693902924657 -0.003857523202896118 -0.01415126770734787 -0.006896346807479858 0.007214728277176619 0.014497369527816772 0.0015493183163926005 0.015725813806056976
for	-0.014388727024197578 0.009682247415184975 -0.007235979661345482 0.015607417561113834 0.010927682742476463 -0.012473151087760925 0.00779245188459754 -5.261388723738492E-4 -0.0067997765727341175 -0.0022478587925434113 0.012688638642430305 0.00716150039806962 0.005119016394019127 -0.0022372640669345856 0.004573456011712551 0.009078067727386951 0.0038029251154512167 0.007635913789272308 -0.004480110947042704 0.008810605853796005 -0.00606464222073555 -0.003019077703356743 -7.631729822605848E-4 -0.0010830960236489773 0.004737015813589096
manuel	0.007199084386229515 0.010371442884206772 0.007657354697585106 0.006255619693547487 0.014658891595900059 -0.006689195986837149 0.017894500866532326 0.019178012385964394 -0.006235941778868437 -0.018424630165100098 0.017279036343097687 0.004908343311399221 -0.007917733862996101 -0.015553721226751804 0.016335124149918556 -0.016194241121411324 0.013933847658336163 -0.0031042988412082195 0.009670632891356945 -0.003716209437698126 0.0014158216072246432 0.01641790196299553 -0.00947545375674963 -0.008976559154689312 0.014497580006718636
caneca	0.012120897881686687 -0.011259444057941437 2.776089240796864E-4 -0.004274690058082342 5.772306467406452E-4 -0.0028061834163963795 -0.00805696938186884 0.014188718050718307 -0.004474214278161526 -0.0022966293618083 0.004787745885550976 -0.005131377372890711 0.014225536957383156 -0.013272379525005817 0.0041030882857739925 -0.01750521920621395 0.019685959443449974 -8.708017412573099E-4 -0.013636968098580837 0.019684934988617897 0.016649961471557617 -0.010379770770668983 -0.009265145286917686 0.014274663291871548 -0.017541633918881416
pernambucano	0.012344294227659702 0.01142989844083786 0.006644394248723984 0.004655363969504833 -0.007294928655028343 -0.005345150828361511 0.0027579087764024734 0.004993721377104521 0.013882482424378395 -0.018471183255314827 0.019330769777297974 -0.010316130705177784 -0.016263242810964584 -0.012248758226633072 0.01963127590715885 0.017023654654622078 -0.004265499301254749 0.019544662907719612 0.013031205162405968 0.019503319635987282 0.012449032627046108 0.004270702134817839 0.0172890592366457 0.013334609568119049 -0.011733656749129295
not	0.01398372557014227 -0.0036893615033477545 0.01786176487803459 6.632152944803238E-4 -0.010122576728463173 0.011939154006540775 0.019503379240632057 -0.006893613375723362 -0.002054255921393633 -0.015417495742440224 -0.015689847990870476 -1.7783322255127132E-4 -0.017168177291750908 -0.012655938044190407 0.010077469982206821 -0.001937507069669664 0.009597457014024258 -0.004902954213321209 -0.010523962788283825 -0.002075215568765998 0.001397725660353899 -0.001591005246154964 0.010406138375401497 0.01657109707593918 -0.00990126933902502
september	-0.01652219332754612 0.01220112107694149 -0.003308477345854044 -0.019231826066970825 0.017209719866514206 -0.010954592376947403 0.00966884009540081 -0.0015945947961881757 -0.0016626586439087987 0.007770382799208164 0.01938001811504364 0.0049760653637349606 -0.006176235619932413 -0.00969733577221632 0.01701422408223152 -0.0017687546787783504 -0.008234868757426739 -0.018332377076148987 -0.018276222050189972 0.008530172519385815 -0.01735309325158596 -0.01275313924998045 0.008760293945670128 0.004558656830340624 0.016294976696372032
pedro	-0.004349743016064167 0.0033651108387857676 0.01004907488822937 -0.01024581491947174 0.018210720270872116 -0.0030373120680451393 0.0038235504180192947 0.012602724134922028 0.017444085329771042 0.013120916672050953 -0.018871847540140152 0.021208973601460457 -0.020805370062589645 0.009328808635473251 0.0024678967893123627 0.0016980147920548916 0.00431920075789094 -0.010675453580915928 -0.01871931552886963 0.001707665272988379 -0.01935282163321972 0.013492653146386147 -0.011732364073395729 -0.010384643450379372 0.0076661002822220325
and	-0.01202865969389677 -0.007334256544709206 0.012729417532682419 0.013329501263797283 0.008078662678599358 0.01913607120513916 0.0038158607203513384 0.009042618796229362 -0.006765847560018301 -0.006427515298128128 0.016702402383089066 0.014933179132640362 -0.011225485242903233 -0.004018278792500496 0.0028723510913550854 -0.018233977258205414 -0.019421430304646492 0.016415119171142578 0.018085051327943802 0.012920296750962734 2.4205812951549888E-4 0.00793539360165596 4.0947512025013566E-4 0.010087953880429268 2.102107391692698E-4
of	8.218376315198839E-4 -0.012416990473866463 0.006229150574654341 -0.008091663010418415 -0.011795338243246078 -0.009250236675143242 -0.006722441874444485 0.01494496688246727 0.004276707302778959 -0.005261928774416447 0.01816149242222309 0.013993489556014538 0.004110931418836117 -0.017346961423754692 -0.002020022366195917 0.007426107302308083 -0.015765437856316566 0.019318245351314545 -0.01475490815937519 0.009311692789196968 -0.018372034654021263 -1.2809217150788754E-4 0.005127373151481152 -0.00362132815644145 -0.009818843565881252
gervasio	-0.004633251111954451 0.007859023287892342 -0.0012172437272965908 0.0036460983101278543 0.010424552485346794 -0.007792861666530371 0.007039947435259819 0.018056808039546013 -0.0020385796669870615 0.0033862870186567307 -0.015417562797665596 0.014515012502670288 0.004903870634734631 0.0019617564976215363 -0.013593632727861404 -0.01254923827946186 -0.011898498982191086 0.0010889585828408599 0.008334038779139519 0.012015815824270248 0.009407330304384232 -8.524158620275557E-4 -0.004189259838312864 0.013090347871184349 -0.014731880277395248
portuguese	0.013731428422033787 -0.01655527949333191 -0.007785972207784653 -0.017905406653881073 -0.01529710739850998 -0.013453223742544651 0.014487231150269508 -0.011519130319356918 0.01631312072277069 0.005356673616915941 -0.018017061054706573 0.0073965489864349365 0.004558965098112822 -0.01876099780201912 0.0152547936886549 0.006117730867117643 -0.01395789347589016 0.007576366886496544 2.571738441474736E-4 -0.013749547302722931 0.016980664804577827 0.001717237289994955 0.011309046298265457 -0.015459495596587658 -0.018005656078457832
colonel	-0.004128592554479837 -0.019537851214408875 -0.0028251451440155506 8.414345793426037E-4 -0.011988965794444084 0.011569779366254807 0.013681689277291298 0.005329449195414782 0.005024119280278683 -0.002737464150413871 -0.014600053429603577 -0.019481955096125603 0.009173115715384483 0.003793547162786126 0.010444503277540207 0.017969947308301926 -0.01996278017759323 -0.014304754324257374 0.017336612567305565 -0.018548453226685524 0.003468290437012911 0.003110205987468362 -0.013590055517852306 0.0018233207520097494 0.018408728763461113
on	0.009169613011181355 -0.01097036898136139 0.010878372006118298 -5.438928492367268E-4 0.00244545959867537 0.01129082590341568 0.013926989398896694 -0.018876701593399048 -0.013651047833263874 0.005626798607409 0.017212197184562683 7.297304546227679E-5 -0.018519824370741844 0.018109118565917015 -0.005396778229624033 5.537587567232549E-4 0.01581527478992939 -6.946245557628572E-4 -0.010495088063180447 0.018346520140767097 0.0035784489009529352 -0.005941211711615324 -0.012206722982227802 0.0052649215795099735 0.0043858373537659645
lima	0.0039050746709108353 -0.008641961961984634 0.00840967707335949 0.01587534509599209 -0.0036114726681262255 0.004100625868886709 0.011344346217811108 0.006088132504373789 -0.0025527444668114185 0.008757049217820168 -0.010301210917532444 0.004641958512365818 -0.01045245211571455 -0.0018208478577435017 -0.003474942874163389 -0.01461232453584671 0.002509032841771841 0.010130963288247585 -0.011583536863327026 -0.008890382945537567 0.009869853034615517 -0.014513714239001274 -0.016096774488687515 0.012385405600070953 0.01311894878745079
was	0.015689102932810783 -0.0069548762403428555 -0.004712027031928301 -0.017309725284576416 0.006371835712343454 -0.011136624962091446 -0.015457489527761936 0.005072208121418953 -0.010536419227719307 0.0016588384751230478 -0.014232993125915527 -0.012894206680357456 -0.01771487668156624 0.004775012843310833 0.003649609861895442 -0.012069261632859707 0.011263366788625717 0.009677838534116745 -0.01011321134865284 -0.005192204844206572 0.00699744513258338 -0.0068766470067203045 0.0057446882128715515 -0.010263198055326939 0.01751568354666233
pais	0.00990783516317606 -0.019284222275018692 -0.0020636855624616146 0.011278914287686348 0.012095315381884575 -0.008183879777789116 0.016947457566857338 -0.012347518466413021 0.003883409546688199 0.01376362331211567 -0.01971477083861828 0.00551576167345047 0.006086186971515417 -0.006602304056286812 -0.00816263910382986 -0.012911040335893631 -3.569162799976766E-4 -0.006307307630777359 0.005334160290658474 -0.01349265780299902 0.008123544044792652 -0.007349132560193539 0.01571321301162243 0.017909454181790352 -0.01677834615111351
with	-0.0052909208461642265 -0.012996247969567776 -0.014646584168076515 -0.019206177443265915 0.019511064514517784 -0.014971896074712276 0.014019172638654709 -0.018495969474315643 7.620632532052696E-4 -0.009456373751163483 0.01781042106449604 -0.009714092127978802 -0.00786601286381483 0.008148128166794777 -0.006544544827193022 0.006295798812061548 -0.007983105257153511 -0.016455914825201035 -0.0025752976071089506 -0.019516440108418465 0.014827869832515717 -8.208676445065066E-5 -0.007516143377870321 -0.004433034919202328 -0.009355084039270878
trade	0.008278020657598972 -0.013418829068541527 -7.519352366216481E-4 0.019330451264977455 0.015353480353951454 -2.2078091569710523E-4 0.008065004833042622 0.0040101585909724236 0.014664373360574245 -0.0020908121950924397 0.002787271747365594 -0.0042518023401498795 -0.015174545347690582 0.01897577755153179 -0.015022956766188145 -0.00432566786184907 -0.009598890319466591 0.00856083631515503 -0.004779995884746313 -0.002610513474792242 0.009638742543756962 -0.008480307646095753 -5.557667464017868E-4 0.012152866460382938 0.0032548208255320787
there	0.011056361719965935 -7.997092325240374E-4 0.0037751109339296818 0.019229257479310036 -0.01382747758179903 8.050642791204154E-4 -0.0036931021604686975 -0.0026294554118067026 -0.016026398167014122 0.01886765845119953 -0.0020444216206669807 -5.197838763706386E-4 0.008635280653834343 -0.007375188171863556 0.006822492927312851 0.006325618363916874 -0.016374196857213974 0.0022522537037730217 -6.866775802336633E-4 -0.016953440383076668 -0.007635679095983505 0.013441394083201885 0.016637489199638367 0.0165338683873415 0.012614629231393337
time	-0.014257214963436127 0.010156182572245598 -0.012150006368756294 -0.01783268339931965 -0.013503415510058403 0.013282401487231255 -0.009684312157332897 -7.860821206122637E-4 -0.01667737402021885 0.0199247095733881 1.1058237578254193E-4 0.013455947861075401 0.008145094849169254 0.017264215275645256 -0.006575046572834253 0.005580147262662649 -0.0087904566898942 0.019716689363121986 -0.016719043254852295 -0.007914510555565357 0.019312411546707153 -0.01562462653964758 0.0022668943274766207 -0.007891620509326458 -4.180901451036334E-4
he	0.008903361856937408 0.012208187952637672 -0.012486002407968044 0.014177381992340088 0.0050222622230648994 -0.006380936596542597 -0.0018341228133067489 -0.018155725672841072 -0.0039008520543575287 0.006857610773295164 -0.009630604647099972 0.009357890114188194 0.019875597208738327 0.006922377739101648 -0.008785618469119072 -0.017900681123137474 0.01688271015882492 9.517496800981462E-4 -0.0011835767654702067 0.006342304404824972 0.0025307130999863148 -0.01334621012210846 0.01769171841442585 -0.011825029738247395 -0.016812283545732498
