called	-0.018384428694844246 0.01332071516662836 -0.010232072323560715 -0.024027781561017036 -0.009229381568729877 -0.004823652561753988 0.020759735256433487 -0.0044180480763316154 0.0022902563214302063 0.0024150442332029343 0.005119808949530125 0.03782835602760315 -0.026920322328805923 0.013452344574034214 0.0028860000893473625 0.011533796787261963 -0.003993702121078968 0.0011283402564004064 -0.014526261016726494 0.045298781245946884 0.011899666860699654 0.0010667350143194199 -0.014453657902777195 -0.033874161541461945 -0.01778196357190609
during	-0.028738081455230713 -0.007031303830444813 0.008620640262961388 -0.052511971443891525 -0.046694643795490265 -0.013343032449483871 0.043940018862485886 -0.01081913523375988 0.040383584797382355 -4.6421418664976954E-4 0.0402320958673954 0.07039463520050049 -0.014182195998728275 0.012161181308329105 0.022950738668441772 -7.456233142875135E-4 -0.0514841191470623 0.04656148701906204 0.005575931631028652 0.0910259559750557 0.03381073847413063 -0.03517472371459007 0.004009617026895285 -0.07746139913797379 -0.08233053237199783
<NUMBER>	-0.03681207075715065 -0.011182854883372784 0.01949477754533291 -0.057751983404159546 -0.04957425221800804 0.00145670585334301 0.030427411198616028 -0.03297101706266403 0.045148272067308426 -0.03559451550245285 0.01976638101041317 0.059732478111982346 -0.041015565395355225 0.036151230335235596 0.06539715826511383 -0.03387491777539253 -0.04506605118513107 0.05279850959777832 -0.03325227275490761 0.10777612775564194 0.055981047451496124 -0.04418284818530083 0.01166688371449709 -0.08551542460918427 -0.08308687061071396
troops	-0.01041980180889368 -0.01731429435312748 -0.005951023660600185 -0.02504885382950306 -0.012032330967485905 -0.01914552040398121 0.006880709435790777 -0.021512558683753014 -0.011419174261391163 0.005584576167166233 0.00840962678194046 0.01704617217183113 -0.007508938666433096 0.022996585816144943 0.023998940363526344 -0.01405668817460537 0.005458537023514509 -0.00543808052316308 0.014424104243516922 6.40801212284714E-4 -0.005743025802075863 -0.004597265273332596 0.011777333915233612 -0.03193516656756401 9.667750564403832E-4
without	-0.013315357267856598 -0.020857950672507286 -0.006057375110685825 -0.012524918653070927 0.012889247387647629 -0.021186664700508118 0.017087001353502274 0.015101131983101368 0.019387975335121155 0.010699592530727386 0.01355314813554287 -0.002611213829368353 0.0012168313842266798 0.001823596190661192 0.0017184978350996971 -0.012468373402953148 -0.01500911358743906 0.01651947572827339 0.0033336200285702944 0.016834545880556107 0.02238401025533676 -0.0038919600192457438 -0.018330803140997887 -0.01591023989021778 0.002116889925673604
would	-0.023452574387192726 -0.018540719524025917 0.003981574438512325 -0.022159362211823463 -0.04289964586496353 -0.010812873020768166 0.0011382527882233262 -0.010283758863806725 0.02402721904218197 -0.011159454472362995 0.030184121802449226 0.04306635633111 -0.029065674170851707 0.013991168700158596 0.008393385447561741 -0.016484197229146957 -0.03570627421140671 0.045742567628622055 -0.03024999238550663 0.047201164066791534 0.034037474542856216 -0.04647684842348099 0.010206237435340881 -0.06308574974536896 -0.06862800568342209
province	-0.012443356215953827 0.010400129482150078 0.007308582775294781 0.006670798175036907 0.0018508000066503882 -0.0015937237767502666 -0.004776096902787685 0.021945282816886902 -0.0016615587519481778 -0.0018673015292733908 -0.02642577514052391 8.988723275251687E-4 -0.002421511337161064 -6.312563782557845E-4 0.00880154874175787 -0.012521239928901196 0.01913370005786419 0.0022786399349570274 0.024192307144403458 -0.0332055389881134 -0.005155451595783234 -0.001297601847909391 0.007758553605526686 -0.00202583777718246 5.374085158109665E-4
rio	-0.057275112718343735 -0.003290697233751416 0.02190026082098484 -0.0705990344285965 -0.03412054851651192 -0.036523107439279556 0.031211553141474724 -0.019399072974920273 0.054824020713567734 -0.02649727649986744 0.05429449677467346 0.07007060199975967 -0.04322783648967743 0.0354267843067646 0.04496554657816887 -0.03603224456310272 -0.05679282546043396 0.06578619033098221 -0.018587714061141014 0.12494057416915894 0.05250763148069382 -0.055866703391075134 0.01090009044855833 -0.11623648554086685 -0.08936721831560135
they	0.012954365462064743 -0.012236522510647774 0.014577040448784828 -0.028146842494606972 -0.028928546234965324 -0.025200704112648964 -0.00951800961047411 -0.01749582774937153 0.02600645273923874 0.003287283005192876 -0.003341600764542818 0.03819066286087036 -0.024603543803095818 -0.0031960082706063986 -0.009235900826752186 0.005716814659535885 -2.2864690981805325E-4 0.032385386526584625 -0.02092798799276352 0.03739571571350098 0.00289725698530674 0.002480460796505213 -4.962979000993073E-4 -0.015806853771209717 -0.022976595908403397
recife	-0.02130194753408432 0.003316110698506236 -0.009805706329643726 -0.021024208515882492 -0.01759626902639866 0.005402715411037207 0.016382969915866852 -0.02113470807671547 0.03177949786186218 -0.00810154713690281 -0.006728890351951122 0.031515128910541534 -0.003019338008016348 0.01037288736552 0.029877126216888428 -0.022378461435437202 0.002195152686908841 0.02997034415602684 -0.01984572596848011 0.033738791942596436 0.022214375436306 -0.022374935448169708 0.018644871190190315 -0.00830319058150053 -0.025891117751598358
order	0.015022085048258305 -0.01616091839969158 -0.005809735506772995 -0.01776617206633091 -0.005800320766866207 -0.008644484914839268 0.0019429189851507545 -0.0019474225118756294 0.012232266366481781 -0.010087423026561737 0.01180153526365757 -0.012189368717372417 -0.017725974321365356 -0.006923255510628223 0.01681247539818287 0.008714367635548115 -0.010379909537732601 -0.006880445405840874 0.007409588433802128 0.00824536383152008 0.006710462737828493 -7.646798621863127E-5 5.218096193857491E-4 -0.004388890229165554 -0.01644429750740528
evaldo	-0.02419646643102169 -0.025681311264634132 0.03768371790647507 -0.027845658361911774 -0.0233632680028677 -0.01921951398253441 0.015185057185590267 -0.02080399915575981 0.04549643397331238 -0.024263277649879456 0.03647724166512489 0.06599563360214233 -0.011160447262227535 0.02608569897711277 0.0345769040286541 -0.022202834486961365 -0.04811902716755867 0.06564918905496597 -0.031547900289297104 0.09115096181631088 0.014394978061318398 -0.044369082897901535 -0.004091484006494284 -0.08474207669496536 -0.09603651612997055
provinces	0.006375687196850777 -0.023397216573357582 1.890568673843518E-4 0.006515947636216879 -0.002175168599933386 0.0053865923546254635 0.014618872664868832 0.021429985761642456 0.0026696149725466967 -0.012856647372245789 0.013094913214445114 0.015480933710932732 -0.007715491112321615 -0.008453349582850933 -0.0020976203959435225 -0.018385542556643486 -0.012677297927439213 0.014727402478456497 0.0032839858904480934 0.036733172833919525 0.005530956666916609 -0.023855173960328102 0.01820324920117855 -0.023429643362760544 -0.027639267966151237
lisbon	-0.028898252174258232 -0.019115686416625977 0.017474543303251266 -0.004116850905120373 -0.027899136766791344 -0.007924862205982208 -0.0023144767619669437 0.0012702557723969221 0.030293958261609077 0.01592145673930645 0.013955499045550823 0.027856623753905296 1.9804039038717747E-4 0.006703716237097979 -0.001136048580519855 0.0011614169925451279 -0.021926993504166603 0.0074018631130456924 -0.002374584088101983 0.03863797336816788 -0.00410196278244257 -0.021466873586177826 -0.012036984786391258 -0.027226055040955544 -0.03586146607995033
in	0.002822242444381118 -0.08660773187875748 0.06570664793252945 -0.08069245517253876 -0.03449743613600731 -0.0536312460899353 0.020322931930422783 0.02342117391526699 0.06344182789325714 0.01115676574409008 0.03873556852340698 0.06666512042284012 -0.03363446146249771 -0.032942332327365875 0.02826506830751896 -0.010118624195456505 -0.08582615107297897 0.09810009598731995 -0.033472731709480286 0.13486607372760773 -0.007427029311656952 -0.03634890541434288 0.014232061803340912 -0.10729464888572693 -0.051523517817258835
is	-0.0030548067297786474 -0.03608399257063866 0.030475109815597534 -0.04216175153851509 -0.02498248592019081 -0.004778084345161915 0.010951586998999119 -0.01320571918040514 0.01679745316505432 -3.60429345164448E-4 0.016139142215251923 0.045479752123355865 -0.00700459536164999 0.010790521278977394 0.007507127709686756 0.0018621935741975904 -0.05592206120491028 0.03574478253722191 -0.03429962694644928 0.06334959715604782 0.02114984579384327 -0.01817828044295311 -6.930179661139846E-4 -0.04856858402490616 -0.05213877931237221
it	-0.03455638885498047 -0.015033458359539509 0.02926710993051529 -0.02211611717939377 -0.027995824813842773 -0.0326591432094574 0.041191764175891876 -0.008186046034097672 0.03333678096532822 -0.024160023778676987 0.009846576489508152 0.06915443390607834 -0.023533252999186516 0.030185913667082787 0.015544852241873741 -0.019651412963867188 -0.056356556713581085 0.06391967833042145 -0.030119797214865685 0.06806975603103638 0.03488970547914505 -0.036273084580898285 -0.0034412406384944916 -0.06700914353132248 -0.054744184017181396
court	0.004814433865249157 -0.01298475544899702 -0.012245739810168743 -0.02497347630560398 -0.011282452382147312 -4.3440883746370673E-4 -0.004655732307583094 -0.005435704253613949 0.006439428776502609 0.004357416648417711 -0.004439089447259903 0.005215369630604982 3.8876791950315237E-4 0.013737796805799007 -0.005837694741785526 -0.018512720242142677 -0.03427500277757645 0.014732195064425468 -0.013468857854604721 0.04974982887506485 0.005020921118557453 0.005392128601670265 -0.017750771716237068 -0.02576315402984619 -0.019482584670186043
an	-0.04248088225722313 0.00919822696596384 -0.006815996486693621 -0.05436952784657478 -0.019239002838730812 -0.0017314432188868523 0.01648930460214615 -0.008176346309483051 0.03825581818819046 0.0023059051018208265 0.021020982414484024 0.03853944316506386 -0.012266935780644417 0.030558893457055092 0.038287412375211716 -0.006046224385499954 -0.038614120334386826 0.04105762019753456 -0.012187514454126358 0.10055457800626755 0.03907492756843567 -0.023474296554923058 0.003917549271136522 -0.06789625436067581 -0.07955769449472427
as	-0.019373377785086632 -0.012139136902987957 0.025001006200909615 -0.04079356789588928 -0.04376329481601715 -0.01786937564611435 0.04755224660038948 -0.014073402620851994 0.03341063857078552 -0.008381005376577377 0.029213247820734978 0.08414144068956375 -0.04185714200139046 0.017145154997706413 0.022688619792461395 -0.031393568962812424 -0.057519614696502686 0.06446600705385208 -0.02743767388164997 0.11494725197553635 0.03739878162741661 -0.061939042061567307 0.012290009297430515 -0.07245025038719177 -0.07056359201669693
at	0.004192759748548269 -0.014884674921631813 0.002813224447891116 -0.02880789339542389 3.749901952687651E-5 -0.019128182902932167 -0.003878349903970957 -0.0010025918018072844 0.03042980656027794 0.004744315519928932 0.019517935812473297 0.02682848460972309 0.0024081894662231207 0.022759774699807167 -0.005784562788903713 -0.020948102697730064 -0.018833354115486145 0.0011138501577079296 -0.010159275494515896 0.03408632427453995 -0.005367691162973642 -0.006936968769878149 0.012727716006338596 -0.02364734560251236 -0.03763211518526077
brother	-0.01925189234316349 -0.007457026746124029 0.033494241535663605 -0.06996048241853714 -0.03983476385474205 -0.027117876335978508 0.018248634412884712 -0.015813374891877174 0.04983234032988548 -0.015732193365693092 0.026310104876756668 0.059120696038007736 -0.024303404614329338 0.00342656672000885 0.04159319028258324 -0.028344731777906418 -0.08519800752401352 0.07812461256980896 -0.009150221943855286 0.12104188650846481 0.045170608907938004 -0.042523689568042755 0.011792320758104324 -0.09345457702875137 -0.0817633643746376
frei	-0.023090790957212448 -0.012246374040842056 0.023938026279211044 -0.0632319450378418 -0.04069703072309494 0.005390014965087175 0.06643416732549667 -0.038068681955337524 0.050856370478868484 -0.02098754048347473 0.03980499133467674 0.06880294531583786 -0.031973160803318024 0.01830291748046875 0.025402212515473366 -0.03301350399851799 -0.07235515862703323 0.07570651173591614 0.0011983478907495737 0.10488905757665634 0.02735932357609272 -0.06729855388402939 0.024258211255073547 -0.09822689741849899 -0.08419176936149597
other	-0.00145042990334332 -0.020517505705356598 0.013765199109911919 -0.045840635895729065 -0.025777403265237808 -0.02692790888249874 0.035237230360507965 0.007066677790135145 0.03361472487449646 0.009235426783561707 0.0020348425023257732 0.03994366154074669 -0.03336949646472931 0.024821503087878227 0.029059287160634995 -0.016543203964829445 -0.054621774703264236 0.048645634204149246 -0.02569596655666828 0.07719068229198456 0.03725485876202583 -0.04283858463168144 -0.008023258298635483 -0.032031118869781494 -0.03553231805562973
be	-0.031070606783032417 -0.015438435599207878 0.023585470393300056 -0.032988861203193665 -0.014356404542922974 -0.027643462643027306 0.012852138839662075 -0.008272801525890827 0.016847556456923485 -0.0033330435398966074 0.03181731700897217 0.06055491045117378 -0.0158724095672369 0.0016764117171987891 0.03734460845589638 0.009903855621814728 -0.04687236249446869 0.03143327310681343 0.0030276284087449312 0.045097872614860535 0.009651883505284786 -0.030744686722755432 -0.014265604317188263 -0.03137870132923126 -0.03677131235599518
south	-0.009230014868080616 0.0034896638244390488 0.015645014122128487 -0.024518154561519623 -0.015651343390345573 -0.010960603132843971 0.013944355770945549 -0.01487057190388441 0.03354659304022789 0.003418054897338152 -0.0035105952993035316 0.01224144734442234 -0.01860121078789234 0.011181592009961605 -5.728689720854163E-4 -0.010072574019432068 -0.017011595889925957 0.03489334508776665 -0.010758906602859497 0.04220680519938469 0.02573372982442379 -0.010898634791374207 0.007721833419054747 -0.028520211577415466 -0.043056368827819824
against	-0.008487110957503319 -0.02777557633817196 -0.003758619772270322 -0.012397421523928642 -0.016954563558101654 -0.01388681773096323 -0.002866351744160056 0.02722570113837719 -0.004497137852013111 -0.010320085100829601 0.0046217236667871475 0.024602582678198814 -0.009408220648765564 -0.018012618646025658 -0.010723873041570187 -1.8133880803361535E-4 -0.029568936675786972 0.025250520557165146 3.731028700713068E-4 0.021595407277345657 0.014301124028861523 -0.021920977160334587 -0.0023939271923154593 -0.0337054468691349 -0.01920872926712036
republican	0.011918249540030956 -0.02181694470345974 -0.006916301790624857 -0.011108269914984703 -0.005660811439156532 -0.016336439177393913 -0.01776851899921894 -0.011239529587328434 -0.013845998793840408 -0.006526758894324303 -0.005926995538175106 -0.0106858741492033 -0.011107886210083961 -0.012879815883934498 -0.004603494890034199 0.014525695703923702 -0.025960521772503853 0.009734841994941235 -0.0028871947433799505 0.015609793365001678 0.017096014693379402 -0.005777818616479635 -4.2791804298758507E-4 -0.013261985033750534 -0.021346967667341232
government	-0.03442547470331192 -0.00644334452226758 -0.00935109332203865 -0.02482762187719345 -0.006455091293901205 0.007671804632991552 0.041819244623184204 -0.03471072018146515 0.04038313403725624 0.010442588478326797 0.030966226011514664 0.03597848862409592 -0.0031124178785830736 0.014699562452733517 0.010583726689219475 0.004022476729005575 -0.020494304597377777 0.046887923032045364 -9.573103743605316E-4 0.042295414954423904 0.021570127457380295 -0.035449184477329254 0.00779935996979475 -0.03029138781130314 -0.05524526536464691
pernambuco	-0.03493779897689819 -0.023133182898163795 0.030129292979836464 -0.01972692273557186 -0.029068822041153908 -0.012001559138298035 0.007124947849661112 -0.016640137881040573 0.0338844396173954 -0.00194828980602324 0.04033380374312401 0.06908955425024033 -0.0010992299066856503 0.025633448734879494 0.022975031286478043 -0.016393108293414116 -0.05678681656718254 0.050266508013010025 -0.033133164048194885 0.09007732570171356 0.020053649321198463 -0.020790187641978264 -0.01455782912671566 -0.07427753508090973 -0.06915318220853806
by	-0.03947557508945465 -0.014649041928350925 0.008581878617405891 -0.05109100416302681 -0.03947315737605095 -0.024073977023363113 0.037142064422369 -0.04000484198331833 0.06852462887763977 0.004374342039227486 0.04916341230273247 0.08726686984300613 -0.04480911046266556 0.024066202342510223 0.03641511872410774 -0.02684917487204075 -0.0615135096013546 0.07216501981019974 -0.025561664253473282 0.1244087740778923 0.017512520775198936 -0.06663019955158234 0.011987081728875637 -0.11163248121738434 -0.07226721197366714
december	-0.00504040252417326 -0.005212976597249508 0.009212506003677845 -0.003918657079339027 -0.0026085982099175453 0.00700322026386857 0.014145901426672935 -0.015501790679991245 -0.01049384381622076 -0.016126850619912148 0.016860006377100945 0.027786673977971077 0.006720731966197491 0.00978170894086361 0.016519637778401375 -0.0021152421832084656 0.007668068166822195 -0.004181038588285446 -0.016978437080979347 0.018183158710598946 0.021106572821736336 0.003611981403082609 0.014992300420999527 -0.01895957998931408 -0.009958155453205109
where	-0.007447980809956789 -0.020665278658270836 -0.008670492097735405 -0.012842153199017048 -0.012678252533078194 -0.02420744113624096 0.002875825623050332 0.020477497950196266 -0.010889649391174316 0.0022683634888380766 0.003004135098308325 0.013263704255223274 -0.014791482128202915 0.0057100532576441765 0.005725061055272818 -0.0010949495481327176 0.0030046452302485704 0.011348310858011246 0.008597161620855331 0.010164430364966393 -0.007205240428447723 -0.017140695825219154 0.01202270295470953 0.0032319463789463043 -0.01673324964940548
after	-0.011509008705615997 -0.0034157922491431236 0.01655477285385132 -0.02966923452913761 -0.012593845836818218 1.2467615306377411E-5 -0.006738934200257063 0.007763081230223179 0.019771475344896317 -0.008273924700915813 0.009994507767260075 0.039777785539627075 -0.0242343470454216 -0.005959233269095421 0.029802285134792328 0.00846799835562706 -0.02305779419839382 0.012224018573760986 -0.02234763838350773 0.05223018303513527 0.022541947662830353 -0.022063808515667915 0.007720980793237686 -0.03562890738248825 -0.038508541882038116
confederation	0.0037929113022983074 0.01934792846441269 -0.0017545752925798297 -0.002618348691612482 -5.071702762506902E-4 0.011445678770542145 0.02700796164572239 -0.0077795227989554405 0.006595786195248365 -0.012471189722418785 -0.002113471971824765 -0.004577299579977989 -0.005024617072194815 0.013326955027878284 0.009317363612353802 -0.00992062222212553 -0.018145045265555382 7.654182845726609E-4 0.009020370431244373 0.03165062889456749 -0.00420559523627162 -0.017303694039583206 -0.005159038119018078 -0.02806069701910019 -0.0018256339244544506
janeiro	-0.022412246093153954 -0.0019304940942674875 0.026279708370566368 -0.02882245182991028 -0.05586430802941322 -0.007534151431173086 0.019685570150613785 -0.032728713005781174 0.06333256512880325 -0.003601926611736417 0.016072804108262062 0.050119876861572266 -0.03433770686388016 0.03602011129260063 0.03677983954548836 -0.003337405389174819 -0.06500554829835892 0.06714140623807907 -0.018357248976826668 0.08518164604902267 0.04314802214503288 -0.06238517165184021 0.019919205456972122 -0.06425284594297409 -0.09020884335041046
a	-0.026080947369337082 -0.042976465076208115 0.04740973189473152 -0.05463015288114548 -0.0404442697763443 -0.007977289147675037 0.03275304287672043 -0.017656831070780754 0.047837164252996445 -0.03111404925584793 0.049093663692474365 0.07322537899017334 -0.04566524177789688 0.010649017058312893 0.061161864548921585 -0.020023729652166367 -0.09507647156715393 0.0725947842001915 -0.018102800473570824 0.11036570370197296 0.052341096103191376 -0.050570178776979446 -0.012371470220386982 -0.08397598564624786 -0.1067613884806633
jose	-0.018293781206011772 -0.02400905080139637 -0.010059629566967487 -0.015266475267708302 -0.014027060940861702 -0.024400154128670692 -0.003976508509367704 0.015420181676745415 0.004065053537487984 0.0071157170459628105 0.0015958801377564669 0.03261915221810341 0.007545764558017254 0.01371652353554964 0.008632215671241283 -2.7928382041864097E-4 -0.03128024563193321 0.003550497815012932 -0.01584324613213539 0.04067964479327202 -1.2725847773253918E-4 -0.03238314762711525 -0.013112401589751244 -0.023888781666755676 -0.033865369856357574
one	0.002055256860330701 -0.024879157543182373 0.02524667978286743 -0.03778770938515663 1.7374855815432966E-4 -0.010246715508401394 0.011854028329253197 -0.027186891064047813 0.006591321434825659 0.008992200717329979 0.01857801154255867 0.0444951206445694 8.893774356693029E-4 0.025480695068836212 0.032397761940956116 -0.011836773715913296 -0.002982378238812089 0.031159475445747375 -0.02493354119360447 0.03031718172132969 0.019337285310029984 -0.012837742455303669 -0.0042088753543794155 -0.018322058022022247 -0.0461791567504406
i	-0.025961583480238914 -0.019433792680501938 -0.013399937190115452 -7.290375651791692E-4 -0.0017040210077539086 0.002587848575785756 0.022322917357087135 0.015997275710105896 0.032371342182159424 0.010751559399068356 0.013297254219651222 0.016245462000370026 -0.01807808317244053 -0.007020412012934685 -2.7642992790788412E-5 0.005512794945389032 -0.011221349239349365 0.013859973289072514 -0.02711811289191246 0.036213893443346024 -0.01136076357215643 -0.022282211109995842 -0.0049525052309036255 -0.013454359024763107 -0.042391251772642136
the	-0.3026987314224243 0.18872646987438202 -0.07946809381246567 -0.19152826070785522 -0.2925577163696289 0.04224000871181488 0.3320577144622803 -0.44161370396614075 0.3088475465774536 -0.08638981729745865 0.026097286492586136 0.2482774406671524 -0.17388762533664703 0.44229498505592346 0.3613292872905731 -0.11850639432668686 -0.1932961493730545 0.15387944877147675 0.06881370395421982 0.4161585569381714 0.281574010848999 -0.2195965051651001 -0.011280521750450134 -0.3482127785682678 -0.4787459075450897
mello	-0.03291195258498192 -0.02473417855799198 0.029112713411450386 -0.02816794440150261 -0.015867190435528755 -0.03418991342186928 0.008737248368561268 0.005408054683357477 0.04782622680068016 -0.016917185857892036 0.026071077212691307 0.07035037130117416 -0.015622665174305439 0.01708219386637211 0.008188038133084774 -0.010829363018274307 -0.06340724974870682 0.06285257637500763 -0.01979028433561325 0.08940239250659943 0.009049901738762856 -0.035847071558237076 -0.004794497974216938 -0.08608242124319077 -0.04847997426986694
to	-0.03133559972047806 -0.035953596234321594 0.04801164194941521 -0.07857868820428848 -0.051150474697351456 -0.04831304773688316 0.005157113540917635 0.00742741022258997 0.060581643134355545 -0.017199309542775154 0.0427740216255188 0.0983320102095604 -0.0190532598644495 -0.005500777158886194 0.038094885647296906 0.009625900536775589 -0.09822562336921692 0.06697143614292145 -0.06212710216641426 0.12776128947734833 0.03677656501531601 -0.04016662389039993 -0.016961760818958282 -0.10985289514064789 -0.09404189139604568
under	0.0024943589232861996 -0.003552262205630541 -0.015981530770659447 0.007215206976979971 -0.0028137622866779566 0.006887801922857761 0.009516057558357716 -0.00886520929634571 0.02680639736354351 -0.002496889093890786 0.004256072454154491 0.0017795995809137821 -0.0051580010913312435 0.005559721030294895 0.015780650079250336 -0.018377285450696945 -0.021320082247257233 0.02297915704548359 -0.002735869260504842 0.0011036049108952284 0.02913595549762249 -0.010211113840341568 -0.0036561524029821157 0.004234278574585915 -0.016743406653404236
imperial	-0.017363199964165688 0.0017254804261028767 -0.01284380629658699 -0.021506307646632195 0.0013815817655995488 -0.01744130812585354 -2.9900031222496182E-5 0.00802403874695301 0.01570514589548111 0.008766095153987408 4.410469555296004E-4 0.017932238057255745 -0.008494260720908642 0.019323797896504402 0.022542012855410576 0.008780090138316154 -0.009585440158843994 -0.0015187399694696069 0.00684346305206418 0.030267609283328056 -0.005425152834504843 -0.0017823617672547698 0.010961327701807022 -0.010521387681365013 -0.015038487501442432
movement	0.0016467004315927625 -0.003716361476108432 -0.007595634553581476 -0.010236785747110844 -0.03195006772875786 0.00546463904902339 0.030025027692317963 0.00553107401356101 0.020962228998541832 2.1725401165895164E-4 0.029472682625055313 0.01819704845547676 0.00948185846209526 -0.006852312479168177 -0.002036444144323468 0.0030514139216393232 -0.00982686784118414 0.03620582073926926 -0.0010926371905952692 0.04831470549106598 -0.004654696676880121 -0.01727442257106304 7.125228294171393E-4 -0.03451567515730858 -0.020445456728339195
da	-0.025089634582400322 -0.022928208112716675 0.017315125092864037 -0.0074187167920172215 -0.0037347706966102123 0.011661043390631676 0.01578739657998085 -0.006255384534597397 0.02441268227994442 -0.015352928079664707 0.010966810397803783 0.012375438585877419 0.005035914480686188 0.00714912312105298 0.018931690603494644 0.005804782267659903 -0.012982354499399662 0.012809387408196926 0.012358121573925018 0.034752532839775085 0.014970013871788979 -0.01280646026134491 -0.018809577450156212 -0.03500618040561676 -0.036252956837415695
first	-0.024262340739369392 -0.021554116159677505 0.011661731638014317 0.007614563684910536 -0.001894933870062232 -0.010949620977044106 0.023823387920856476 -0.020507849752902985 0.008708720095455647 2.069800830213353E-4 0.011611416935920715 2.4173175916075706E-4 0.007399762514978647 0.025094736367464066 0.01810157299041748 0.0047262548469007015 -0.0038768667727708817 0.007156264968216419 0.01450860220938921 0.02111152373254299 0.004507974721491337 -0.002736810827627778 -0.011759837158024311 -0.03230410814285278 -0.031020112335681915
board	-0.012712810188531876 -0.01839890331029892 0.00487691443413496 -0.04609036445617676 -0.037977609783411026 -0.00493065919727087 0.044207796454429626 -0.013978748582303524 0.035003662109375 -0.004815238993614912 0.035914402455091476 0.032817889004945755 -0.023954743519425392 0.01090196892619133 0.02006620168685913 0.006564513314515352 -0.028861872851848602 0.051175907254219055 -0.020965058356523514 0.056500498205423355 0.04069983959197998 -0.039637744426727295 -0.00487662386149168 -0.07061357796192169 -0.0748002752661705
but	0.002226359909400344 -0.005159558728337288 0.0016682022251188755 -0.023522619158029556 -0.015761135146021843 -0.0023170921485871077 -0.00870339572429657 0.00577121414244175 0.01843903213739395 -0.016939688473939896 0.0038536409847438335 0.011567250825464725 -0.0036224271170794964 0.0285656675696373 0.029489390552043915 2.0303548080846667E-4 -0.0027994464617222548 0.02042715810239315 0.0028439313173294067 0.01742742210626602 0.01481285598129034 -0.0029801789205521345 2.425525162834674E-4 -0.00880883913487196 -0.030832573771476746
francisco	-0.0011220030719414353 -0.039595961570739746 0.03757002577185631 -0.05729569494724274 -0.04229394719004631 -0.0312778502702713 -0.0026636840775609016 -0.022234251722693443 0.04950450360774994 -0.01566346362233162 0.012713133357465267 0.07251842319965363 -0.0027462709695100784 0.01644546538591385 0.027069272473454475 -0.017151983454823494 -0.03061101958155632 0.059061262756586075 -0.04568508267402649 0.07070919871330261 0.03308509662747383 -0.026563124731183052 0.004641288425773382 -0.04871286824345589 -0.06479644775390625
de	-0.051952097564935684 -0.0653424933552742 0.06136730685830116 -0.11977669596672058 -0.09166915714740753 -0.050739966332912445 0.06349162012338638 -0.021962208673357964 0.13391757011413574 -0.019628047943115234 0.08161714673042297 0.17540375888347626 -0.0757235437631607 0.039454493671655655 0.08616658300161362 -0.034912578761577606 -0.16280138492584229 0.16247369349002838 -0.0645839124917984 0.2761155366897583 0.0685059204697609 -0.12667058408260345 0.0012738723307847977 -0.22427035868167877 -0.1877850443124771
silva	-5.544506711885333E-4 -0.026847098022699356 0.02016601338982582 -0.00983371026813984 -0.022543489933013916 0.01107089128345251 0.023685337975621223 -0.013505074195563793 0.010909000411629677 -0.005493917036801577 0.015065059065818787 0.030751200392842293 -0.010591466911137104 -0.002445509424433112 -0.004593757446855307 0.009867592714726925 -0.04211363568902016 0.04247279837727547 -0.023889895528554916 0.024221081286668777 -0.006023653317242861 -0.014059888198971748 0.011606370098888874 -0.028023255988955498 -0.046822112053632736
political	-0.0310610830783844 -0.027025556191802025 0.011092022061347961 -0.02746332250535488 -0.026977526023983955 -0.007213600445538759 0.034241124987602234 0.008738461881875992 0.008189651183784008 -0.01697682775557041 0.02548517845571041 0.027300840243697166 -0.027947746217250824 -0.009107227437198162 0.01213348563760519 1.3678945833817124E-5 -0.015153929591178894 0.03748675808310509 -0.003142065368592739 0.06802361458539963 0.030208148062229156 -0.01474479865282774 -0.0027812335174530745 -0.056787848472595215 -0.022105716168880463
had	-0.022990398108959198 -0.009964502416551113 0.02744360826909542 -0.03350147232413292 -0.02678852342069149 0.003610568353906274 0.01043644268065691 -0.02873297967016697 0.0189316738396883 0.005314128939062357 0.01509598083794117 0.06635528057813644 -0.023564253002405167 -0.003979250323027372 0.0438603013753891 -0.027602853253483772 -0.03194882348179817 0.051397327333688736 -0.036758702248334885 0.08287118375301361 0.03091864101588726 -0.012031683698296547 0.010653273202478886 -0.07650899887084961 -0.038435809314250946
main	-0.007524719461798668 0.006840972695499659 0.024731215089559555 -0.044796016067266464 -0.039635706692934036 -0.025535350665450096 0.028698503971099854 -0.027067869901657104 0.03265565261244774 0.006327542010694742 0.02017742022871971 0.05494687333703041 -0.011923413723707199 0.029017865657806396 0.019853834062814713 0.004579533822834492 -0.038840942084789276 0.06869775056838989 -0.0023659805301576853 0.07438287138938904 0.02430301532149315 -0.0446513332426548 -0.004012527875602245 -0.08464626222848892 -0.04918822646141052
do	-0.007845203392207623 -0.02661464922130108 0.004419318865984678 -0.020398851484060287 -0.041038669645786285 -0.026928288862109184 0.021556800231337547 -0.034862540662288666 0.05378401651978493 0.00934683158993721 0.004608537070453167 0.05925673618912697 -0.02435716986656189 0.02464134804904461 0.014873480424284935 0.007238031830638647 -0.06425638496875763 0.039997994899749756 -0.031602147966623306 0.07915490120649338 0.03767852485179901 -0.05212545394897461 0.019789500162005424 -0.04578582942485809 -0.05782633274793625
independence	-1.4981778804212809E-4 0.001553831622004509 -3.4734158543869853E-4 -0.019951893016695976 -0.008798368275165558 0.006334193516522646 0.016642706468701363 -0.02486065961420536 0.029583681374788284 -0.026431197300553322 0.01486917957663536 0.059802331030368805 -0.006926305592060089 0.018686458468437195 0.011192054487764835 -0.004281661007553339 -0.04148327186703682 0.04596475139260292 -0.025618335232138634 0.06271055340766907 0.038737211376428604 -0.014474392868578434 0.011642344295978546 -0.05984983593225479 -0.047129418700933456
him	-0.02471204102039337 0.00234008114784956 0.025834999978542328 -0.03820222616195679 -0.013801317662000656 -0.01642419397830963 0.017089663073420525 -0.03050374425947666 0.04898793250322342 5.73944635107182E-5 0.003831347683444619 0.036648228764534 -0.0036361406091600657 0.0035177788231521845 0.0028865113854408264 -0.013719803653657436 -0.04494880512356758 0.034610915929079056 -0.0026018666103482246 0.05956593155860901 0.020578429102897644 -0.030159391462802887 -0.01483878307044506 -0.04153488576412201 -0.042589060962200165
that	-5.026159342378378E-4 -0.029085170477628708 0.015261305496096611 -0.05107488855719566 -0.006603246089071035 -0.024574797600507736 0.0142044797539711 0.00859270803630352 0.013051429763436317 -0.004936910234391689 0.013869891874492168 0.04111804440617561 -0.009726451709866524 0.007530729286372662 0.0033464792650192976 0.003753152908757329 -0.05903327465057373 0.05794403329491615 -0.017247797921299934 0.04506354406476021 0.029004858806729317 -0.0431676022708416 -0.001994502265006304 -0.060359418392181396 -0.059180550277233124
his	-0.008477764204144478 0.0028775495011359453 0.028621677309274673 -0.04387008026242256 -0.02873198874294758 -0.013391084969043732 0.03054306097328663 -0.009335262700915337 0.04906196892261505 -0.02531321346759796 0.017080068588256836 0.056482814252376556 -0.021252892911434174 0.008321193978190422 0.011773231439292431 4.5224017230793834E-4 -0.03582477942109108 0.0324387401342392 -0.024252796545624733 0.08574144542217255 0.041535064578056335 -0.04409215971827507 -0.001590057392604649 -0.057077206671237946 -0.062463052570819855
members	-0.021700648590922356 -0.015806183218955994 0.019853243604302406 -0.01660987176001072 -0.028047220781445503 -0.005561947822570801 0.030974725261330605 -0.011792044155299664 0.00460306741297245 -0.024363642558455467 0.007919831201434135 0.032849203795194626 0.003442005952820182 0.001728321542032063 0.0010565349366515875 0.012404185719788074 -0.016012148931622505 0.042684782296419144 -0.0020080413669347763 0.03841989487409592 0.032977934926748276 -0.03042462095618248 0.016638265922665596 -0.028233075514435768 -0.020199047401547432
only	0.008179320022463799 -0.007499652449041605 0.0016238258685916662 -0.011536051519215107 -2.554416423663497E-4 0.010028242133557796 0.01274972315877676 0.002013640943914652 0.01772119477391243 0.009345141239464283 0.02486594207584858 0.008315656334161758 -0.010709698311984539 -0.005844877567142248 0.025671709328889847 -0.007711356971412897 -0.012773903086781502 0.026754682883620262 -0.012658701278269291 0.007596304174512625 -0.001187952235341072 -0.024993063881993294 0.013771369121968746 -0.031280841678380966 -0.02535291574895382
provincial	-0.019402654841542244 0.006747671402990818 0.010218446142971516 -0.013906562700867653 -0.00744342477992177 0.00749562680721283 2.5829087826423347E-4 -0.009995220229029655 0.025014953687787056 -8.477141382172704E-4 -0.00213609472848475 9.13621683139354E-4 2.186373749282211E-4 -0.0067907520569860935 0.00205651530995965 0.005999716930091381 -0.01902664639055729 0.03082467056810856 -0.021252267062664032 0.02009732834994793 0.003805068787187338 -0.006788638886064291 0.0019767992198467255 -0.012250672094523907 -0.010421520099043846
military	-3.83060920285061E-4 0.00642622634768486 0.02353648468852043 -0.008877940475940704 0.0011008948786184192 -0.021665940061211586 0.012359962798655033 -0.008291114121675491 0.0017048608278855681 0.012229541316628456 0.019007528200745583 0.012469571083784103 -0.0013675277587026358 0.0267226193100214 -0.003545137820765376 0.0013453924329951406 -0.02016240358352661 0.026198552921414375 0.005028075538575649 0.03909907117486 0.0040837666019797325 -0.016480617225170135 0.009251128882169724 -0.019976137205958366 -0.037407319992780685
from	-0.007506426889449358 -0.009006083942949772 -0.005650113336741924 -0.008701030164957047 9.142811177298427E-4 0.011773956939578056 0.026963647454977036 -0.00851922482252121 0.027523955330252647 0.009235920384526253 -0.004604802466928959 0.043818388134241104 0.007799011189490557 -0.014844922348856926 0.010277693159878254 0.007776881102472544 -0.04068462923169136 0.01037149503827095 -0.02315271459519863 0.051275480538606644 0.02285609394311905 -0.01904611475765705 0.017015844583511353 -0.031070178374648094 -0.01183347962796688
which	-0.046271711587905884 -0.0070342631079256535 0.02913961559534073 -0.047642383724451065 -0.04181866720318794 -0.01145386602729559 0.04545382410287857 -0.019627491012215614 0.054680682718753815 -0.020058484748005867 0.029988961294293404 0.05544189363718033 -0.01671108603477478 -0.0020679011940956116 0.05214273929595947 -0.023428993299603462 -0.06254374980926514 0.07935701310634613 -0.03305460512638092 0.09459777176380157 0.014918111264705658 -0.03900100663304329 -0.00994489062577486 -0.07986114919185638 -0.09148874878883362
took	-0.014091625809669495 8.93954886123538E-4 -0.008823760785162449 -0.03146561235189438 -0.008218242786824703 0.010136469267308712 0.013964332640171051 -0.02438736893236637 0.03482402488589287 0.0064317286014556885 0.012916328385472298 0.020480161532759666 0.0012616460444405675 0.021888678893446922 0.021465308964252472 -0.009426280856132507 -0.02172480896115303 0.026756223291158676 -0.014707210473716259 0.04065239802002907 0.03231685981154442 -0.010852361097931862 -0.002317922655493021 -0.05594577267765999 -0.03418398275971413
this	-0.04045937955379486 -0.010132787749171257 0.02809864468872547 -0.019754918292164803 -0.02855893410742283 -0.005976068787276745 0.014890443533658981 -0.03581977263092995 0.03018821030855179 0.008267560042440891 0.007011033594608307 0.05561814084649086 -0.036235928535461426 -7.543783285655081E-4 0.027039887383580208 -0.02085442841053009 -0.04307478666305542 0.04674023762345314 -0.022223874926567078 0.09082978963851929 0.03712752088904381 -0.04907893016934395 -0.010725331492722034 -0.06141158938407898 -0.05018490552902222
cabral	-0.013377228751778603 -0.03185252845287323 0.014194696210324764 -0.038806669414043427 -0.041914455592632294 -0.017397552728652954 0.01792939193546772 0.004174511414021254 0.056247562170028687 -0.022704727947711945 0.02248675748705864 0.03844217583537102 -0.009752382524311543 0.020382637158036232 0.03936539217829704 -0.012421504594385624 -0.06848087906837463 0.03926146402955055 -0.015646807849407196 0.08598817139863968 0.03978080675005913 -0.030750371515750885 0.012912829406559467 -0.04509351775050163 -0.056233253329992294
were	-0.013890756294131279 -0.022837338969111443 -0.003719611559063196 -0.025968285277485847 -0.003006889019161463 0.012463828548789024 0.026154277846217155 0.002705587539821863 0.03267292678356171 -0.016432693228125572 0.0060236211866140366 0.03050513193011284 -0.009261859580874443 0.031281206756830215 0.009154082275927067 -0.007950671948492527 -0.016950899735093117 0.02597290836274624 -0.02294785901904106 0.05829394608736038 0.008452377282083035 -0.009599941782653332 0.0046452186070382595 -0.0336296483874321 -0.023068834096193314
support	0.01923462562263012 -0.019459586590528488 -0.01648678071796894 -0.0011331809218972921 0.0028971214778721333 -0.017852509394288063 -0.003248917870223522 -0.01330872904509306 -0.0058714901097118855 -0.005760442465543747 0.01649320311844349 6.923328619450331E-4 -0.0040823919698596 -0.007001761347055435 -0.004071298521012068 0.0029293668922036886 -0.001566095743328333 0.015322018414735794 0.0033528758212924004 -0.021004948765039444 -0.018303582444787025 -0.00490216538310051 0.018711375072598457 -0.007596762850880623 0.019406352192163467
mug	-0.025216860696673393 -0.008837925270199776 0.009467089548707008 -0.05896519124507904 -0.057979606091976166 -0.010343585163354874 0.036726292222738266 -0.037499696016311646 0.07437657564878464 -0.03140794858336449 0.04897087812423706 0.09057681262493134 -0.034671008586883545 0.024426260963082314 0.055737126618623734 -0.011649364605545998 -0.0664994865655899 0.053846850991249084 -0.028177548199892044 0.11970566213130951 0.043217599391937256 -0.05713494494557381 -0.004591356031596661 -0.10859183222055435 -0.07725446671247482
who	-0.011277919635176659 0.00790537428110838 0.001043872907757759 -0.018710097298026085 -0.03519124910235405 -0.023699983954429626 0.03712967783212662 -0.006658914498984814 0.051356635987758636 -0.009680036455392838 0.037279244512319565 0.04152316972613335 -0.026309752836823463 0.03548363968729973 0.036737725138664246 -0.004960579331964254 -0.028260022401809692 0.05498847737908363 -0.029947636649012566 0.08815757185220718 0.012548549100756645 -0.04117362201213837 0.001873983652330935 -0.07170366495847702 -0.06851691752672195
since	0.024072682484984398 0.012046698480844498 -0.003957259003072977 0.008414046838879585 0.026666954159736633 0.006475135218352079 -0.020195236429572105 -0.005819466896355152 0.003940641414374113 0.019266201183199883 -0.01772231049835682 -0.0017288117669522762 0.007240126375108957 -0.02425345964729786 -0.0034636149648576975 0.004049541428685188 0.012540378607809544 -0.01669897325336933 0.011241891421377659 -0.010946501046419144 -0.019339710474014282 0.011183210648596287 0.0013873730786144733 0.009211779572069645 0.02732374146580696
yokels	0.008717292919754982 0.004874214064329863 0.0019122777739539742 -0.019779209047555923 0.006800179369747639 -0.0026999334804713726 0.02269596792757511 -0.022994346916675568 0.027198011055588722 -0.004627053160220385 -0.0036743537057191133 0.0010069026611745358 -0.004692922346293926 0.012224942445755005 -0.0038160444237291813 -0.018628468737006187 -0.0043794941157102585 0.015132730826735497 0.005823415704071522 0.015554583631455898 0.002560237655416131 -0.00530235143378377 -0.007009096443653107 -0.012888832949101925 -0.011254560202360153
brazil	0.01257214043289423 -0.010612057521939278 0.0034624736290425062 -0.013691449537873268 -0.008250553160905838 -0.010978296399116516 0.0025304830633103848 0.005181201733648777 0.01847737841308117 0.003587111597880721 -0.005494631826877594 0.01989436335861683 -0.009862666018307209 0.005469856318086386 -0.005336420610547066 0.013472398743033409 -0.011316271498799324 -0.003590784501284361 -0.002144693862646818 -0.011523790657520294 -0.005033598281443119 0.005583489313721657 0.01534248050302267 -2.0687642972916365E-4 0.013513414189219475
for	-0.045772626996040344 0.0019918333273380995 0.005409868434071541 -0.03018273040652275 -0.030844181776046753 -0.02388932555913925 0.0434226356446743 -0.03237587958574295 0.04223120957612991 -0.015087909996509552 0.036883510649204254 0.06751728057861328 -0.021853992715477943 0.02822585217654705 0.0456361323595047 -0.007307137828320265 -0.050954870879650116 0.06175144761800766 -0.020532213151454926 0.1029396578669548 0.030481811612844467 -0.04738282039761543 0.0020267153158783913 -0.0762849971652031 -0.0735587626695633
manuel	-0.015824321657419205 -0.010256295092403889 0.027711279690265656 -0.03623509034514427 -0.01918688789010048 -0.02469957247376442 0.04110373929142952 0.00819535180926323 0.03466121107339859 -0.028595643118023872 0.04623277485370636 0.06554349511861801 -0.029097752645611763 -0.0033851447515189648 0.045215707272291183 -0.02790769562125206 -0.041138991713523865 0.05508243292570114 -0.014936557039618492 0.08615325391292572 0.02871580980718136 -0.02387809194624424 -0.006176887080073357 -0.07891280949115753 -0.0538359098136425
caneca	-0.01926533877849579 -0.023437777534127235 0.016027113422751427 -0.0540899932384491 -0.044225092977285385 -0.015563440509140491 0.02919190749526024 -0.01723564974963665 0.0482022650539875 -0.016919666901230812 0.0325443334877491 0.06033261492848396 -0.014033704064786434 0.015042725019156933 0.04609532654285431 -0.034968797117471695 -0.04189080744981766 0.059362106025218964 -0.03251976519823074 0.1238560602068901 0.05552296340465546 -0.05931200087070465 -0.0039057463873177767 -0.06613638997077942 -0.10232234001159668
pernambucano	-0.0058525679633021355 0.002667167689651251 0.017415327951312065 -0.025556983426213264 -0.03271125629544258 -0.015274273231625557 0.02433410845696926 -0.010738818906247616 0.044462934136390686 -0.02528284676373005 0.03750290721654892 0.030930325388908386 -0.033351410180330276 0.0033512115478515625 0.043720316141843796 0.00745356734842062 -0.04022476077079773 0.05749402195215225 1.2862496078014374E-5 0.0825188159942627 0.033848054707050323 -0.024382950738072395 0.018871881067752838 -0.037625495344400406 -0.06089082360267639
not	0.004984249826520681 -0.012772629037499428 0.026747915893793106 -0.018098579719662666 -0.024608155712485313 0.004745555110275745 0.030967529863119125 -0.013234139420092106 0.016446851193904877 -0.019515089690685272 -0.0045569525100290775 0.024005312472581863 -0.026805920526385307 -0.006880471017211676 0.02385050058364868 -0.0066415099427104 -0.013507307507097721 0.018929999321699142 -0.019290976226329803 0.03552599251270294 0.012579631991684437 -0.017445415258407593 0.011756748892366886 -0.01411852240562439 -0.038145098835229874
september	-0.00847502239048481 0.01585376262664795 -0.008134008385241032 -0.00703743752092123 0.027304040268063545 -0.006787366233766079 0.002325503621250391 0.004262607078999281 -0.013550378382205963 0.010518118739128113 0.012603910639882088 -0.012153133749961853 3.8047810085117817E-4 -0.015898726880550385 0.007075154688209295 0.00297044706530869 0.006221652962267399 -0.034420982003211975 -0.012303090654313564 -0.016512084752321243 -0.02738242968916893 -0.00115402031224221 0.007729402743279934 0.025086646899580956 0.036782167851924896
pedro	-0.011412906460464 -0.006598764099180698 0.01878301240503788 -0.019340181723237038 0.012931471690535545 -0.005528558976948261 0.009880471043288708 0.012023448944091797 0.028919976204633713 0.009370759129524231 -0.010509469546377659 0.03512505069375038 -0.02332334779202938 0.010953172110021114 0.009672177955508232 0.0010350722586736083 -0.00827224925160408 0.003360831644386053 -0.02243516407907009 0.025652751326560974 -0.012464149855077267 0.003571586450561881 -0.015451720915734768 -0.03149455785751343 -0.010179204866290092
and	-0.017679665237665176 -0.05787164345383644 0.04819832369685173 -0.035111360251903534 -0.01809697225689888 -0.010933851823210716 0.011617647483944893 0.03301643952727318 0.027081914246082306 -0.013934059999883175 0.06320503354072571 0.08637242019176483 -0.03127013146877289 -0.028680691495537758 0.010889766737818718 -0.027286415919661522 -0.086847685277462 0.09559064358472824 -0.026873035356402397 0.11509368568658829 0.01250113919377327 -0.03642301633954048 0.007382286712527275 -0.0651613250374794 -0.062370866537094116
of	0.10848616808652878 -0.23936960101127625 0.1414569765329361 -0.06047952175140381 0.030822496861219406 -0.11667320132255554 -0.13248245418071747 0.27309975028038025 -0.03524108603596687 0.0025368970818817616 0.12768548727035522 0.10268784314393997 0.03984248638153076 -0.2870674133300781 -0.12970899045467377 0.05912729352712631 -0.1304524689912796 0.15396186709403992 -0.16307172179222107 0.09550444036722183 -0.11772573739290237 -0.006949933245778084 0.02577098272740841 -0.045822370797395706 0.026218045502901077
gervasio	-0.009663409553468227 0.008096222765743732 -5.35474915523082E-4 -0.001022881711833179 0.00539812445640564 -0.008039831183850765 0.012988755479454994 0.011719359084963799 0.003876475151628256 0.0022663422860205173 -0.013442914001643658 0.02022947184741497 0.0017109110485762358 0.00754481041803956 -0.008203869685530663 -0.014060020446777344 -0.017838263884186745 0.006842389702796936 0.008873804472386837 0.020888838917016983 0.013848992995917797 -0.005970884580165148 -0.004454565234482288 0.0052865734323859215 -0.024852007627487183
portuguese	0.005705264396965504 -0.02258048765361309 -0.0014879356604069471 -0.03308761492371559 -0.027654699981212616 -0.019047698006033897 0.023504601791501045 -0.01731698587536812 0.030280768871307373 0.0018565350910648704 -0.008341222070157528 0.0277660321444273 -0.003044193610548973 -0.013684178702533245 0.026348719373345375 0.002105087973177433 -0.03213527798652649 0.027068182826042175 -0.007489696145057678 0.016989540308713913 0.02640204317867756 -0.012001204304397106 0.01258153934031725 -0.039955947548151016 -0.042015671730041504
colonel	-0.008330075070261955 -0.02466486021876335 0.001631162129342556 -0.006794883869588375 -0.017466774210333824 0.007432039827108383 0.017271194607019424 0.0056468164548277855 0.012264775112271309 -0.0038701079320162535 -0.007937869988381863 -0.006948044523596764 0.005286627449095249 0.0044725146144628525 0.01478302851319313 0.015992818400263786 -0.030138084664940834 -0.001964926952496171 0.011094427667558193 -0.0010603429982438684 0.007314866408705711 -0.0046372367069125175 -0.013338381424546242 -0.012335693463683128 0.006316033191978931
on	-0.011254189535975456 -0.03600887954235077 0.034552451223134995 -0.0506855845451355 -0.034577373415231705 -0.00894941482692957 0.04097609594464302 -0.028880922123789787 0.03306672349572182 -0.004846726544201374 0.05028405785560608 0.06656672805547714 -0.04349170997738838 0.02729719877243042 0.02464199811220169 -0.011934785172343254 -0.04564512521028519 0.0646534189581871 -0.037423279136419296 0.12148476392030716 0.03137892112135887 -0.05125308781862259 -0.007211616262793541 -0.07587472349405289 -0.06886839866638184
lima	-0.0036960565485060215 -0.013014568015933037 0.013724428601562977 0.003364984644576907 -0.014082880690693855 -8.304036455228925E-4 0.019187774509191513 4.920861101709306E-4 0.010134546086192131 0.005741602275520563 -0.0027542910538613796 0.02231689915060997 -0.017193982377648354 0.003990265540778637 0.006617087405174971 -0.01882256008684635 -0.012312671169638634 0.026160800829529762 -0.017895499244332314 0.017569296061992645 0.018718795850872993 -0.02606911025941372 -0.015265306457877159 -0.009144674986600876 -0.007555430755019188
was	-0.011792018078267574 -0.034369830042123795 0.021450547501444817 -0.07343076914548874 -0.040152426809072495 -0.03143910691142082 0.016460666432976723 -0.007199006155133247 0.043324925005435944 -0.014090943150222301 0.023237206041812897 0.06254688650369644 -0.04568186402320862 0.014134904369711876 0.03982575610280037 -0.024934781715273857 -0.06246287375688553 0.08355891704559326 -0.03722382336854935 0.10755150020122528 0.03690516948699951 -0.05685247480869293 0.012394062243402004 -0.09605520963668823 -0.0694425031542778
pais	-0.0017128506442531943 -0.02763313800096512 0.007178740110248327 -0.008423134684562683 -0.004150184337049723 -0.016007199883461 0.028201162815093994 -0.018967412412166595 0.02323889546096325 0.008820543996989727 -0.007070223335176706 0.033024076372385025 -0.004468492232263088 8.046093862503767E-4 0.007245435379445553 -0.018739471212029457 -0.025259368121623993 0.01980927586555481 -0.005468820221722126 0.027552666142582893 0.021714679896831512 -0.025699656456708908 0.016716165468096733 -0.014644196256995201 -0.04894014820456505
with	-0.007438102271407843 -0.027234744280576706 -0.0041455794125795364 -0.03306252881884575 0.01078668050467968 -0.022131310775876045 0.017512785270810127 -0.015360255725681782 0.012351042591035366 -0.011477434076368809 0.028747180476784706 0.009136841632425785 -0.01277962513267994 0.001965385163202882 -0.001501839142292738 0.005338365212082863 -0.028146447613835335 0.003400433110073209 -0.013527433387935162 0.00840806681662798 0.01917343959212303 -0.011396399699151516 -0.005951606202870607 -0.025995295494794846 -0.02707764506340027
trade	0.009316712617874146 -0.022620316594839096 0.00619547488167882 0.012517552822828293 0.013197891414165497 -0.006087551824748516 0.007289266213774681 0.01006860937923193 0.01849517412483692 -0.0017374784220010042 0.00917068775743246 0.004867640323936939 -0.01638847030699253 0.01252705417573452 -0.015575057826936245 -0.0034104681108146906 -0.019602658227086067 0.019172435626387596 -0.011361929588019848 0.009881294332444668 0.010318177752196789 -0.01342342235147953 -1.779909071046859E-4 0.0017836862243711948 -0.003184562548995018
there	-0.0014242297038435936 -0.008530238643288612 0.012533027678728104 -7.059632334858179E-4 -0.029954250901937485 -0.007510209921747446 0.008139199577271938 -0.010664443485438824 0.003670753911137581 0.014937479048967361 0.010891638696193695 0.02797507494688034 -0.0016613333718851209 3.951314138248563E-4 0.02167879045009613 -1.3528214185498655E-4 -0.0415373295545578 0.029506972059607506 -0.010969553142786026 0.025199882686138153 0.006819712929427624 -0.0056675756350159645 0.017747027799487114 -0.017694205045700073 -0.020312372595071793
time	-0.035026151686906815 -7.742373272776604E-4 -1.5093246474862099E-5 -0.04901180788874626 -0.04073549807071686 0.0025514287408441305 0.012154603376984596 -0.015375187620520592 0.015472425147891045 0.012150002643465996 0.021190056577324867 0.058834537863731384 -0.008991210721433163 0.031129684299230576 0.01796293631196022 -0.004431768320500851 -0.04886917769908905 0.06268656253814697 -0.03144993633031845 0.05920315906405449 0.04067746549844742 -0.0469062402844429 0.004535304382443428 -0.060865629464387894 -0.05474841222167015
he	-0.041142433881759644 -0.015625014901161194 0.018472855910658836 -0.0728532075881958 -0.0688466727733612 -0.03264758363366127 0.058129265904426575 -0.05992882326245308 0.0823734849691391 -0.01674473099410534 0.042132023721933365 0.12393581867218018 -0.028230000287294388 0.046438660472631454 0.06063085421919823 -0.04445905610918999 -0.08580406755208969 0.10797497630119324 -0.03910331800580025 0.18404459953308105 0.06245177239179611 -0.09390800446271896 0.024675797671079636 -0.1527339071035385 -0.15791966021060944
