year	-0.023621113154000003 -0.0145154260856 0.0196466217728 -0.0025573392899999998 8.361524035800001E-4 -0.0101700413285 0.0167609483288 -0.01321548117 -0.0195504802828 0.00542049691585 -5.5969774032E-4 0.0167389278117 0.0023418194442999998 0.0080525427663 0.022470693256400002 -5.978980168000001E-4 -0.010138699632800001 -0.0237418261392 -0.027428510764399998 0.0040746665255500004 0.013372412795999999 -0.015208109832 -0.005841442018799999 -0.0085429968 0.0178758131183
rosary	-0.13621272087000003 -0.0717300119624 0.19985846073600003 0.0670619096225 -0.116416228617 -0.211257408207 0.557644052394 -0.429741945984 -0.406916332464 0.34337315912500005 0.10565981532 0.0020105074980400002 -0.16023784895999998 0.140399135004 0.0095336762768 -0.06006122709600001 -0.0349814199282 0.0176913278847 -0.0204632314322 0.049032137744000004 -0.053877649776 -0.004431768385079999 -0.011748419296000002 0.08460072749999999 -0.02872491351
owners	-0.24638441766000002 -0.08294171072880001 0.37059771936 0.383729254775 0.640510880373 0.353120284137 -0.163787584428 0.030804281668799997 -0.124819311892 0.21265324042 0.019005676080000002 -0.081097305229 0.06412201669999999 0.0070957524985 -0.036473720578399996 0.063546962568 -0.0396040575824 0.012979221291600002 -0.0145987913055 -0.00492990961009 -0.008119533876 -0.0117565970096 0.015645891758 -0.0033093194699999997 -0.055728678765999996
ignoring	-0.091690843288 -0.03695842722 -0.011543956652800001 0.027789418762499997 0.0069590402856 0.0085091493232 0.012996051603600001 0.0150884127314 0.0395210508624 -0.0504622167105 -0.010350201132000001 0.0469156722174 -0.0021304698611 -0.0142567547136 0.09688061511200001 -0.042540804428000005 -0.039020166094799996 -0.026783329330800004 -0.0374185075371 0.0103255345736 0.009949749768 0.0053521840975999995 -0.039204827351600004 -0.186529722 0.0356818926959
assassin	-0.06742170891 -0.059363695758400004 0.0665898394304 -0.00867913565 -0.0355846988484 -0.103029003443 0.0193251741332 -0.060013700772199995 0.18268734679600002 -0.11763706997500001 0.22651972512 -0.203805622175 0.17026401798 0.130978630079 -0.0302341929728 0.14920249255200002 -0.203859779414 0.69993538245 -0.44294005885000004 0.12114819258300001 0.02038623768 -0.051005016286799994 0.022920149156000002 -0.09534654059999999 -0.0147997834883
without	-0.4585212371800001 -0.17881867581600003 0.4834412415360001 0.23937862964999998 0.296816546637 -0.0514254661209 0.236227434794 -0.269435890176 -0.073555803856 0.430002905155 -0.40179683628 -0.143565914707 -0.017364877628 0.187223515752 0.186813894676 -0.05713299825600001 0.442991194622 0.120311517558 -0.080792804412 0.14917744879 -0.06806613192 -0.0287501555844 0.054095761268 -0.0683133003 0.2471536245
building	-0.19536430157 -0.0034537902872000003 0.0832574352192 -0.00116300896075 -0.15947407008 0.102617773156 0.46112623921 0.79879281224 0.0362836326396 0.15788271547000002 0.12224678928 -0.079252304755 -0.025127968362 -0.044015497626500005 0.0592644676792 0.05946854654400001 0.039324163322 0.0351665525097 0.052201229443 0.0241865258664 -0.0023462986044 -0.0033492561177199997 -0.0071264123556 0.023002975499999998 -0.0329133640047
dutch	-0.071509396285 -0.0539830275688 0.05096242511360001 -0.038030176954999995 0.006066793255770001 -0.025447670837000003 0.0455391215266 -0.0170431801424 -0.014737618178799998 -0.08248016108 -0.055639172304000006 0.18704528932699999 0.19575646013 -0.14153699631900002 0.25736424537200003 0.104353985856 -0.165664073174 0.07944952967100001 0.10756075564499999 -0.274252402986 -0.7268883936 0.239892574864 0.21684877258399998 -0.1169364279 0.063201951416
these	-0.24638441766000002 -0.08294171072880001 0.37059771936 0.383729254775 0.640510880373 0.353120284137 -0.163787584428 0.030804281668799997 -0.124819311892 0.21265324042 0.019005676080000002 -0.081097305229 0.06412201669999999 0.0070957524985 -0.036473720578399996 0.063546962568 -0.0396040575824 0.012979221291600002 -0.0145987913055 -0.00492990961009 -0.008119533876 -0.0117565970096 0.015645891758 -0.0033093194699999997 -0.055728678765999996
paraiso	-0.042994382475 -0.015243101368000002 0.017449348646400003 -0.01001186054 -0.0294286186935 0.00636599143517 -0.00113387109082 0.009293915901799999 -0.0257954811584 -0.010777531158500001 -0.019773788916 0.0339324127217 0.00591233755 0.00552928442031 -0.0162372550916 0.0111777441672 -0.0258170452476 -0.00223855802724 -0.00511505734951 -0.062989995373 -0.012832172604 -0.0048692136006799995 0.008666230454 -0.00612608568 -0.0079255969407
would	-0.91666346052 -0.124097737456 0.5241884714880001 0.087685101775 -0.5025566771550001 1.18665012817 -0.07969057993 0.220397774384 -0.139774414172 -0.10514368877000001 0.061568229204 -0.12071430206 -0.29565267179000004 0.095309607307 -0.0274310800916 0.120794276064 0.051952849348 0.062156777271 0.0394537298749 0.049107941411400007 0.09481117500000001 0.10730025887599999 0.1250405437 -0.0870744117 0.454851940255
customs	-0.40526170395 -0.42872989957600005 -0.7602958077440001 0.0535662762425 0.187751272761 0.0476558037208 0.107167639514 -0.0707283619432 -0.00215798406424 -0.0029354350434500002 0.056491504884 -0.081955400932 -0.0025570247633000002 -0.0140119140946 -0.0154201357168 0.0104312949616 0.0072139372356 -0.0251646041865 0.0163741920674 0.019610770771 -0.004678384367999999 0.016121987311199997 0.00316539465656 0.004568886399 -0.0083607811658
empire	-0.6058570898300001 0.55623051 -0.0033892950572800003 -0.55057419675 0.136074147534 0.0625709642071 -0.099393302554 -0.075199653768 -0.078659206192 -0.017924475215000003 0.05328664284 -0.0045521629764799995 0.023953664462 -0.086698864933 0.052362325334 -0.089935609816 0.0164575403286 -0.029593064724 0.00529796860249 0.126755579644 0.1298756778 -0.0390664972816 -0.054809460028 0.024760081530000002 0.08308493763300001
liberals	-0.5875465614500001 0.616811710856 -0.139125636672 0.188679115125 -0.099337481568 -0.46803638895300004 -0.396689894692 0.157932383938 -0.35677217628799995 -0.020582740630000002 0.057459574224000005 0.0087925448667 0.027708673874 0.079187130073 -0.0178899412648 -0.0302896694688 -0.046369206802200004 0.021159647646900002 0.026132315306100003 0.064856016187 -0.043101173747999995 0.04617020085319999 -0.0157518004864 0.02857723932 -0.0262566930515
near	-0.13621272087000003 -0.0717300119624 0.19985846073600003 0.0670619096225 -0.116416228617 -0.211257408207 0.557644052394 -0.429741945984 -0.406916332464 0.34337315912500005 0.10565981532 0.0020105074980400002 -0.16023784895999998 0.140399135004 0.0095336762768 -0.06006122709600001 -0.0349814199282 0.0176913278847 -0.0204632314322 0.049032137744000004 -0.053877649776 -0.004431768385079999 -0.011748419296000002 0.08460072749999999 -0.02872491351
prison	-0.011752548970999999 -0.0014212524418400002 0.00487842170816 0.006272002969999999 0.00620224701642 -7.8990934359E-4 0.00133255906628 -0.0032617637308 -0.00509444050324 -6.963443149000001E-4 0.00602534073 -0.004075291601399999 0.0067894232490000005 -0.00246156714418 -0.00265268578332 -0.012092793696000002 -3.24788630882E-4 -0.00364918623162 0.0038215950864899997 -0.0046122801765300005 0.0051049435823999996 0.0028476087174 -0.0012135848323600001 -0.0082081812 -0.008455867720200001
marched	-0.32561102105 -0.134568315992 0.43679643040000005 0.364401714225 0.5778486559170001 0.317527646989 -0.0663553438678 0.0500965069032 -0.117915121548 -0.34907201126500004 -0.07132130712 -0.099748100575 -0.47094547353000005 0.19081965088900002 0.0364128858708 0.133377745944 -0.14203739945000002 -0.0210593159958 0.00127220718907 0.037292552124400004 -0.02455521078 0.0422186527976 0.049642958238 0.030854921219999998 -0.034305280165299996
i.e	-0.13621272087000003 -0.0717300119624 0.19985846073600003 0.0670619096225 -0.116416228617 -0.211257408207 0.557644052394 -0.429741945984 -0.406916332464 0.34337315912500005 0.10565981532 0.0020105074980400002 -0.16023784895999998 0.140399135004 0.0095336762768 -0.06006122709600001 -0.0349814199282 0.0176913278847 -0.0204632314322 0.049032137744000004 -0.053877649776 -0.004431768385079999 -0.011748419296000002 0.08460072749999999 -0.02872491351
thus	-0.45619053317 -0.418770229064 -0.4926806734080001 0.09304199249999999 0.20572753383 0.0664675447727 0.15634177122200002 -0.033352719182399994 -0.0170998365868 -0.526263951085 -0.040512181608000006 -0.10045339336399998 -0.5257484154300001 0.17347173710600003 0.0537167483088 0.08972163513600001 -0.10355799321800001 -0.0524095601739 0.026728745563000002 0.057462690334000005 -0.021726996827999997 0.0651320785 0.0393852837388 0.03733001577 0.00462639447441
antonio	-0.06742170891 -0.059363695758400004 0.0665898394304 -0.00867913565 -0.0355846988484 -0.103029003443 0.0193251741332 -0.060013700772199995 0.18268734679600002 -0.11763706997500001 0.22651972512 -0.203805622175 0.17026401798 0.130978630079 -0.0302341929728 0.14920249255200002 -0.203859779414 0.69993538245 -0.44294005885000004 0.12114819258300001 0.02038623768 -0.051005016286799994 0.022920149156000002 -0.09534654059999999 -0.0147997834883
mayor	-0.17135816582000002 -0.087282000168 0.09441841024000001 0.06016611869249999 -0.07469891094509999 -0.15859369914500002 -0.18053576892 -0.0576516991554 0.462100028268 0.33425206501500004 0.17472719808 0.180351006293 -0.48472376329999994 -0.41597742768400003 0.0368329378852 -0.197731949976 -0.16955514542199998 0.014549998349700001 -0.06624077987 0.0095411147129 -0.027710744172 -0.0056990107692 0.054931882808 -0.002629752981 -0.06954173520399999
narrative	-0.105384567106 -0.0079107471784 0.04978752817280001 0.021019198644999997 -0.063454241214 -0.0126697505346 -0.0206047487724 0.0035941210157599997 0.0120646480444 -0.012837203958 -0.012979060284000001 0.053937218682499996 0.028148378467999998 -0.029812953216200002 0.0177964504384 0.0358657910064 0.0168281955214 -0.055124915317800005 -7.202249603300001E-4 0.043801245887799996 0.18600008735999998 0.011038971900400001 0.157202831324 -0.2297172951 0.334636315274
lighting	-0.40526170395 -0.42872989957600005 -0.7602958077440001 0.0535662762425 0.187751272761 0.0476558037208 0.107167639514 -0.0707283619432 -0.00215798406424 -0.0029354350434500002 0.056491504884 -0.081955400932 -0.0025570247633000002 -0.0140119140946 -0.0154201357168 0.0104312949616 0.0072139372356 -0.0251646041865 0.0163741920674 0.019610770771 -0.004678384367999999 0.016121987311199997 0.00316539465656 0.004568886399 -0.0083607811658
incited	-0.13944127169 -0.10732538168000001 0.21676928345600002 0.027068602435 -0.051043354362000005 -0.181428167389 0.0691686095334 -0.132582720984 0.028076221979599997 -0.327001281425 0.23321284080000002 -0.365372604135 0.20473768707 -0.52083211877 -0.114766854952 0.18755496245600004 0.238547869696 -0.23987517972 8.6356649066E-4 0.064529106015 -0.06228530087999999 -0.059563779712 0.013528863275600002 0.23085483629999998 -0.00199572088225
journalist	-0.16392810792 -0.09584946800000001 0.104649730944 -0.1888010982 0.0386671871313 -0.0039415921508600005 0.07048531533420001 -0.07082496570579999 -0.096406021136 -0.115562943565 -0.15007919148 0.49353131262499994 0.37011861033000004 -0.271935286291 0.85111278256 0.31199794648800006 -0.545495692138 -0.00484542360795 0.0524696762663 0.21824819276500002 0.569900118 0.092042624956 -0.19543676788800002 0.2882091645 -0.163931974439
olinda	-0.075348760263 -0.043442795528000004 0.0377759307904 0.020382096192499997 -0.0345193339608 -0.0101518330081 0.025801806004 0.0063039898280999995 -0.02942947978 -0.073026700535 -0.02123377218 0.070204730562 0.027037059958999996 -0.015136084070200001 0.030265893885200002 -0.0219589023864 -0.15496593099599998 -0.12643023235200002 -0.073408136427 -0.135687467632 -0.20201318507999996 -0.6878316286 -0.5039145632440001 -0.2941614996 0.148133527069
charges	-0.26390687458 -0.00668232998752 0.0413388357888 0.21635332764999998 -0.643507317531 0.6243926249980001 -0.148833589268 -0.197506788848 -0.008012313596 -0.0024020302095 -0.006590914236 -0.0134416682377 0.052456155213 0.028827546815600003 -0.0169747341328 0.0299319507024 0.022882941509200002 0.018216342585 0.021739095950200002 0.0082450475226 -0.014915055180000001 0.028885714604 2.55425492932E-4 0.01714417041 -0.065508718578
left	-0.092335051263 -0.0818091256576 0.12830556569600002 0.058590065472499994 0.0114585772392 -0.0342921310096 0.092068600754 -0.00622437276738 0.09642356583600001 -0.236517683305 0.08422432116 -0.134486138247 0.25155536245 0.079431970692 0.0315855712272 -0.80209434704 -0.155437034438 0.068984045751 0.26253964899300003 -0.09972899423300001 0.10192140144 0.094476681196 -0.0108731745612 -0.02737720614 -0.0371648144429
ltda	-0.28336022213000006 -0.033114906924 0.13742573574400002 -0.8458131019999999 0.088977492981 0.215608888167 -0.17711999214000002 -0.0159798183678 -0.195471117004 0.073675447845 0.0918636012 -0.085446505525 -0.09237250309 -0.021418620346499998 -0.09141325248 -0.083115386728 0.0102754176574 0.048852530837700005 0.0261472694688 0.008361934364300001 -0.021878966568 -0.016386941182 -0.0172086836632 9.74370585E-4 0.0101849738618
eleven	-0.038033229973 0.0017393859340000001 0.010562230272000001 0.00441252646025 2.53219409469E-4 -0.0110050008343 0.0108721781688 -0.011737609290999998 0.0109391906288 -0.018008066372500003 -0.00672907908 -0.0129284525001 0.0018824468299 -0.0094475792403 0.0054622283976 0.009747103594400001 0.027670724849800002 -0.0214805180364 -0.0071938483883 0.011662575236800001 -0.0052377200064 -0.0063847613324 0.007742641744800001 -0.013174941869999998 0.0021969024022300003
institute	-0.068683201011 -0.030244367155200003 0.0354698102528 -0.03505713848 -0.00546966300699 -0.0098974565998 0.0812606769 -0.0683085133306 -0.0598963425816 0.030964629178500003 -0.031010324388000002 0.063145488502 0.006728384565 0.018508408978900003 0.0213448631132 0.012697316134400002 -0.0069222798048 -0.068578115232 -0.057564565099 -0.004868328729200001 0.11554811208 0.137941444344 0.183051229188 -0.17789002380000002 0.387092057704
charged	-0.038033229973 0.0017393859340000001 0.010562230272000001 0.00441252646025 2.53219409469E-4 -0.0110050008343 0.0108721781688 -0.011737609290999998 0.0109391906288 -0.018008066372500003 -0.00672907908 -0.0129284525001 0.0018824468299 -0.0094475792403 0.0054622283976 0.009747103594400001 0.027670724849800002 -0.0214805180364 -0.0071938483883 0.011662575236800001 -0.0052377200064 -0.0063847613324 0.007742641744800001 -0.013174941869999998 0.0021969024022300003
executioners	-0.21589113649000002 -0.11368961287200001 0.31676864313600006 0.106290311175 -0.18451471123799998 -0.334835581376 0.88384493314 -0.6811242426140001 -0.64494668094 0.544233052655 0.16746651456 0.00318658480224 -0.25397053507 0.222526819413 0.015110469742 -0.095194697088 -0.0554442621154 0.0280401418713 -0.0324334505885 0.077714117281 -0.08539394460000001 -0.0070242016048 -0.0186208174068 0.1340889687 -0.0455279421653
much	-0.100048445119 -0.0321284814488 0.0444472020608 0.0262132060875 -0.00630002880702 -0.024625210263000002 -0.009782102992999999 -0.00580996351702 0.039678742626 -0.034937440477500005 -0.054021865512 0.069762738662 0.10572063341 -0.093836863231 0.159206638704 -0.037789100952 0.0115825711368 -0.101411886672 -0.04439202006 0.174942468101 0.21821767224 -0.027437609196799998 -0.05392593222 0.02086956585 0.137809698271
shortly	-0.16215552490000001 -0.09313445592000001 0.11721001670400001 -0.0599414465975 0.0350368216497 -0.072897319337 -0.0354350217416 -0.018316606474599997 0.088196505112 -0.07715963386000001 -0.052527488160000003 0.13200656368799998 0.07479185497 0.115521601278 0.295257880264 -0.19232513224000003 0.572530802148 0.0194122936203 -0.177142978761 0.19043066026 -0.12680855327999999 -0.12820153142 0.09656552602 -0.1469944464 -0.15339848591
presumption	-0.46074216584000005 0.8402485308800001 -0.186595202112 0.052477278319999994 0.10691675127900001 -0.103802085521 0.048415916289 -0.082987026428 0.0461957565304 -0.0637126473945 0.036403199688 0.0093414356648 0.020026905255 -0.0055434198031500004 0.00516372042756 -0.00440397410288 0.00107253012626 0.011326921257900002 0.025626506155 -0.006693650323800001 -0.015380751359999998 -0.0106074274272 -0.005232037048399999 0.01265467794 -0.032231179191400006
newspaper	-0.33685086136000003 -0.0335326544696 0.097302530688 0.18917900655 -0.511916803632 0.421366766382 -0.128629015788 -0.143343847052 0.0313863454392 -0.0360124693875 -0.05281781088 0.07913359835900001 0.13372746744 -0.068055207723 0.11485461454 0.0201021297728 0.036814110344 -0.09927443510100001 -0.0167752100634 0.16291261257700002 0.27940737732 0.0089621740016 0.074306459876 -0.1375878957 0.29206365709800003
appropriate	-0.26390687458 -0.00668232998752 0.0413388357888 0.21635332764999998 -0.643507317531 0.6243926249980001 -0.148833589268 -0.197506788848 -0.008012313596 -0.0024020302095 -0.006590914236 -0.0134416682377 0.052456155213 0.028827546815600003 -0.0169747341328 0.0299319507024 0.022882941509200002 0.018216342585 0.021739095950200002 0.0082450475226 -0.014915055180000001 0.028885714604 2.55425492932E-4 0.01714417041 -0.065508718578
southern	-0.24638441766000002 -0.08294171072880001 0.37059771936 0.383729254775 0.640510880373 0.353120284137 -0.163787584428 0.030804281668799997 -0.124819311892 0.21265324042 0.019005676080000002 -0.081097305229 0.06412201669999999 0.0070957524985 -0.036473720578399996 0.063546962568 -0.0396040575824 0.012979221291600002 -0.0145987913055 -0.00492990961009 -0.008119533876 -0.0117565970096 0.015645891758 -0.0033093194699999997 -0.055728678765999996
entitled	-0.28336022213000006 -0.033114906924 0.13742573574400002 -0.8458131019999999 0.088977492981 0.215608888167 -0.17711999214000002 -0.0159798183678 -0.195471117004 0.073675447845 0.0918636012 -0.085446505525 -0.09237250309 -0.021418620346499998 -0.09141325248 -0.083115386728 0.0102754176574 0.048852530837700005 0.0261472694688 0.008361934364300001 -0.021878966568 -0.016386941182 -0.0172086836632 9.74370585E-4 0.0101849738618
forest	-0.24638441766000002 -0.08294171072880001 0.37059771936 0.383729254775 0.640510880373 0.353120284137 -0.163787584428 0.030804281668799997 -0.124819311892 0.21265324042 0.019005676080000002 -0.081097305229 0.06412201669999999 0.0070957524985 -0.036473720578399996 0.063546962568 -0.0396040575824 0.012979221291600002 -0.0145987913055 -0.00492990961009 -0.008119533876 -0.0117565970096 0.015645891758 -0.0033093194699999997 -0.055728678765999996
providing	-0.100048445119 -0.0321284814488 0.0444472020608 0.0262132060875 -0.00630002880702 -0.024625210263000002 -0.009782102992999999 -0.00580996351702 0.039678742626 -0.034937440477500005 -0.054021865512 0.069762738662 0.10572063341 -0.093836863231 0.159206638704 -0.037789100952 0.0115825711368 -0.101411886672 -0.04439202006 0.174942468101 0.21821767224 -0.027437609196799998 -0.05392593222 0.02086956585 0.137809698271
hang	-0.13621272087000003 -0.0717300119624 0.19985846073600003 0.0670619096225 -0.116416228617 -0.211257408207 0.557644052394 -0.429741945984 -0.406916332464 0.34337315912500005 0.10565981532 0.0020105074980400002 -0.16023784895999998 0.140399135004 0.0095336762768 -0.06006122709600001 -0.0349814199282 0.0176913278847 -0.0204632314322 0.049032137744000004 -0.053877649776 -0.004431768385079999 -0.011748419296000002 0.08460072749999999 -0.02872491351
weeks	-0.14978442072 -0.08078756983440001 0.16085144556800002 0.059637924004999995 0.0625570421112 0.0332150625656 0.083053415796 0.030148082061400003 -0.018647349305599997 -0.637368921605 -0.10578274476 -0.0402659040819 -0.6371195229000001 0.22507451865 0.080777029216 0.09873319344 -0.133212715146 -0.038602027271400004 0.016146687165200003 0.050303686671400005 -0.021756792684 0.063123718676 0.04475464268 0.040850466630000005 0.0139897113403
fate	-0.18525803619 -0.064859296568 0.09905870304 -0.049056809114999995 -0.0612891067347 -0.174926408236 0.015038047926200001 -0.04783723232999999 0.23225463323599999 0.191844703755 -0.7716241716000001 -0.39953100100100003 0.022473413578 0.006799970229300001 -0.00219520758816 0.084636658768 -7.7162938068E-4 0.11922454455 0.180057080204 0.05092805218950001 -0.015463396800000001 -0.0020915234122 -0.056843761968000006 -0.02188420269 -0.0055845496475
role	-0.46074216584000005 0.8402485308800001 -0.186595202112 0.052477278319999994 0.10691675127900001 -0.103802085521 0.048415916289 -0.082987026428 0.0461957565304 -0.0637126473945 0.036403199688 0.0093414356648 0.020026905255 -0.0055434198031500004 0.00516372042756 -0.00440397410288 0.00107253012626 0.011326921257900002 0.025626506155 -0.006693650323800001 -0.015380751359999998 -0.0106074274272 -0.005232037048399999 0.01265467794 -0.032231179191400006
independent	-0.14978442072 -0.08078756983440001 0.16085144556800002 0.059637924004999995 0.0625570421112 0.0332150625656 0.083053415796 0.030148082061400003 -0.018647349305599997 -0.637368921605 -0.10578274476 -0.0402659040819 -0.6371195229000001 0.22507451865 0.080777029216 0.09873319344 -0.133212715146 -0.038602027271400004 0.016146687165200003 0.050303686671400005 -0.021756792684 0.063123718676 0.04475464268 0.040850466630000005 0.0139897113403
successors	-0.050461417335 -0.0209460146016 0.032954813548800005 -0.00539339794725 -0.00544946106861 -0.0277714691511 -0.015574419158999998 -7.8119378226E-4 0.00323875162 0.009772505680000002 -0.022796153052 0.0190428421613 0.0047703866644 0.00577215768018 -0.0070758108088 0.0155203749536 0.0402415176254 0.0402349571766 0.0191608750829 -0.048887002791800006 0.010392881567999999 8.8898899072E-4 -0.019423025232000003 0.026691614009999996 0.0335847342528
turn	-0.19536430157 -0.0034537902872000003 0.0832574352192 -0.00116300896075 -0.15947407008 0.102617773156 0.46112623921 0.79879281224 0.0362836326396 0.15788271547000002 0.12224678928 -0.079252304755 -0.025127968362 -0.044015497626500005 0.0592644676792 0.05946854654400001 0.039324163322 0.0351665525097 0.052201229443 0.0241865258664 -0.0023462986044 -0.0033492561177199997 -0.0071264123556 0.023002975499999998 -0.0329133640047
weekly	-0.103427099286 -0.06047450868800001 0.06602653728 -0.119120060475 0.0243962418375 -0.0024868707971400002 0.044471310543400006 -0.04468554358 -0.0608255098936 -0.072912137355 -0.09468967056 0.31138329355 0.23351880811 -0.171572217946 0.53699315792 0.19684908458400002 -0.344169030742 -0.00305712281406 0.033104707667 0.137699391308 0.35956584203999997 0.058072788552 -0.12330682875599999 0.18183970409999997 -0.103429583355
formadores	-0.28336022213000006 -0.033114906924 0.13742573574400002 -0.8458131019999999 0.088977492981 0.215608888167 -0.17711999214000002 -0.0159798183678 -0.195471117004 0.073675447845 0.0918636012 -0.085446505525 -0.09237250309 -0.021418620346499998 -0.09141325248 -0.083115386728 0.0102754176574 0.048852530837700005 0.0261472694688 0.008361934364300001 -0.021878966568 -0.016386941182 -0.0172086836632 9.74370585E-4 0.0101849738618
result	-0.46074216584000005 0.8402485308800001 -0.186595202112 0.052477278319999994 0.10691675127900001 -0.103802085521 0.048415916289 -0.082987026428 0.0461957565304 -0.0637126473945 0.036403199688 0.0093414356648 0.020026905255 -0.0055434198031500004 0.00516372042756 -0.00440397410288 0.00107253012626 0.011326921257900002 0.025626506155 -0.006693650323800001 -0.015380751359999998 -0.0106074274272 -0.005232037048399999 0.01265467794 -0.032231179191400006
opposition	-0.29310134003000005 -0.125044088312 0.15901884486400003 0.00913071221 -0.11176805074500001 -0.274119319771 -0.13602188808 -0.086700616258 0.570687685508 0.43239740883 -0.49058720148 -0.1801432701 -0.37992185 -0.33630123310000004 0.0284686133432 -0.092952359688 -0.139990953776 0.10994877953700001 0.09354528870100001 0.049699396509500005 -0.035484635243999994 -0.006402990411599999 -0.00157158550744 -0.02014794465 -0.061746066082000006
same	-0.36417221268 -0.17140573868 0.19203421318400005 0.1653835369 -0.236667361437 -0.48559815967100006 0.09006772429200001 -0.091754124048 -0.5898703587 0.154447818265 -0.053455932372000005 0.263820545191 -0.013198422271999998 0.13203261652200002 -0.227802398304 -0.08243711630400001 -0.119660850894 0.06683536512 0.0548136712594 -0.0122161833519 0.051516763163999994 -0.299929994524 0.305779805664 0.1791242664 -0.058905202233
pernambuco	-0.9426166643200001 0.111235693008 0.016683889305600004 0.018427656257499998 -0.0087983141922 0.34007973195900004 -0.12706979708799998 -0.15452928047399997 0.223433859864 0.0346167967865 0.035366015232 0.165294236511 0.06349090685 0.0119512441695 -0.072972992928 -0.38158602981600004 0.06917378483799999 -0.108174588057 -0.201176614552 0.0484603191965 -0.0049291154087999995 0.125259589852 0.0130167713916 -0.1135040481 -0.076498255281
equator	-0.24860765737999999 -0.126619315768 0.15185641644800002 -0.090347203 0.034953447321 -0.06769282585860001 0.0074331944128000005 -0.053471371235999994 0.069953175158 -0.10276916704500001 -0.14325660756 0.40965072126 0.27233991351 -0.0499725253922 0.7781588937599999 -0.00127592222336 0.251606142092 -0.083603720418 -0.169394258126 0.37586497025700005 0.33325196892 -0.06112273478 -0.0467846728464 0.040552251989999996 -0.11614945049
commission	-0.27855899498000003 -0.187039177248 0.37178361862400006 0.0429958448375 -0.152969455314 -0.397937441569 0.444323663368 -0.43585946389599994 -0.120706834212 -0.089411899535 0.42870399828 -0.379147597407 0.15069270496 -0.18240811133600002 -0.14523017806 0.320471343816 0.041763002989 0.251724645285 -0.23599348983600002 -0.08930132765600002 0.14594097264 0.056171906536 0.0088898734304 -0.2800576524 -0.224809304458
after	-0.58778113404 -0.23935910812000002 0.3391596306560001 -0.32706293415 -0.131885748774 -0.40295167353000005 -0.391772191434 -0.0019234234161400001 0.076248564412 0.089943419405 -0.1376875116 -0.237121077346 -0.10326527071 -0.35472533549800006 0.07960152834 -0.12371136649600002 0.340634889988 -0.0068413609503 -0.0428318584264 0.21423641256700002 -0.15723512448 -0.09318009842399999 0.049600188407200006 0.022591318679999996 -0.11001575558599999
close	-0.18525803619 -0.064859296568 0.09905870304 -0.049056809114999995 -0.0612891067347 -0.174926408236 0.015038047926200001 -0.04783723232999999 0.23225463323599999 0.191844703755 -0.7716241716000001 -0.39953100100100003 0.022473413578 0.006799970229300001 -0.00219520758816 0.084636658768 -7.7162938068E-4 0.11922454455 0.180057080204 0.05092805218950001 -0.015463396800000001 -0.0020915234122 -0.056843761968000006 -0.02188420269 -0.0055845496475
rational	-0.075348760263 -0.043442795528000004 0.0377759307904 0.020382096192499997 -0.0345193339608 -0.0101518330081 0.025801806004 0.0063039898280999995 -0.02942947978 -0.073026700535 -0.02123377218 0.070204730562 0.027037059958999996 -0.015136084070200001 0.030265893885200002 -0.0219589023864 -0.15496593099599998 -0.12643023235200002 -0.073408136427 -0.135687467632 -0.20201318507999996 -0.6878316286 -0.5039145632440001 -0.2941614996 0.148133527069
hand	-0.37489899767 -0.0372874381088 0.16546654220800003 -0.062337257972500004 -0.24589364810400002 0.084974990843 0.612295755656 1.09837973806 0.209761626048 0.25355895633000003 0.09443465736000001 -0.147605089256 0.09046284632 0.183339985833 0.020233122264399998 0.0443896042864 -0.103632954598 -0.34912438881900004 -0.42611914617700003 -0.24791090281800002 0.0040918355436 0.0856661352 0.0458061241232 0.218181234 -0.07974007423599999
policy	-0.050461417335 -0.0209460146016 0.032954813548800005 -0.00539339794725 -0.00544946106861 -0.0277714691511 -0.015574419158999998 -7.8119378226E-4 0.00323875162 0.009772505680000002 -0.022796153052 0.0190428421613 0.0047703866644 0.00577215768018 -0.0070758108088 0.0155203749536 0.0402415176254 0.0402349571766 0.0191608750829 -0.048887002791800006 0.010392881567999999 8.8898899072E-4 -0.019423025232000003 0.026691614009999996 0.0335847342528
resigned	-0.17135816582000002 -0.087282000168 0.09441841024000001 0.06016611869249999 -0.07469891094509999 -0.15859369914500002 -0.18053576892 -0.0576516991554 0.462100028268 0.33425206501500004 0.17472719808 0.180351006293 -0.48472376329999994 -0.41597742768400003 0.0368329378852 -0.197731949976 -0.16955514542199998 0.014549998349700001 -0.06624077987 0.0095411147129 -0.027710744172 -0.0056990107692 0.054931882808 -0.002629752981 -0.06954173520399999
a	-1.03417392834 -0.10041641324 0.34570559302400006 0.01708432761 0.00641584748025 0.14462961478400002 0.344643899704 0.0415624541542 0.0602061118048 -0.0541745965945 -0.14957505 0.41019373987999996 0.08193375778 -0.301753420014 0.151521406212 0.20431474910400002 0.09109998848800001 0.07857534735 0.0269588268378 0.0220480067748 0.021453396924 0.3380150719 -0.24670273962000003 0.045539756669999994 0.052974535487
ordered	-0.13621272087000003 -0.0717300119624 0.19985846073600003 0.0670619096225 -0.116416228617 -0.211257408207 0.557644052394 -0.429741945984 -0.406916332464 0.34337315912500005 0.10565981532 0.0020105074980400002 -0.16023784895999998 0.140399135004 0.0095336762768 -0.06006122709600001 -0.0349814199282 0.0176913278847 -0.0204632314322 0.049032137744000004 -0.053877649776 -0.004431768385079999 -0.011748419296000002 0.08460072749999999 -0.02872491351
d	-0.18977153637000002 -0.099378116288 0.15958407872000002 -0.0115827314725 -0.0244548164367 -0.07836521622999999 0.076616380828 0.033586556478000004 0.238096316548 -0.150915009505 0.002767939428 -0.152330614084 0.32837493255 0.30277348647200003 -0.0313611574236 -0.6930903689600001 -0.280809942488 -0.332163455142 -0.270926301887 -0.35707202342300004 0.09084636875999999 0.166188614324 0.045355972956399995 0.16191869579999998 -0.066023430667
e	-0.22763132129000002 -0.17897220844800002 0.29174381702400004 0.023835811765 -0.040652503889400005 -0.219043008256 0.104152908288 -0.126891671584 0.190487018628 -0.4762104984650001 0.34181315448 -0.47169375568000005 0.43606676379 -0.23540161226500003 -0.091543399352 -0.346684707696 -0.06908267793 0.36353801023500004 -0.109659939233 0.06862096823500001 0.01235630886 -0.0362300841692 0.0199703852956 0.04860056394 -0.028576315262700002
strata	-0.108280325286 -0.0607678687792 0.07593803472640001 -0.016226938075 0.0297711698778 -0.0122115335225 0.12791395084 0.0326156922658 0.0522645384392 -0.12964822012000002 -0.18693906096 0.478951262678 0.12684052045000002 -0.081053345975 -0.560511533496 -0.0306776378064 0.016597833434399998 0.0165341171064 -0.10582506462600001 0.339174240013 -0.11083079736 0.281826832952 -0.27188536594 -0.0655214373 -0.08775407514599999
i	-0.5336098876400001 -0.380961300456 -0.19211904025600002 0.00429030420275 0.029582928121500002 -0.18901008114200002 0.12139424102 -0.07744725808799999 0.400473216836 -0.079475541865 -0.290992947 -0.43215631739099997 0.3752623126 0.21493305986200004 0.0394994562512 -0.34362399042400005 -0.284641622258 0.15564600066 -0.334847226255 -0.0365961676372 0.17752838603999999 0.07435251535199999 -0.015918347562 0.056774639700000004 0.015505127795
faced	-0.17135816582000002 -0.087282000168 0.09441841024000001 0.06016611869249999 -0.07469891094509999 -0.15859369914500002 -0.18053576892 -0.0576516991554 0.462100028268 0.33425206501500004 0.17472719808 0.180351006293 -0.48472376329999994 -0.41597742768400003 0.0368329378852 -0.197731949976 -0.16955514542199998 0.014549998349700001 -0.06624077987 0.0095411147129 -0.027710744172 -0.0056990107692 0.054931882808 -0.002629752981 -0.06954173520399999
n	-0.40526170395 -0.42872989957600005 -0.7602958077440001 0.0535662762425 0.187751272761 0.0476558037208 0.107167639514 -0.0707283619432 -0.00215798406424 -0.0029354350434500002 0.056491504884 -0.081955400932 -0.0025570247633000002 -0.0140119140946 -0.0154201357168 0.0104312949616 0.0072139372356 -0.0251646041865 0.0163741920674 0.019610770771 -0.004678384367999999 0.016121987311199997 0.00316539465656 0.004568886399 -0.0083607811658
the	-2.0244076729 -0.388629257896 0.531996761472 0.084138822575 -0.140360957919 -0.232500963033 0.174703565764 -0.079701345882 0.0665695744948 -0.18670734441000003 -0.12370494168000001 0.213449254016 0.0710045679 -0.0081209994633 -0.0242557949168 -0.094256725888 -0.052618910040599993 0.004002216648960001 -0.12730193065200002 -0.08100351376 0.031769668343999996 -0.033036676141600003 -0.0015260911186 -0.1249335297 0.21213381785
invasion	-0.13855844677 -0.039104154179200004 0.0658604105984 -0.0726828578275 -0.041212662858900004 -0.0610546586104 0.00115036980032 0.047089111468999995 0.193268204472 0.05289954836500001 -0.08085618527999999 -0.050854009471500004 0.14797799065 0.28895140094800004 -0.069742604284 -0.0411862567688 -0.18622367320400002 -0.47312633694600004 -0.5921736413 -0.334720363173 0.008610730523999998 0.107724901588 0.066057769244 0.224383641 -0.0431655208022
mello	-1.1447188613200001 0.41886217516 -0.330979277376 -0.5629973358 -0.185362625799 0.466749461901 0.122294961776 0.22639066551799997 -0.008974464944000001 0.111992835165 0.15700835784 -0.179156996746 0.032880195215 0.10910208993500001 -0.089247918972 -0.0365455270104 -0.05177034721900001 -0.19040667879599998 -0.226328172019 -0.14624842141 -0.043990590924 0.06368639661199998 0.0161972110264 0.1523161428 -0.09568033524399999
returned	-0.37162538118 -0.14523059346400002 0.365648353664 0.33740279362500003 0.401568242166 0.12194019587200002 -0.254146121138 -0.0234386229732 0.270548397244 0.36744608035500004 0.100272498 0.12130530837199999 -0.22599447157000002 -0.36080749717200006 0.11452268031599999 -0.12342763020800002 -0.141803289294 -0.0530265408756 -0.08988067871800001 0.128867880101 0.13090167744 -0.0322203716528 0.0119509117836 0.01071581487 0.0089992996215
imperial	-0.59752571853 -0.32249659463999997 0.46399568512000006 0.22958091717499998 -0.300624682878 -0.7528924454479999 -0.394535997232 -0.0676569962322 0.0609900791796 -0.29639626074000003 0.48946906667999995 -0.41994660686199997 0.07743874852 -1.13781814411 -0.068505014992 0.11785725374400001 0.23810040792 -0.442824157083 -0.072084665024 0.29543300079100004 0.006208412448 -0.073630728112 0.0130053626304 0.4055131617 0.044969665742900004
liberal	-0.5087902587700001 -0.353797301 -0.43141705024000004 0.025964217105 0.0416617347861 0.09908875377000001 0.499677377654 0.545951013574 0.062003320694000004 0.0181576645715 -0.0058857765828 0.228048246473 0.07116470025 -0.099819731858 -0.37081828852800003 0.028150274407999998 0.0453134045962 0.0190453279395 -0.0267345704054 0.274863439784 -0.08458597668 0.211437825196 -0.19797847318000003 -0.027236885129999996 -0.092605325856
november	-0.13944127169 -0.10732538168000001 0.21676928345600002 0.027068602435 -0.051043354362000005 -0.181428167389 0.0691686095334 -0.132582720984 0.028076221979599997 -0.327001281425 0.23321284080000002 -0.365372604135 0.20473768707 -0.52083211877 -0.114766854952 0.18755496245600004 0.238547869696 -0.23987517972 8.6356649066E-4 0.064529106015 -0.06228530087999999 -0.059563779712 0.013528863275600002 0.23085483629999998 -0.00199572088225
silva	-0.33296481397000005 -0.24108266371200002 0.33982564915200003 -0.06105452222499999 -0.00760932855774 -0.22333816586900002 0.132872991524 -0.153549555514 0.18899150839999998 -0.47047900914000007 0.18494407308 -0.0084227870715 0.59143784525 -0.230816863747 0.576820488768 -0.175358405696 0.028367981009000003 0.320215173849 -0.14224321148900002 0.08658128144300001 -0.22704605388 0.089615417792 0.124738914808 0.01447645953 -0.156703049748
republic	-0.5017900580300001 0.6241977580960001 -0.0211583913728 0.09214744995 0.13928945214600003 -0.058015335027699996 0.10805385591 -0.043428397971399996 0.0226419266016 -0.576216161825 -0.057022716996 -0.025416744209499995 -0.50718687817 0.180431501301 0.07063452826 0.077528595768 -0.108605200596 -0.0224173585122 0.034333189332399996 0.03584295782480001 -0.030523190243999996 0.04316319306319999 0.0324835041608 0.043975689510000006 -0.014992558214200001
rural	-0.24638441766000002 -0.08294171072880001 0.37059771936 0.383729254775 0.640510880373 0.353120284137 -0.163787584428 0.030804281668799997 -0.124819311892 0.21265324042 0.019005676080000002 -0.081097305229 0.06412201669999999 0.0070957524985 -0.036473720578399996 0.063546962568 -0.0396040575824 0.012979221291600002 -0.0145987913055 -0.00492990961009 -0.008119533876 -0.0117565970096 0.015645891758 -0.0033093194699999997 -0.055728678765999996
uprising	-0.05124128453200001 -0.015474874923200002 0.0353565955072 0.020172173685 0.0148907810727 -0.0171831765307 0.029298154503799998 -0.0216858517966 0.0207854166264 0.009741400444500002 0.00825948522 0.055798446573399996 0.008698954425 -0.00163023148272 -0.054990456342800004 0.0382072602376 0.061723776917999996 0.013768118901900002 0.0265235318846 -0.023006467906600003 0.002927089434 0.05188090773679999 -0.102615816092 0.03082362324 0.0072253538439999996
official	-0.13621272087000003 -0.0717300119624 0.19985846073600003 0.0670619096225 -0.116416228617 -0.211257408207 0.557644052394 -0.429741945984 -0.406916332464 0.34337315912500005 0.10565981532 0.0020105074980400002 -0.16023784895999998 0.140399135004 0.0095336762768 -0.06006122709600001 -0.0349814199282 0.0176913278847 -0.0204632314322 0.049032137744000004 -0.053877649776 -0.004431768385079999 -0.011748419296000002 0.08460072749999999 -0.02872491351
got	-0.071509396285 -0.0539830275688 0.05096242511360001 -0.038030176954999995 0.006066793255770001 -0.025447670837000003 0.0455391215266 -0.0170431801424 -0.014737618178799998 -0.08248016108 -0.055639172304000006 0.18704528932699999 0.19575646013 -0.14153699631900002 0.25736424537200003 0.104353985856 -0.165664073174 0.07944952967100001 0.10756075564499999 -0.274252402986 -0.7268883936 0.239892574864 0.21684877258399998 -0.1169364279 0.063201951416
acclamation	-0.18525803619 -0.064859296568 0.09905870304 -0.049056809114999995 -0.0612891067347 -0.174926408236 0.015038047926200001 -0.04783723232999999 0.23225463323599999 0.191844703755 -0.7716241716000001 -0.39953100100100003 0.022473413578 0.006799970229300001 -0.00219520758816 0.084636658768 -7.7162938068E-4 0.11922454455 0.180057080204 0.05092805218950001 -0.015463396800000001 -0.0020915234122 -0.056843761968000006 -0.02188420269 -0.0055845496475
autonomy	-0.29913320663000004 -0.0318984427256 0.07050725440000001 0.19936419467499997 -0.534074377824 0.492946297107 -0.13036591289799998 -0.167105058876 0.0260265799468 -0.030689211301000004 -0.049817417112 0.046290127395499994 0.13000486128 -0.053431192080900004 0.116899950244 -0.0064578144656000005 0.0283270982256 -0.068378237964 -0.018618380626300002 0.150560783444 0.16709331179999998 0.00119021662172 -0.044111740753200006 0.03124333851 0.059423995289999997
institution	-0.25412531313000003 -0.08977495375200001 0.0173214361408 0.177088331175 -0.227780398053 -0.465656191138 -0.531068438784 0.275143508454 -0.480279846408 0.0386696690985 0.033507819048 0.0013564668269300001 0.013686229368 0.101890701124 -0.0269303728368 -0.032449465403200005 -0.05748990051299999 0.014417944604100001 0.0061686761259 0.085603841969 -0.037060390176 0.06678270581599999 -0.013933171018400001 0.02211519426 2.84716894456E-4
amounts	-0.17135816582000002 -0.087282000168 0.09441841024000001 0.06016611869249999 -0.07469891094509999 -0.15859369914500002 -0.18053576892 -0.0576516991554 0.462100028268 0.33425206501500004 0.17472719808 0.180351006293 -0.48472376329999994 -0.41597742768400003 0.0368329378852 -0.197731949976 -0.16955514542199998 0.014549998349700001 -0.06624077987 0.0095411147129 -0.027710744172 -0.0056990107692 0.054931882808 -0.002629752981 -0.06954173520399999
incorporated	-0.092335051263 -0.0818091256576 0.12830556569600002 0.058590065472499994 0.0114585772392 -0.0342921310096 0.092068600754 -0.00622437276738 0.09642356583600001 -0.236517683305 0.08422432116 -0.134486138247 0.25155536245 0.079431970692 0.0315855712272 -0.80209434704 -0.155437034438 0.068984045751 0.26253964899300003 -0.09972899423300001 0.10192140144 0.094476681196 -0.0108731745612 -0.02737720614 -0.0371648144429
aspirations	-0.19536430157 -0.0034537902872000003 0.0832574352192 -0.00116300896075 -0.15947407008 0.102617773156 0.46112623921 0.79879281224 0.0362836326396 0.15788271547000002 0.12224678928 -0.079252304755 -0.025127968362 -0.044015497626500005 0.0592644676792 0.05946854654400001 0.039324163322 0.0351665525097 0.052201229443 0.0241865258664 -0.0023462986044 -0.0033492561177199997 -0.0071264123556 0.023002975499999998 -0.0329133640047
others	-0.100048445119 -0.0321284814488 0.0444472020608 0.0262132060875 -0.00630002880702 -0.024625210263000002 -0.009782102992999999 -0.00580996351702 0.039678742626 -0.034937440477500005 -0.054021865512 0.069762738662 0.10572063341 -0.093836863231 0.159206638704 -0.037789100952 0.0115825711368 -0.101411886672 -0.04439202006 0.174942468101 0.21821767224 -0.027437609196799998 -0.05392593222 0.02086956585 0.137809698271
monarchy	-0.37747351851000005 -0.00833084542136 0.10240559296000001 0.1768642969 -0.659968039575 0.597526865479 0.256672055432 0.49419632217599996 0.0232360603224 0.127789232705 0.09505715112 -0.076184880969 0.022460979772 -0.012482924516199999 0.0347578116816 0.073477732648 0.0511277552046 0.043875249992700004 0.060771028824 0.026655410724100003 -0.014187068471999999 0.020988308494399997 -0.0056472326044 0.03299675325 -0.080892437575
wrote	-0.55130798512 -0.3619943822 -0.34785818496000004 -0.5393708884499999 0.175719073842 0.12218708835200001 -0.019418582211599998 -0.038352486176799996 -0.150454223956 -0.050535417254 -0.011212995792 0.082735832344 0.030542890875 -0.074456217256 -0.269764615456 -0.074942140184 -0.00161003781842 0.11428095088500001 0.106171194684 -0.07775635232 0.0554811888 -0.34946251215599994 0.38420956896 0.06885971519999999 -0.055511367219999996
its	-0.44697518142 0.55574041996 -0.07326883752320001 0.0696388618775 0.0667532350719 -0.110390257042 0.0670263155614 -0.073303597816 0.05856076983879999 -0.107723358515 -0.06248869608 0.11526327909899999 0.11498381888 -0.080088784947 0.079906597384 -0.07691950072 -0.0339535264206 -0.098016218928 -0.0233399194644 0.132079937093 0.15806157888 -0.0458664706752 -0.117633184088 0.05094624876 0.10058361829599999
newspapers	-0.25412531313000003 -0.08977495375200001 0.0173214361408 0.177088331175 -0.227780398053 -0.465656191138 -0.531068438784 0.275143508454 -0.480279846408 0.0386696690985 0.033507819048 0.0013564668269300001 0.013686229368 0.101890701124 -0.0269303728368 -0.032449465403200005 -0.05748990051299999 0.014417944604100001 0.0061686761259 0.085603841969 -0.037060390176 0.06678270581599999 -0.013933171018400001 0.02211519426 2.84716894456E-4
list	-0.20428730423000002 -0.128309909552 0.16500965184000002 0.0661278222325 0.057485458063799996 -0.025464567541100002 0.0368816140862 0.011935859518199999 0.028337216936799997 -0.5503495275500001 -0.08184615960000001 0.135353705205 -0.57137420375 0.221017071717 0.076875608076 0.137824315664 0.157824266078 0.229765657002 0.098634184667 -0.42518562268300003 0.08619919391999999 0.12264640393199999 -0.25903983015599996 0.3395908815 0.063567198052
lack	-0.07108161907900001 -0.00156593743064 0.053718213120000004 0.0394191097325 0.012707853771599999 0.0125807920879 0.01824285879 0.011350762009 0.055443357364 0.0206915090445 0.012721627728 0.0441890241863 0.0038159727396 -0.030830614438900002 -0.0403362170576 -0.0247062786544 0.147572432424 0.067272175554 -0.058027752085999994 -0.0517161470471 0.07485610728 0.08505446002799999 0.0331404716836 -0.029685458159999997 0.70768576209
treasury	-0.25412531313000003 -0.08977495375200001 0.0173214361408 0.177088331175 -0.227780398053 -0.465656191138 -0.531068438784 0.275143508454 -0.480279846408 0.0386696690985 0.033507819048 0.0013564668269300001 0.013686229368 0.101890701124 -0.0269303728368 -0.032449465403200005 -0.05748990051299999 0.014417944604100001 0.0061686761259 0.085603841969 -0.037060390176 0.06678270581599999 -0.013933171018400001 0.02211519426 2.84716894456E-4
exchange	-0.26390687458 -0.00668232998752 0.0413388357888 0.21635332764999998 -0.643507317531 0.6243926249980001 -0.148833589268 -0.197506788848 -0.008012313596 -0.0024020302095 -0.006590914236 -0.0134416682377 0.052456155213 0.028827546815600003 -0.0169747341328 0.0299319507024 0.022882941509200002 0.018216342585 0.021739095950200002 0.0082450475226 -0.014915055180000001 0.028885714604 2.55425492932E-4 0.01714417041 -0.065508718578
santos	-0.105727412857 -0.08730108332000001 0.113674995456 -0.0574745182925 -0.012342628548900001 -0.131744913484 -0.07287498116600001 -0.07146956709859999 0.4009490291 0.087504289375 0.32966864124 0.063404369472 0.14167317185 0.498626246408 -0.05585420173 0.26919187208 -0.06896158647 -0.164635986096 0.46455358464 0.19290771787200003 -0.07953971136 -0.046243222540399996 -0.0281321818012 0.0762480141 0.076188101713
incendiary	-0.08961019597000001 -0.052107500693600005 0.094272272512 -0.01866612121 -0.0345622414293 -0.12239926157700001 0.0440271870402 -0.0546799628282 0.0086590814168 -0.0376175528245 0.10051181808 -0.0217600820791 0.019305995695 -0.033879281018 -0.0901177538 0.22108977778400002 0.065163351008 -0.08675010303 0.09597267975500001 -0.373420823065 0.32246619528 0.20225163372399999 -0.010891980784 -0.655120791 -0.303674521179
united	-0.46074216584000005 0.8402485308800001 -0.186595202112 0.052477278319999994 0.10691675127900001 -0.103802085521 0.048415916289 -0.082987026428 0.0461957565304 -0.0637126473945 0.036403199688 0.0093414356648 0.020026905255 -0.0055434198031500004 0.00516372042756 -0.00440397410288 0.00107253012626 0.011326921257900002 0.025626506155 -0.006693650323800001 -0.015380751359999998 -0.0106074274272 -0.005232037048399999 0.01265467794 -0.032231179191400006
divided	-0.17135816582000002 -0.087282000168 0.09441841024000001 0.06016611869249999 -0.07469891094509999 -0.15859369914500002 -0.18053576892 -0.0576516991554 0.462100028268 0.33425206501500004 0.17472719808 0.180351006293 -0.48472376329999994 -0.41597742768400003 0.0368329378852 -0.197731949976 -0.16955514542199998 0.014549998349700001 -0.06624077987 0.0095411147129 -0.027710744172 -0.0056990107692 0.054931882808 -0.002629752981 -0.06954173520399999
pernambucano	-0.22357772205000004 -0.0777171774192 0.11642473638400001 -0.06324989866499998 -0.030309993207 -0.0297359617529 0.056579477749599996 -0.0683478464062 -0.0406928964648 -0.0539940929795 -0.11506980239999999 0.297829927645 0.22378590108 -0.165717628535 0.440425969908 0.12422900935200001 -0.193712315066 -0.136561090284 -0.0416346852889 0.211369366478 0.52836643464 0.10697150322799999 0.09666242234800002 -0.1223069949 0.453576127634
precisely	-0.071509396285 -0.0539830275688 0.05096242511360001 -0.038030176954999995 0.006066793255770001 -0.025447670837000003 0.0455391215266 -0.0170431801424 -0.014737618178799998 -0.08248016108 -0.055639172304000006 0.18704528932699999 0.19575646013 -0.14153699631900002 0.25736424537200003 0.104353985856 -0.165664073174 0.07944952967100001 0.10756075564499999 -0.274252402986 -0.7268883936 0.239892574864 0.21684877258399998 -0.1169364279 0.063201951416
gates	-0.13621272087000003 -0.0717300119624 0.19985846073600003 0.0670619096225 -0.116416228617 -0.211257408207 0.557644052394 -0.429741945984 -0.406916332464 0.34337315912500005 0.10565981532 0.0020105074980400002 -0.16023784895999998 0.140399135004 0.0095336762768 -0.06006122709600001 -0.0349814199282 0.0176913278847 -0.0204632314322 0.049032137744000004 -0.053877649776 -0.004431768385079999 -0.011748419296000002 0.08460072749999999 -0.02872491351
producing	-0.14532638598 -0.0585776433792 -0.0182966955072 0.044045138465 0.0110298174714 0.013486733181700001 0.0205982218104 0.0239145820034 0.0626393511584 -0.07998041913500001 -0.016404737604000002 0.074359454422 -0.0033767140043 -0.0225963838984 0.15355241382 -0.06742547348 -0.061845445003999994 -0.0424506191505 -0.05930697709 0.0163655839562 0.015770000508 0.0084830021076 -0.062138156492 -0.2956421748 0.056554564664999994
grenadiers	-0.08961019597000001 -0.052107500693600005 0.094272272512 -0.01866612121 -0.0345622414293 -0.12239926157700001 0.0440271870402 -0.0546799628282 0.0086590814168 -0.0376175528245 0.10051181808 -0.0217600820791 0.019305995695 -0.033879281018 -0.0901177538 0.22108977778400002 0.065163351008 -0.08675010303 0.09597267975500001 -0.373420823065 0.32246619528 0.20225163372399999 -0.010891980784 -0.655120791 -0.303674521179
suassuna	-0.14978442072 -0.08078756983440001 0.16085144556800002 0.059637924004999995 0.0625570421112 0.0332150625656 0.083053415796 0.030148082061400003 -0.018647349305599997 -0.637368921605 -0.10578274476 -0.0402659040819 -0.6371195229000001 0.22507451865 0.080777029216 0.09873319344 -0.133212715146 -0.038602027271400004 0.016146687165200003 0.050303686671400005 -0.021756792684 0.063123718676 0.04475464268 0.040850466630000005 0.0139897113403
bonifacio	-0.40938579052 -0.12542314910400001 0.08075671633920001 0.217145021725 -0.31506993484199997 -0.570511427394 -0.64336627043 0.321649467456 -0.5466451304159999 0.042670122095000006 0.012702665208 0.0550586152745 0.040021281664 0.100730637637 -0.023423869842800003 -3.29518662272E-5 -0.0249530865118 0.0058349003025 0.0206791986658 0.09570459837400001 0.10087854648 0.0863115289 0.08478741268800001 -0.1230988026 0.270179466198
colonel	-0.32052322246000003 -0.231918413672 0.38607740019200004 0.052415330052499993 -0.0450895297788 -0.267768782262 0.144266891522 -0.168143135102 0.28328725302 -0.9067276058000001 0.43873582524 -0.61467813533 -0.06942585132000001 -0.025547484266100002 -0.07139391734799999 0.44192747580800007 -0.228550328108 0.8475862923900002 -0.65671737574 0.26992852230500003 -0.032704431767999996 -0.074410995924 0.07869961436 0.0612317424 -0.0133068123576
live	-0.28336022213000006 -0.033114906924 0.13742573574400002 -0.8458131019999999 0.088977492981 0.215608888167 -0.17711999214000002 -0.0159798183678 -0.195471117004 0.073675447845 0.0918636012 -0.085446505525 -0.09237250309 -0.021418620346499998 -0.09141325248 -0.083115386728 0.0102754176574 0.048852530837700005 0.0261472694688 0.008361934364300001 -0.021878966568 -0.016386941182 -0.0172086836632 9.74370585E-4 0.0101849738618
multiple	-0.103427099286 -0.06047450868800001 0.06602653728 -0.119120060475 0.0243962418375 -0.0024868707971400002 0.044471310543400006 -0.04468554358 -0.0608255098936 -0.072912137355 -0.09468967056 0.31138329355 0.23351880811 -0.171572217946 0.53699315792 0.19684908458400002 -0.344169030742 -0.00305712281406 0.033104707667 0.137699391308 0.35956584203999997 0.058072788552 -0.12330682875599999 0.18183970409999997 -0.103429583355
northeast	-0.73025798304 1.33176113312 -0.29574664697600006 0.0831749171 0.169458519906 -0.16452297636 0.076737492234 -0.13153167781 0.073218243828 -0.10098211465000001 0.057697651931999994 0.014805844666199998 0.031741936793 -0.0087861395328 0.008184327836 -0.006980147177600001 0.0016999165130400001 0.0179527404015 0.0406170181119 -0.0106091675433 -0.024377903688 -0.0168123214868 -0.0082925544536 0.0200572221 -0.051085047303
with	-1.10793718589 -0.04375463158 -0.10525611852800001 0.26466500355 0.120736105308 -0.39321793750600004 -0.0330407870364 0.261003772046 -0.11846602512799999 -0.031985173971500004 -0.2962305258 -0.16038623217 0.20923144039 -0.208970543226 -0.17357294296 0.20782510632000004 0.132911716374 0.06851298668400001 0.22375852039100003 -0.275571013814 0.1601010726 -0.41576789006 -0.016642465282 -0.03749695566 -0.087903540599
there	-0.6343732591700001 -0.18349578288800003 0.262790069696 0.3092821071 -0.8191941123600001 0.085202594848 -0.37615897311200003 -0.138755708618 -0.141914867572 -0.09088656744500001 -0.3502802466 -0.42129531357399996 0.21473308555999998 -0.226808138247 -0.134070382288 0.133094595888 0.093795138412 -0.07417860890700001 0.12446175990100002 0.137710361448 -0.07250941176 0.015003691256 -0.096785887024 0.17712889019999997 -0.0458564600893
coffee	-0.40844287804 -0.38274731 -0.6343721190400001 0.06686593942749999 0.160031473524 0.0461617956012 0.098762362894 -0.0457302473572 0.030708558588800002 -0.0438873558825 0.037923339912000004 -0.028799245078499996 -0.0038526399079 -0.0232338945983 0.066952207588 -0.02639069906 -0.0261414550352 -0.0426958056756 -0.0172962534177 0.024604543051100002 0.0043325295132 0.017649542 -0.0296206865216 -0.1495528743 0.0224551183232
pernambucan	-0.18452774123000001 -0.094186631528 0.06785535856000001 -0.0523873457 0.0170436337812 -0.0138936428503 0.08054343629800001 -0.030814655227199998 -0.0183629146292 -0.12546866224500003 -0.12523175148 0.315644726883 0.19080366074 -0.14213337132800002 0.416875356116 0.064111503984 -0.318055945706 -0.054777712782600005 -0.0129677234173 0.11756479635200001 0.27768922212 0.0269596490624 -0.19181149075599999 0.02351944416 -0.0238148458487
personnel	-0.050461417335 -0.0209460146016 0.032954813548800005 -0.00539339794725 -0.00544946106861 -0.0277714691511 -0.015574419158999998 -7.8119378226E-4 0.00323875162 0.009772505680000002 -0.022796153052 0.0190428421613 0.0047703866644 0.00577215768018 -0.0070758108088 0.0155203749536 0.0402415176254 0.0402349571766 0.0191608750829 -0.048887002791800006 0.010392881567999999 8.8898899072E-4 -0.019423025232000003 0.026691614009999996 0.0335847342528
family	-0.21038388051 -0.13327326390400002 0.12053590982400002 -0.04295972828 0.0143750254284 -0.064337094132 0.16652673281400002 0.029416602116999997 0.009159386081999999 -0.21734100589000002 -0.28373357124000004 0.71120285212 0.29726592672 -0.177695700329 -0.420980952624 0.07400885884000001 -0.130982902404 0.15371347943400002 0.082484249032 -0.074979261379 -0.49102700735999993 0.013887766034799999 0.394995276352 -0.03473821029 -0.08768622905300001
age	-0.075348760263 -0.043442795528000004 0.0377759307904 0.020382096192499997 -0.0345193339608 -0.0101518330081 0.025801806004 0.0063039898280999995 -0.02942947978 -0.073026700535 -0.02123377218 0.070204730562 0.027037059958999996 -0.015136084070200001 0.030265893885200002 -0.0219589023864 -0.15496593099599998 -0.12643023235200002 -0.073408136427 -0.135687467632 -0.20201318507999996 -0.6878316286 -0.5039145632440001 -0.2941614996 0.148133527069
career	-0.23407686763000002 -0.0274636049424 0.11404201952000001 -0.7026384575 0.07393633894530001 0.17924162586300002 -0.147468728992 -0.013306970191999999 -0.16289131089199999 0.061490055096 0.07671450936 -0.071439150797 -0.07724344985 -0.017922148292700002 -0.07658367312 -0.069681880448 0.0086205010374 0.041030985240000005 0.0219633523826 0.0070304884725 -0.01840274712 -0.013804312677999999 -0.0145048072588 8.21358816E-4 0.0085941105112
called	-0.56467862275 0.33967750335200003 0.21871862636800002 0.24614988622499998 0.44415921888000004 0.0212251921978 -0.11560700138 -0.094398661054 0.232374638984 0.125469994375 0.23431135919999999 0.148019930225 0.10348129239 0.318085584428 -0.07588577544399999 0.255401350512 0.163895561232 0.11236246598400002 0.355372514662 -0.24006505869000003 0.015554143667999999 0.0406846178292 -0.28165261999200003 0.28662814859999997 0.0344871383018
voters	-0.14978442072 -0.08078756983440001 0.16085144556800002 0.059637924004999995 0.0625570421112 0.0332150625656 0.083053415796 0.030148082061400003 -0.018647349305599997 -0.637368921605 -0.10578274476 -0.0402659040819 -0.6371195229000001 0.22507451865 0.080777029216 0.09873319344 -0.133212715146 -0.038602027271400004 0.016146687165200003 0.050303686671400005 -0.021756792684 0.063123718676 0.04475464268 0.040850466630000005 0.0139897113403
cabo	-0.21961078756000002 -0.061978608032000004 0.10438601113600002 -0.1151998593 -0.0653205192705 -0.096769507536 0.0018232923303400002 0.07463415075799999 0.30632274233199996 0.08384359613500002 -0.12815459508000002 -0.080601642884 0.23453925936 0.457977153111 -0.110539469628 -0.06527869189600001 -0.29515755062000004 -0.74988785586 -0.9385781389900001 -0.530519261442 0.013647643860000001 0.170740088752 0.104699087144 0.3556391547 -0.068415898157
considered	-0.6010408407900001 0.432386058016 -0.0505004955136 0.15772012959999998 -0.12884049945 -0.408235944141 -0.286285607244 0.14238429290000001 -0.287636935044 -0.08277722607 -0.061688673900000005 0.250799463817 0.09879035649000001 0.0267421461378 -0.185015121624 0.0183184016664 -0.047011683491399996 0.057173881896 0.092877112068 -0.030052259724400003 0.18484848839999998 -0.280149863036 0.47861316078 -0.03920113587 0.132020335042
focus	-0.050461417335 -0.0209460146016 0.032954813548800005 -0.00539339794725 -0.00544946106861 -0.0277714691511 -0.015574419158999998 -7.8119378226E-4 0.00323875162 0.009772505680000002 -0.022796153052 0.0190428421613 0.0047703866644 0.00577215768018 -0.0070758108088 0.0155203749536 0.0402415176254 0.0402349571766 0.0191608750829 -0.048887002791800006 0.010392881567999999 8.8898899072E-4 -0.019423025232000003 0.026691614009999996 0.0335847342528
years	-0.031337280282 -0.018315922547999998 0.020693690195200003 0.001158249229 -5.13951956037E-7 -0.0115895959346 0.00635732625762 -0.00293681921778 0.0097446070952 -0.024420740373000002 0.006557958684 -0.00115135732865 0.023451853635000002 -0.052739347732300004 0.0101652468084 0.009454456580000001 0.013860359162 0.00452038162266 -0.0234412941254 0.0093806764154 -0.0189527199 -0.027149842634399998 0.0085429741572 -0.0020712867989999997 0.017049264062
moral	-0.075348760263 -0.043442795528000004 0.0377759307904 0.020382096192499997 -0.0345193339608 -0.0101518330081 0.025801806004 0.0063039898280999995 -0.02942947978 -0.073026700535 -0.02123377218 0.070204730562 0.027037059958999996 -0.015136084070200001 0.030265893885200002 -0.0219589023864 -0.15496593099599998 -0.12643023235200002 -0.073408136427 -0.135687467632 -0.20201318507999996 -0.6878316286 -0.5039145632440001 -0.2941614996 0.148133527069
newly	-0.100048445119 -0.0321284814488 0.0444472020608 0.0262132060875 -0.00630002880702 -0.024625210263000002 -0.009782102992999999 -0.00580996351702 0.039678742626 -0.034937440477500005 -0.054021865512 0.069762738662 0.10572063341 -0.093836863231 0.159206638704 -0.037789100952 0.0115825711368 -0.101411886672 -0.04439202006 0.174942468101 0.21821767224 -0.027437609196799998 -0.05392593222 0.02086956585 0.137809698271
tried	-0.18621943715000003 -0.092585381592 0.1348624464 0.0298372196 -0.0103845521286 -0.124893647164 0.017290284947 -0.0423127361732 0.08413595974400001 -0.035287324422 0.08571909084000001 0.16319351215199998 -0.025082314943 -0.014980792211600001 -0.08447248397599999 0.19043863766400002 0.386110499478 0.21436612411800002 0.101776239077 -0.71251607807 0.376050345 0.267998548508 -0.24235699140400002 -0.224269263 0.335434144518
thesis	-0.11334166223900001 -0.070940316436 0.041043956729600005 -0.00559928624325 -0.0158089221693 -0.0519827487406 0.0585710714212 0.025414137501 -0.024765045838 -0.09069673892 -0.15275225292 0.324930345285 0.09158879653 -0.024995698619200004 -0.2834127239 0.029441509011200004 -0.033433813406799996 0.11818810231200001 0.11319068985700001 -0.16939157726100001 0.1535655582 -0.5023691875599999 0.60538846132 0.13405673489999997 -0.097622876012
property	-0.20435779156000003 -0.14064196282400002 0.17653017606400004 -0.074340312825 0.015009741045 -0.163516117965 -0.079894366188 -0.07847164697999999 0.42702676939199996 0.0428730721005 0.22912674468 0.207965397371 0.14949516617 0.57073150034 0.273004556164 0.089056261816 0.504802618692 -0.145190622894 0.197107626087 0.332017320677 -0.15862432908 -0.133181336524 0.068969347616 -0.0574993803 -0.098648219222
rio	-1.12181510119 0.19395421760000003 -0.32151979904 0.2058021903 -0.23808921259500002 -0.12074893965599999 -0.0308370670998 0.17569278038199998 0.268035294416 0.190191530425 -0.1460964084 -0.0325799175077 -0.053687415992000005 0.014734409775100002 0.129903294368 -0.08016488107200001 0.1918434702 -0.11076793946400001 -0.213417744888 0.021801672281100002 0.009589209036 0.078062607136 0.070682745588 -0.0959116719 0.204662585684
judge	-0.36666584642 -0.16011024752800002 0.234734985408 0.16452885809999998 -0.465301185102 0.177518007737 -0.0634260433222 -0.26120548012600003 0.164731399028 -0.30855727551000006 0.29572115328 -0.243141007024 0.23780972712000004 -0.204203860243 -0.096065704652 0.280466285904 0.24644937577399997 0.512739653361 -0.203745146018 -0.24058778586100002 0.044950093607999994 0.0028436836699999996 -0.20808903196400003 0.3379797114 -0.012200819017500001
natividade	-0.28336022213000006 -0.033114906924 0.13742573574400002 -0.8458131019999999 0.088977492981 0.215608888167 -0.17711999214000002 -0.0159798183678 -0.195471117004 0.073675447845 0.0918636012 -0.085446505525 -0.09237250309 -0.021418620346499998 -0.09141325248 -0.083115386728 0.0102754176574 0.048852530837700005 0.0261472694688 0.008361934364300001 -0.021878966568 -0.016386941182 -0.0172086836632 9.74370585E-4 0.0101849738618
order	-0.46434857497000004 -0.20931962462400003 0.20661775059200002 0.11425429114999999 -0.16589050803 -0.33636708629100004 -0.208083899868 0.232275498752 -0.225855730252 -0.45057498874499996 -0.20337564252 0.20750888287999997 -0.2042598019 0.339578520378 -0.150545304672 0.0118206061784 -0.39291353302599996 -0.34711326417300004 -0.34322491785299997 -0.34936166052400003 -0.1298729592 -0.81156808932 -0.057751253384 -0.02685158724 0.064852192851
went	-0.14291363934 -0.083817540664 0.101109670464 -0.0329752142725 0.0306049131648 -0.06720536751839999 -0.024332441814200002 -0.0240070075272 0.11861340060799999 -0.035340476409 -0.05089017264 0.18962715344 0.040216705928 0.195781836331 0.388018570772 -0.160837439056 0.68315188724 -0.012017340012000001 -0.22473250125 0.21105671748800003 -0.11345859611999999 -0.115798381636 0.11204705868400001 -0.1462073178 -0.19621294143999998
understand	-0.46074216584000005 0.8402485308800001 -0.186595202112 0.052477278319999994 0.10691675127900001 -0.103802085521 0.048415916289 -0.082987026428 0.0461957565304 -0.0637126473945 0.036403199688 0.0093414356648 0.020026905255 -0.0055434198031500004 0.00516372042756 -0.00440397410288 0.00107253012626 0.011326921257900002 0.025626506155 -0.006693650323800001 -0.015380751359999998 -0.0106074274272 -0.005232037048399999 0.01265467794 -0.032231179191400006
birth	-0.108280325286 -0.0607678687792 0.07593803472640001 -0.016226938075 0.0297711698778 -0.0122115335225 0.12791395084 0.0326156922658 0.0522645384392 -0.12964822012000002 -0.18693906096 0.478951262678 0.12684052045000002 -0.081053345975 -0.560511533496 -0.0306776378064 0.016597833434399998 0.0165341171064 -0.10582506462600001 0.339174240013 -0.11083079736 0.281826832952 -0.27188536594 -0.0655214373 -0.08775407514599999
swiss	-0.25412531313000003 -0.08977495375200001 0.0173214361408 0.177088331175 -0.227780398053 -0.465656191138 -0.531068438784 0.275143508454 -0.480279846408 0.0386696690985 0.033507819048 0.0013564668269300001 0.013686229368 0.101890701124 -0.0269303728368 -0.032449465403200005 -0.05748990051299999 0.014417944604100001 0.0061686761259 0.085603841969 -0.037060390176 0.06678270581599999 -0.013933171018400001 0.02211519426 2.84716894456E-4
suspended	-0.092335051263 -0.0818091256576 0.12830556569600002 0.058590065472499994 0.0114585772392 -0.0342921310096 0.092068600754 -0.00622437276738 0.09642356583600001 -0.236517683305 0.08422432116 -0.134486138247 0.25155536245 0.079431970692 0.0315855712272 -0.80209434704 -0.155437034438 0.068984045751 0.26253964899300003 -0.09972899423300001 0.10192140144 0.094476681196 -0.0108731745612 -0.02737720614 -0.0371648144429
system	-0.19536430157 -0.0034537902872000003 0.0832574352192 -0.00116300896075 -0.15947407008 0.102617773156 0.46112623921 0.79879281224 0.0362836326396 0.15788271547000002 0.12224678928 -0.079252304755 -0.025127968362 -0.044015497626500005 0.0592644676792 0.05946854654400001 0.039324163322 0.0351665525097 0.052201229443 0.0241865258664 -0.0023462986044 -0.0033492561177199997 -0.0071264123556 0.023002975499999998 -0.0329133640047
mariano	-0.105727412857 -0.08730108332000001 0.113674995456 -0.0574745182925 -0.012342628548900001 -0.131744913484 -0.07287498116600001 -0.07146956709859999 0.4009490291 0.087504289375 0.32966864124 0.063404369472 0.14167317185 0.498626246408 -0.05585420173 0.26919187208 -0.06896158647 -0.164635986096 0.46455358464 0.19290771787200003 -0.07953971136 -0.046243222540399996 -0.0281321818012 0.0762480141 0.076188101713
million	-0.17135816582000002 -0.087282000168 0.09441841024000001 0.06016611869249999 -0.07469891094509999 -0.15859369914500002 -0.18053576892 -0.0576516991554 0.462100028268 0.33425206501500004 0.17472719808 0.180351006293 -0.48472376329999994 -0.41597742768400003 0.0368329378852 -0.197731949976 -0.16955514542199998 0.014549998349700001 -0.06624077987 0.0095411147129 -0.027710744172 -0.0056990107692 0.054931882808 -0.002629752981 -0.06954173520399999
even	-0.53094523546 0.6372896677840001 -0.07194570317440001 0.002811255432 0.0375009700104 -0.229086131419 0.0521525295122 -0.107524093974 0.22885727752799997 0.10531153715 -0.60427535544 -0.320695431466 0.034930894047 0.00103274636512 0.002439806097 0.065942892752 2.4730912514E-4 0.107299844283 0.169050928473 0.036356140974 -0.025350673140000002 -0.010437201545999999 -0.051019875896799995 -0.00758570493 -0.0310806012759
driven	-0.13944127169 -0.10732538168000001 0.21676928345600002 0.027068602435 -0.051043354362000005 -0.181428167389 0.0691686095334 -0.132582720984 0.028076221979599997 -0.327001281425 0.23321284080000002 -0.365372604135 0.20473768707 -0.52083211877 -0.114766854952 0.18755496245600004 0.238547869696 -0.23987517972 8.6356649066E-4 0.064529106015 -0.06228530087999999 -0.059563779712 0.013528863275600002 0.23085483629999998 -0.00199572088225
orders	-0.22655783392 -0.147164931144 0.342425052992 0.077365493085 -0.13763456226 -0.322747108324 0.515175286314 -0.46217228293199997 -0.31136719447600003 0.013455911736500003 0.27851822436 -0.298646349826 0.036574354334 -0.31267688863800003 -0.08649095450000001 0.10478662507200001 0.16731091703 -0.18261202679700003 -0.0161088816977 0.09333559664100001 -0.09547396967999999 -0.0525975318272 0.0014633325130400002 0.2592720504 -0.025249204076499998
gallows	-0.13621272087000003 -0.0717300119624 0.19985846073600003 0.0670619096225 -0.116416228617 -0.211257408207 0.557644052394 -0.429741945984 -0.406916332464 0.34337315912500005 0.10565981532 0.0020105074980400002 -0.16023784895999998 0.140399135004 0.0095336762768 -0.06006122709600001 -0.0349814199282 0.0176913278847 -0.0204632314322 0.049032137744000004 -0.053877649776 -0.004431768385079999 -0.011748419296000002 0.08460072749999999 -0.02872491351
southeast	-0.73025798304 1.33176113312 -0.29574664697600006 0.0831749171 0.169458519906 -0.16452297636 0.076737492234 -0.13153167781 0.073218243828 -0.10098211465000001 0.057697651931999994 0.014805844666199998 0.031741936793 -0.0087861395328 0.008184327836 -0.006980147177600001 0.0016999165130400001 0.0179527404015 0.0406170181119 -0.0106091675433 -0.024377903688 -0.0168123214868 -0.0082925544536 0.0200572221 -0.051085047303
larger	-0.40526170395 -0.42872989957600005 -0.7602958077440001 0.0535662762425 0.187751272761 0.0476558037208 0.107167639514 -0.0707283619432 -0.00215798406424 -0.0029354350434500002 0.056491504884 -0.081955400932 -0.0025570247633000002 -0.0140119140946 -0.0154201357168 0.0104312949616 0.0072139372356 -0.0251646041865 0.0163741920674 0.019610770771 -0.004678384367999999 0.016121987311199997 0.00316539465656 0.004568886399 -0.0083607811658
other	-0.86940228352 0.00564507393472 -0.160318126848 -0.27321179154999997 -0.0316086330105 -0.22408655869900002 -0.015644837826799998 0.33800150927 -0.0215123286368 0.006297804430600001 0.21456810648 -0.112637847213 0.11813246046 0.23867273227300004 0.092070553884 0.030895422994400002 0.13051352884 0.075896093634 -0.438887872815 -0.09577535577700001 0.0680356836 0.082114099016 0.045161138404399996 -0.3248465175 -0.238970263418
dispensation	-0.075348760263 -0.043442795528000004 0.0377759307904 0.020382096192499997 -0.0345193339608 -0.0101518330081 0.025801806004 0.0063039898280999995 -0.02942947978 -0.073026700535 -0.02123377218 0.070204730562 0.027037059958999996 -0.015136084070200001 0.030265893885200002 -0.0219589023864 -0.15496593099599998 -0.12643023235200002 -0.073408136427 -0.135687467632 -0.20201318507999996 -0.6878316286 -0.5039145632440001 -0.2941614996 0.148133527069
indicated	-0.06198702021400001 -0.0337986909568 0.040061390476800005 0.018338441185 -0.00760814761824 -0.025380546944000004 0.0547549743052 -0.0133373704812 -0.00428087872848 -0.051442930816500004 -0.06944794092 0.081493835105 0.034461674863 -0.0122080492923 -0.0530352085424 -0.064980299808 -0.059963337740000004 -0.046482188562300006 -0.013754357181799999 0.0157802172858 0.017393167824 -0.0258614787536 -0.10474180488 0.03745993878 0.0345662580689
city	-0.27839259866000005 -0.13540797468000002 0.4100465072 0.36354065722499995 0.535851298125 0.26204396288200005 -0.0589457915618 0.020202144791 -0.0233384511916 -0.019613882481 0.0848441994 -0.177186975706 0.25945396911 0.071117257278 -0.00401755035808 -0.6070139244 -0.160303757878 0.067364815299 0.20378155128300002 -0.086018513261 0.07709568996 0.06798761633999999 0.00392267071676 -0.02522112885 -0.076348789828
journalistic	-0.18525803619 -0.064859296568 0.09905870304 -0.049056809114999995 -0.0612891067347 -0.174926408236 0.015038047926200001 -0.04783723232999999 0.23225463323599999 0.191844703755 -0.7716241716000001 -0.39953100100100003 0.022473413578 0.006799970229300001 -0.00219520758816 0.084636658768 -7.7162938068E-4 0.11922454455 0.180057080204 0.05092805218950001 -0.015463396800000001 -0.0020915234122 -0.056843761968000006 -0.02188420269 -0.0055845496475
enlightenment	-0.26390687458 -0.00668232998752 0.0413388357888 0.21635332764999998 -0.643507317531 0.6243926249980001 -0.148833589268 -0.197506788848 -0.008012313596 -0.0024020302095 -0.006590914236 -0.0134416682377 0.052456155213 0.028827546815600003 -0.0169747341328 0.0299319507024 0.022882941509200002 0.018216342585 0.021739095950200002 0.0082450475226 -0.014915055180000001 0.028885714604 2.55425492932E-4 0.01714417041 -0.065508718578
against	-0.6699173619700001 -0.259863087528 0.41227888697600007 0.244564903525 0.0354395220192 -0.399537613455 -0.39631640742199997 0.15212030968999998 -0.175321379948 0.09225266676 -0.31441492860000003 -0.3743039976 0.26764960558 0.0586614687498 -0.098158800676 0.096093390744 -0.12462906051 -0.447129378687 -0.41368590805800004 -0.16394709677900002 -0.008773737779999999 0.16382989792 0.09949585852000001 0.1082956899 0.136000809205
guerrilla	-0.08961019597000001 -0.052107500693600005 0.094272272512 -0.01866612121 -0.0345622414293 -0.12239926157700001 0.0440271870402 -0.0546799628282 0.0086590814168 -0.0376175528245 0.10051181808 -0.0217600820791 0.019305995695 -0.033879281018 -0.0901177538 0.22108977778400002 0.065163351008 -0.08675010303 0.09597267975500001 -0.373420823065 0.32246619528 0.20225163372399999 -0.010891980784 -0.655120791 -0.303674521179
protection	-0.17135816582000002 -0.087282000168 0.09441841024000001 0.06016611869249999 -0.07469891094509999 -0.15859369914500002 -0.18053576892 -0.0576516991554 0.462100028268 0.33425206501500004 0.17472719808 0.180351006293 -0.48472376329999994 -0.41597742768400003 0.0368329378852 -0.197731949976 -0.16955514542199998 0.014549998349700001 -0.06624077987 0.0095411147129 -0.027710744172 -0.0056990107692 0.054931882808 -0.002629752981 -0.06954173520399999
matter	-0.40526170395 -0.42872989957600005 -0.7602958077440001 0.0535662762425 0.187751272761 0.0476558037208 0.107167639514 -0.0707283619432 -0.00215798406424 -0.0029354350434500002 0.056491504884 -0.081955400932 -0.0025570247633000002 -0.0140119140946 -0.0154201357168 0.0104312949616 0.0072139372356 -0.0251646041865 0.0163741920674 0.019610770771 -0.004678384367999999 0.016121987311199997 0.00316539465656 0.004568886399 -0.0083607811658
local	-0.13855844677 -0.039104154179200004 0.0658604105984 -0.0726828578275 -0.041212662858900004 -0.0610546586104 0.00115036980032 0.047089111468999995 0.193268204472 0.05289954836500001 -0.08085618527999999 -0.050854009471500004 0.14797799065 0.28895140094800004 -0.069742604284 -0.0411862567688 -0.18622367320400002 -0.47312633694600004 -0.5921736413 -0.334720363173 0.008610730523999998 0.107724901588 0.066057769244 0.224383641 -0.0431655208022
defeat	-0.20122168314000002 -0.09471228562400001 0.21908145107200003 0.039523154119999994 -0.09410513229 -0.159528032874 0.039914475762199995 -0.10601560569 0.0329916153104 -0.27931169349 0.18100902324 -0.255967611962 0.19140839585 -0.45257277441000004 -0.079699436996 0.18362896675200002 0.209893017252 -0.242459547879 1.17809117783E-4 0.08903639877500001 0.10168107719999998 -0.039882169547999995 0.14032359517600002 9.351233339999999E-4 0.273395779103
walls	-0.16289968622 -0.08673361977280002 0.19718934752 0.0701902572675 -0.10193476117500001 -0.194491865737 0.503328850284 -0.364165208404 -0.337961450736 0.23993592888499998 0.029762459796 0.06863187081500001 -0.10337453749 0.105359790499 -0.0357537934548 -0.102771159456 -0.07803479658 -0.0236631104286 -0.0281232912449 0.05326902521480001 -0.029986429859999997 -0.024897919130799997 -0.095742949128 0.10032146369999999 0.00480096808303
era	-0.071509396285 -0.0539830275688 0.05096242511360001 -0.038030176954999995 0.006066793255770001 -0.025447670837000003 0.0455391215266 -0.0170431801424 -0.014737618178799998 -0.08248016108 -0.055639172304000006 0.18704528932699999 0.19575646013 -0.14153699631900002 0.25736424537200003 0.104353985856 -0.165664073174 0.07944952967100001 0.10756075564499999 -0.274252402986 -0.7268883936 0.239892574864 0.21684877258399998 -0.1169364279 0.063201951416
too	-0.13944127169 -0.10732538168000001 0.21676928345600002 0.027068602435 -0.051043354362000005 -0.181428167389 0.0691686095334 -0.132582720984 0.028076221979599997 -0.327001281425 0.23321284080000002 -0.365372604135 0.20473768707 -0.52083211877 -0.114766854952 0.18755496245600004 0.238547869696 -0.23987517972 8.6356649066E-4 0.064529106015 -0.06228530087999999 -0.059563779712 0.013528863275600002 0.23085483629999998 -0.00199572088225
absolutists	-0.46074216584000005 0.8402485308800001 -0.186595202112 0.052477278319999994 0.10691675127900001 -0.103802085521 0.048415916289 -0.082987026428 0.0461957565304 -0.0637126473945 0.036403199688 0.0093414356648 0.020026905255 -0.0055434198031500004 0.00516372042756 -0.00440397410288 0.00107253012626 0.011326921257900002 0.025626506155 -0.006693650323800001 -0.015380751359999998 -0.0106074274272 -0.005232037048399999 0.01265467794 -0.032231179191400006
have	-0.14978442072 -0.08078756983440001 0.16085144556800002 0.059637924004999995 0.0625570421112 0.0332150625656 0.083053415796 0.030148082061400003 -0.018647349305599997 -0.637368921605 -0.10578274476 -0.0402659040819 -0.6371195229000001 0.22507451865 0.080777029216 0.09873319344 -0.133212715146 -0.038602027271400004 0.016146687165200003 0.050303686671400005 -0.021756792684 0.063123718676 0.04475464268 0.040850466630000005 0.0139897113403
promptly	-0.40526170395 -0.42872989957600005 -0.7602958077440001 0.0535662762425 0.187751272761 0.0476558037208 0.107167639514 -0.0707283619432 -0.00215798406424 -0.0029354350434500002 0.056491504884 -0.081955400932 -0.0025570247633000002 -0.0140119140946 -0.0154201357168 0.0104312949616 0.0072139372356 -0.0251646041865 0.0163741920674 0.019610770771 -0.004678384367999999 0.016121987311199997 0.00316539465656 0.004568886399 -0.0083607811658
decisions	-0.18525803619 -0.064859296568 0.09905870304 -0.049056809114999995 -0.0612891067347 -0.174926408236 0.015038047926200001 -0.04783723232999999 0.23225463323599999 0.191844703755 -0.7716241716000001 -0.39953100100100003 0.022473413578 0.006799970229300001 -0.00219520758816 0.084636658768 -7.7162938068E-4 0.11922454455 0.180057080204 0.05092805218950001 -0.015463396800000001 -0.0020915234122 -0.056843761968000006 -0.02188420269 -0.0055845496475
punished	-0.35774284376000004 -0.0772287354696 0.11157867494400002 0.227270414225 -0.590291034489 0.38283842333900003 -0.270707924604 -0.209713729618 0.373212963764 0.272746290785 0.1381909992 0.137182288837 -0.35527905126000003 -0.318196595288 0.0163213729552 -0.13791400916000002 -0.12054943156 0.0269305423074 -0.0365759776888 0.014618369758400002 -0.035034000108 0.019057079803199997 0.0453580567484 0.011929313459999999 -0.110997738511
sacred	-0.13621272087000003 -0.0717300119624 0.19985846073600003 0.0670619096225 -0.116416228617 -0.211257408207 0.557644052394 -0.429741945984 -0.406916332464 0.34337315912500005 0.10565981532 0.0020105074980400002 -0.16023784895999998 0.140399135004 0.0095336762768 -0.06006122709600001 -0.0349814199282 0.0176913278847 -0.0204632314322 0.049032137744000004 -0.053877649776 -0.004431768385079999 -0.011748419296000002 0.08460072749999999 -0.02872491351
dominant	-0.108280325286 -0.0607678687792 0.07593803472640001 -0.016226938075 0.0297711698778 -0.0122115335225 0.12791395084 0.0326156922658 0.0522645384392 -0.12964822012000002 -0.18693906096 0.478951262678 0.12684052045000002 -0.081053345975 -0.560511533496 -0.0306776378064 0.016597833434399998 0.0165341171064 -0.10582506462600001 0.339174240013 -0.11083079736 0.281826832952 -0.27188536594 -0.0655214373 -0.08775407514599999
authoritarian	-0.3694344963 -0.07662414651760001 0.08266540944640001 0.14459219945 -0.318283664868 -0.29838036362599996 -0.05748491242260001 0.88266735422 -0.36491923318 0.16154607297 0.12801401088 -0.064022526715 -0.009403913547 0.0475672900922 0.0265752748576 0.022206937145600004 -0.0149303463676 0.0407533467315 0.0479740180955 0.090236532091 -0.032388204216 0.0521356406788 -0.017308809868800002 0.03708243939 -0.0268173670426
abreu	-0.05438074398900001 -0.0294989098448 0.041499755264 -0.039955436625 0.0120242472597 -0.0214886727663 -0.018781333155 0.0017212182697999999 -0.011305102891999999 -0.05853965357200001 -0.013019927784 -0.0290146214172 0.05078267796 -0.05522660772330001 -0.028778219617599996 -0.073164098528 0.013443573889199999 0.035636207944200006 0.0092027469191 0.0206399893058 -0.04082956596 -0.0401841084292 0.0054440107896 -0.03264062175 0.0095728796739
historian	-0.28336022213000006 -0.033114906924 0.13742573574400002 -0.8458131019999999 0.088977492981 0.215608888167 -0.17711999214000002 -0.0159798183678 -0.195471117004 0.073675447845 0.0918636012 -0.085446505525 -0.09237250309 -0.021418620346499998 -0.09141325248 -0.083115386728 0.0102754176574 0.048852530837700005 0.0261472694688 0.008361934364300001 -0.021878966568 -0.016386941182 -0.0172086836632 9.74370585E-4 0.0101849738618
intellectual	-0.100048445119 -0.0321284814488 0.0444472020608 0.0262132060875 -0.00630002880702 -0.024625210263000002 -0.009782102992999999 -0.00580996351702 0.039678742626 -0.034937440477500005 -0.054021865512 0.069762738662 0.10572063341 -0.093836863231 0.159206638704 -0.037789100952 0.0115825711368 -0.101411886672 -0.04439202006 0.174942468101 0.21821767224 -0.027437609196799998 -0.05392593222 0.02086956585 0.137809698271
inauguration	-0.18525803619 -0.064859296568 0.09905870304 -0.049056809114999995 -0.0612891067347 -0.174926408236 0.015038047926200001 -0.04783723232999999 0.23225463323599999 0.191844703755 -0.7716241716000001 -0.39953100100100003 0.022473413578 0.006799970229300001 -0.00219520758816 0.084636658768 -7.7162938068E-4 0.11922454455 0.180057080204 0.05092805218950001 -0.015463396800000001 -0.0020915234122 -0.056843761968000006 -0.02188420269 -0.0055845496475
almeida	-0.06742170891 -0.059363695758400004 0.0665898394304 -0.00867913565 -0.0355846988484 -0.103029003443 0.0193251741332 -0.060013700772199995 0.18268734679600002 -0.11763706997500001 0.22651972512 -0.203805622175 0.17026401798 0.130978630079 -0.0302341929728 0.14920249255200002 -0.203859779414 0.69993538245 -0.44294005885000004 0.12114819258300001 0.02038623768 -0.051005016286799994 0.022920149156000002 -0.09534654059999999 -0.0147997834883
future	-0.13944127169 -0.10732538168000001 0.21676928345600002 0.027068602435 -0.051043354362000005 -0.181428167389 0.0691686095334 -0.132582720984 0.028076221979599997 -0.327001281425 0.23321284080000002 -0.365372604135 0.20473768707 -0.52083211877 -0.114766854952 0.18755496245600004 0.238547869696 -0.23987517972 8.6356649066E-4 0.064529106015 -0.06228530087999999 -0.059563779712 0.013528863275600002 0.23085483629999998 -0.00199572088225
curiously	-0.042094455711000005 0.0126784124808 0.00457056662656 -0.032750542177499994 -0.0142620488829 0.0162260824012 0.021039299398000002 0.0191611149824 -2.25939243024E-4 -0.0035973504585 0.010529560416 -0.00203150842746 0.00581249032 -0.00499662964495 0.0061377384236 0.009049839253600001 -0.0017901930795999998 -0.0204959540556 -0.0200276004304 -0.0041739408074800005 -0.013103706372 0.017164996215599998 0.0046919910947200005 0.00529866483 -0.00104699784645
afonso	-0.105727412857 -0.08730108332000001 0.113674995456 -0.0574745182925 -0.012342628548900001 -0.131744913484 -0.07287498116600001 -0.07146956709859999 0.4009490291 0.087504289375 0.32966864124 0.063404369472 0.14167317185 0.498626246408 -0.05585420173 0.26919187208 -0.06896158647 -0.164635986096 0.46455358464 0.19290771787200003 -0.07953971136 -0.046243222540399996 -0.0281321818012 0.0762480141 0.076188101713
campina	-0.24638441766000002 -0.08294171072880001 0.37059771936 0.383729254775 0.640510880373 0.353120284137 -0.163787584428 0.030804281668799997 -0.124819311892 0.21265324042 0.019005676080000002 -0.081097305229 0.06412201669999999 0.0070957524985 -0.036473720578399996 0.063546962568 -0.0396040575824 0.012979221291600002 -0.0145987913055 -0.00492990961009 -0.008119533876 -0.0117565970096 0.015645891758 -0.0033093194699999997 -0.055728678765999996
thanksgiving	-0.18525803619 -0.064859296568 0.09905870304 -0.049056809114999995 -0.0612891067347 -0.174926408236 0.015038047926200001 -0.04783723232999999 0.23225463323599999 0.191844703755 -0.7716241716000001 -0.39953100100100003 0.022473413578 0.006799970229300001 -0.00219520758816 0.084636658768 -7.7162938068E-4 0.11922454455 0.180057080204 0.05092805218950001 -0.015463396800000001 -0.0020915234122 -0.056843761968000006 -0.02188420269 -0.0055845496475
firing	-0.13621272087000003 -0.0717300119624 0.19985846073600003 0.0670619096225 -0.116416228617 -0.211257408207 0.557644052394 -0.429741945984 -0.406916332464 0.34337315912500005 0.10565981532 0.0020105074980400002 -0.16023784895999998 0.140399135004 0.0095336762768 -0.06006122709600001 -0.0349814199282 0.0176913278847 -0.0204632314322 0.049032137744000004 -0.053877649776 -0.004431768385079999 -0.011748419296000002 0.08460072749999999 -0.02872491351
movement	-1.0087661347 0.096716884 -0.11554119104000002 0.6568015232 0.84257671446 0.11633187888100001 -0.438928766666 0.114137237454 -0.428002254712 0.24626154819 0.10359551616000001 -0.14602338967099998 0.10358930323000001 0.0612158286384 -0.06887038144 0.050818693384000004 -0.082083287726 0.016360178967 0.013989983258499998 0.05413780545210001 -0.044252990196 0.031686881317599995 0.0090138069596 0.01818688185 -0.097245896593
royal	-0.091690843288 -0.03695842722 -0.011543956652800001 0.027789418762499997 0.0069590402856 0.0085091493232 0.012996051603600001 0.0150884127314 0.0395210508624 -0.0504622167105 -0.010350201132000001 0.0469156722174 -0.0021304698611 -0.0142567547136 0.09688061511200001 -0.042540804428000005 -0.039020166094799996 -0.026783329330800004 -0.0374185075371 0.0103255345736 0.009949749768 0.0053521840975999995 -0.039204827351600004 -0.186529722 0.0356818926959
resurrect	-0.19536430157 -0.0034537902872000003 0.0832574352192 -0.00116300896075 -0.15947407008 0.102617773156 0.46112623921 0.79879281224 0.0362836326396 0.15788271547000002 0.12224678928 -0.079252304755 -0.025127968362 -0.044015497626500005 0.0592644676792 0.05946854654400001 0.039324163322 0.0351665525097 0.052201229443 0.0241865258664 -0.0023462986044 -0.0033492561177199997 -0.0071264123556 0.023002975499999998 -0.0329133640047
francisco	-0.4696351247200001 -0.336815030552 0.51527407008 -0.05649713887 -0.107067911535 -0.477392842406 0.08190612092 -0.218995903228 0.83190651308 -0.393886196595 0.7926594912 -0.478147468837 0.7470707902 0.60095112334 -0.21679304754 -0.072775426712 -0.332872927402 0.0506081943687 0.083422944788 -0.126312934495 0.17129626739999998 0.12799447858399998 0.0177884987872 -0.1364992251 -0.157333559304
materialize	-0.06198702021400001 -0.0337986909568 0.040061390476800005 0.018338441185 -0.00760814761824 -0.025380546944000004 0.0547549743052 -0.0133373704812 -0.00428087872848 -0.051442930816500004 -0.06944794092 0.081493835105 0.034461674863 -0.0122080492923 -0.0530352085424 -0.064980299808 -0.059963337740000004 -0.046482188562300006 -0.013754357181799999 0.0157802172858 0.017393167824 -0.0258614787536 -0.10474180488 0.03745993878 0.0345662580689
duke	-0.13944127169 -0.10732538168000001 0.21676928345600002 0.027068602435 -0.051043354362000005 -0.181428167389 0.0691686095334 -0.132582720984 0.028076221979599997 -0.327001281425 0.23321284080000002 -0.365372604135 0.20473768707 -0.52083211877 -0.114766854952 0.18755496245600004 0.238547869696 -0.23987517972 8.6356649066E-4 0.064529106015 -0.06228530087999999 -0.059563779712 0.013528863275600002 0.23085483629999998 -0.00199572088225
equally	-0.19536430157 -0.0034537902872000003 0.0832574352192 -0.00116300896075 -0.15947407008 0.102617773156 0.46112623921 0.79879281224 0.0362836326396 0.15788271547000002 0.12224678928 -0.079252304755 -0.025127968362 -0.044015497626500005 0.0592644676792 0.05946854654400001 0.039324163322 0.0351665525097 0.052201229443 0.0241865258664 -0.0023462986044 -0.0033492561177199997 -0.0071264123556 0.023002975499999998 -0.0329133640047
beberibe	-0.24638441766000002 -0.08294171072880001 0.37059771936 0.383729254775 0.640510880373 0.353120284137 -0.163787584428 0.030804281668799997 -0.124819311892 0.21265324042 0.019005676080000002 -0.081097305229 0.06412201669999999 0.0070957524985 -0.036473720578399996 0.063546962568 -0.0396040575824 0.012979221291600002 -0.0145987913055 -0.00492990961009 -0.008119533876 -0.0117565970096 0.015645891758 -0.0033093194699999997 -0.055728678765999996
municipality	-0.05438074398900001 -0.0294989098448 0.041499755264 -0.039955436625 0.0120242472597 -0.0214886727663 -0.018781333155 0.0017212182697999999 -0.011305102891999999 -0.05853965357200001 -0.013019927784 -0.0290146214172 0.05078267796 -0.05522660772330001 -0.028778219617599996 -0.073164098528 0.013443573889199999 0.035636207944200006 0.0092027469191 0.0206399893058 -0.04082956596 -0.0401841084292 0.0054440107896 -0.03264062175 0.0095728796739
autonomous	-0.41828221599000004 -0.010591236101600001 0.06552043041280001 0.342911963875 -1.0199380815 0.98963764452 -0.235896010168 -0.313040854756 -0.012699204754 -0.00380712763025 -0.010446321492000001 -0.0213045778553 0.08314134409 0.0456905281585 -0.026904283762 0.04744100046960001 0.036268622148 0.0288722152173 0.034455623039 0.013068069573600002 -0.02363985816 0.0457828065776 4.04839630708E-4 0.02717283345 -0.103828497977
body	-0.29503685278 -0.13542966008 0.28219783187200004 -4.7446632525E-4 -0.152346706551 -0.365016643978 0.442620126286 -0.382008449238 -0.11914184697199999 0.35713406202500003 -0.40583258363999997 -0.300923239528 -0.08501897439 0.081330873125 -0.059411748566 0.176317481248 0.021108259669000002 0.036004352676300005 0.183423167014 -0.196266226233 0.18167098872 0.14047665616799998 -0.057046931688 -0.42517629960000003 -0.242575288525
trial	-0.22100897886 -0.170106349512 0.3435706384 0.0429027231175 -0.08090222868000001 -0.287556442995 0.109629754624 -0.210138757358 0.0444998156496 -0.5182844923850001 0.36963313296 -0.579102207299 0.32450161358999996 -0.82550142404 -0.18190114876 0.297267695024 0.378089631818 -0.380192952027 0.0013687203469900002 0.102276260741 -0.09871997807999999 -0.094406083028 0.021442740628 0.3658967817 -0.00316314299317
servile	-0.25412531313000003 -0.08977495375200001 0.0173214361408 0.177088331175 -0.227780398053 -0.465656191138 -0.531068438784 0.275143508454 -0.480279846408 0.0386696690985 0.033507819048 0.0013564668269300001 0.013686229368 0.101890701124 -0.0269303728368 -0.032449465403200005 -0.05748990051299999 0.014417944604100001 0.0061686761259 0.085603841969 -0.037060390176 0.06678270581599999 -0.013933171018400001 0.02211519426 2.84716894456E-4
points	-0.16840232008000003 -0.0838124229096 0.19341580262400002 0.026304573802499998 -0.100177523199 -0.18176687301 0.525113673786 -0.409345657166 -0.383671710328 0.30766674660500004 0.061354018116000004 0.0535512966121 -0.12616859255 0.130605510244 0.025378938542 -0.03892809110480001 -0.034440544740199995 -0.041823756876 -0.064130954743 0.0362980540827 0.050686774584000005 0.10973115400399999 0.140792969324 -0.0766738122 0.294540804674
undertake	-0.13944127169 -0.10732538168000001 0.21676928345600002 0.027068602435 -0.051043354362000005 -0.181428167389 0.0691686095334 -0.132582720984 0.028076221979599997 -0.327001281425 0.23321284080000002 -0.365372604135 0.20473768707 -0.52083211877 -0.114766854952 0.18755496245600004 0.238547869696 -0.23987517972 8.6356649066E-4 0.064529106015 -0.06228530087999999 -0.059563779712 0.013528863275600002 0.23085483629999998 -0.00199572088225
academia	-0.042994382475 -0.015243101368000002 0.017449348646400003 -0.01001186054 -0.0294286186935 0.00636599143517 -0.00113387109082 0.009293915901799999 -0.0257954811584 -0.010777531158500001 -0.019773788916 0.0339324127217 0.00591233755 0.00552928442031 -0.0162372550916 0.0111777441672 -0.0258170452476 -0.00223855802724 -0.00511505734951 -0.062989995373 -0.012832172604 -0.0048692136006799995 0.008666230454 -0.00612608568 -0.0079255969407
members	-0.32495583554 -0.23307034212000002 0.277092249984 -0.0325725903975 -0.109823437035 -0.3868496546 -0.19346785629600002 -0.193932953902 1.0111431682799998 0.20883535584000001 0.7699502388 -0.0307467245316 0.007060203913 0.424186680781 -0.072612402512 0.339253630864 -0.43879739372399995 0.62906317026 -0.023315219892300003 0.36979683731600005 -0.08854153968 -0.116509104984 0.034020144476400005 -0.02398199919 0.0202325211262
closure	-0.25412531313000003 -0.08977495375200001 0.0173214361408 0.177088331175 -0.227780398053 -0.465656191138 -0.531068438784 0.275143508454 -0.480279846408 0.0386696690985 0.033507819048 0.0013564668269300001 0.013686229368 0.101890701124 -0.0269303728368 -0.032449465403200005 -0.05748990051299999 0.014417944604100001 0.0061686761259 0.085603841969 -0.037060390176 0.06678270581599999 -0.013933171018400001 0.02211519426 2.84716894456E-4
guarantees	-0.092335051263 -0.0818091256576 0.12830556569600002 0.058590065472499994 0.0114585772392 -0.0342921310096 0.092068600754 -0.00622437276738 0.09642356583600001 -0.236517683305 0.08422432116 -0.134486138247 0.25155536245 0.079431970692 0.0315855712272 -0.80209434704 -0.155437034438 0.068984045751 0.26253964899300003 -0.09972899423300001 0.10192140144 0.094476681196 -0.0108731745612 -0.02737720614 -0.0371648144429
all	-0.40526170395 -0.42872989957600005 -0.7602958077440001 0.0535662762425 0.187751272761 0.0476558037208 0.107167639514 -0.0707283619432 -0.00215798406424 -0.0029354350434500002 0.056491504884 -0.081955400932 -0.0025570247633000002 -0.0140119140946 -0.0154201357168 0.0104312949616 0.0072139372356 -0.0251646041865 0.0163741920674 0.019610770771 -0.004678384367999999 0.016121987311199997 0.00316539465656 0.004568886399 -0.0083607811658
franchises	-0.26390687458 -0.00668232998752 0.0413388357888 0.21635332764999998 -0.643507317531 0.6243926249980001 -0.148833589268 -0.197506788848 -0.008012313596 -0.0024020302095 -0.006590914236 -0.0134416682377 0.052456155213 0.028827546815600003 -0.0169747341328 0.0299319507024 0.022882941509200002 0.018216342585 0.021739095950200002 0.0082450475226 -0.014915055180000001 0.028885714604 2.55425492932E-4 0.01714417041 -0.065508718578
took	-0.42275989474000003 -0.10252076445600002 0.15581053382400004 -0.404783692975 -0.111072871026 -0.172638795101 -0.428590058858 0.1473549563 -0.40731845698799996 0.027205158499 0.05794946112 -0.024882691710899997 0.0015170122478 0.0020437346016800003 -0.062665718868 -0.08999833664 -0.015882009917999998 0.011752558777200002 0.0078409099676 0.09528828156100001 0.05841292703999999 0.0035436012834799994 0.07369590882 -0.14533076639999998 0.21848686478399998
new	-0.42623804004 -0.41067723778400006 -0.591150626176 0.0394238933825 0.141318306207 -0.0035562701434800003 0.136219872594 -0.03724352396839999 -0.0221279370704 -0.07695648403500001 -0.07911686448000001 0.19970014884099999 0.07317483222 -0.032060183058800006 -0.245609236612 0.03277130677120001 -0.0215500128476 0.076455300822 0.10648876061100002 -0.12310416854500002 0.1223696232 -0.39964516515599996 0.500169468072 0.1139355651 -0.087107751839
including	-0.40526170395 -0.42872989957600005 -0.7602958077440001 0.0535662762425 0.187751272761 0.0476558037208 0.107167639514 -0.0707283619432 -0.00215798406424 -0.0029354350434500002 0.056491504884 -0.081955400932 -0.0025570247633000002 -0.0140119140946 -0.0154201357168 0.0104312949616 0.0072139372356 -0.0251646041865 0.0163741920674 0.019610770771 -0.004678384367999999 0.016121987311199997 0.00316539465656 0.004568886399 -0.0083607811658
law	-0.28336022213000006 -0.033114906924 0.13742573574400002 -0.8458131019999999 0.088977492981 0.215608888167 -0.17711999214000002 -0.0159798183678 -0.195471117004 0.073675447845 0.0918636012 -0.085446505525 -0.09237250309 -0.021418620346499998 -0.09141325248 -0.083115386728 0.0102754176574 0.048852530837700005 0.0261472694688 0.008361934364300001 -0.021878966568 -0.016386941182 -0.0172086836632 9.74370585E-4 0.0101849738618
already	-0.108280325286 -0.0607678687792 0.07593803472640001 -0.016226938075 0.0297711698778 -0.0122115335225 0.12791395084 0.0326156922658 0.0522645384392 -0.12964822012000002 -0.18693906096 0.478951262678 0.12684052045000002 -0.081053345975 -0.560511533496 -0.0306776378064 0.016597833434399998 0.0165341171064 -0.10582506462600001 0.339174240013 -0.11083079736 0.281826832952 -0.27188536594 -0.0655214373 -0.08775407514599999
woods	-0.27839259866000005 -0.13540797468000002 0.4100465072 0.36354065722499995 0.535851298125 0.26204396288200005 -0.0589457915618 0.020202144791 -0.0233384511916 -0.019613882481 0.0848441994 -0.177186975706 0.25945396911 0.071117257278 -0.00401755035808 -0.6070139244 -0.160303757878 0.067364815299 0.20378155128300002 -0.086018513261 0.07709568996 0.06798761633999999 0.00392267071676 -0.02522112885 -0.076348789828
4th	-0.08961019597000001 -0.052107500693600005 0.094272272512 -0.01866612121 -0.0345622414293 -0.12239926157700001 0.0440271870402 -0.0546799628282 0.0086590814168 -0.0376175528245 0.10051181808 -0.0217600820791 0.019305995695 -0.033879281018 -0.0901177538 0.22108977778400002 0.065163351008 -0.08675010303 0.09597267975500001 -0.373420823065 0.32246619528 0.20225163372399999 -0.010891980784 -0.655120791 -0.303674521179
suspects	-0.09877135336300001 -0.07532683914800001 0.039915252748800006 0.020819720439999998 0.00738543030147 -0.0641978313425 -0.0381792466536 -0.015625820687399997 0.053125211242399994 -0.032240343473 0.0062007178847999994 0.204951012613 -0.05806951624600001 0.04383695516 0.0127574978768 0.06895729769600001 0.32523724591000003 0.318157448604 0.103860860559 -0.56762795402 0.1266351066 0.086099734396 -0.35992818268 0.3723295044 0.063352437111
revolts	-0.087411453486 -0.050924692236000005 0.056829182995200005 -0.09851608265 0.021041980011 -0.0014882370078800001 0.0384480124444 -0.0367941471816 -0.0514229542696 -0.06960246037000001 -0.08122693524 0.260265667481 0.18640849871 -0.14021288345 0.451701584456 0.166758968488 -0.290987391388 -0.00370341136236 0.027845323044600002 0.116624655354 0.30192119136 0.0495283555012 -0.10319667311200001 0.1539860616 -0.08727456140600001
army	-0.40466429494 -0.176479254864 0.523233537024 0.4000343258 0.618688692999 0.33940154917800003 -0.0268930415286 0.0657347182298 -0.12912618484799998 -0.66711072205 -0.12434312856 -0.121215647158 -0.7910224105 0.304325171604 0.076581285104 0.18404812263200002 -0.209731561972 -0.0403198488702 0.0091951298175 0.062565999462 -0.035635354428 0.07385200595199999 0.072420107168 0.051388995599999994 -0.0280676226015
reconcile	-0.11334166223900001 -0.070940316436 0.041043956729600005 -0.00559928624325 -0.0158089221693 -0.0519827487406 0.0585710714212 0.025414137501 -0.024765045838 -0.09069673892 -0.15275225292 0.324930345285 0.09158879653 -0.024995698619200004 -0.2834127239 0.029441509011200004 -0.033433813406799996 0.11818810231200001 0.11319068985700001 -0.16939157726100001 0.1535655582 -0.5023691875599999 0.60538846132 0.13405673489999997 -0.097622876012
francisca	-0.071509396285 -0.0539830275688 0.05096242511360001 -0.038030176954999995 0.006066793255770001 -0.025447670837000003 0.0455391215266 -0.0170431801424 -0.014737618178799998 -0.08248016108 -0.055639172304000006 0.18704528932699999 0.19575646013 -0.14153699631900002 0.25736424537200003 0.104353985856 -0.165664073174 0.07944952967100001 0.10756075564499999 -0.274252402986 -0.7268883936 0.239892574864 0.21684877258399998 -0.1169364279 0.063201951416
underestimated	-0.13855844677 -0.039104154179200004 0.0658604105984 -0.0726828578275 -0.041212662858900004 -0.0610546586104 0.00115036980032 0.047089111468999995 0.193268204472 0.05289954836500001 -0.08085618527999999 -0.050854009471500004 0.14797799065 0.28895140094800004 -0.069742604284 -0.0411862567688 -0.18622367320400002 -0.47312633694600004 -0.5921736413 -0.334720363173 0.008610730523999998 0.107724901588 0.066057769244 0.224383641 -0.0431655208022
were	-0.7856829794900001 -0.58840296944 -0.44840934054400006 0.114003149525 -0.0628659758844 -0.52797956848 -0.319657238732 -0.0407271665872 0.437564116212 0.291959601775 0.045358086288000005 -0.26889966353899997 -0.07749840567 0.165326623617 -0.056642903714400006 0.15941699892 -0.26949596374199997 0.354555323688 0.09230134880000002 0.27060154039400003 -0.08087182536 -0.0069981224308 -0.0088364241656 -0.007853245469999999 -0.014711481543199999
ceremony	-0.18525803619 -0.064859296568 0.09905870304 -0.049056809114999995 -0.0612891067347 -0.174926408236 0.015038047926200001 -0.04783723232999999 0.23225463323599999 0.191844703755 -0.7716241716000001 -0.39953100100100003 0.022473413578 0.006799970229300001 -0.00219520758816 0.084636658768 -7.7162938068E-4 0.11922454455 0.180057080204 0.05092805218950001 -0.015463396800000001 -0.0020915234122 -0.056843761968000006 -0.02188420269 -0.0055845496475
bestowed	-0.13855844677 -0.039104154179200004 0.0658604105984 -0.0726828578275 -0.041212662858900004 -0.0610546586104 0.00115036980032 0.047089111468999995 0.193268204472 0.05289954836500001 -0.08085618527999999 -0.050854009471500004 0.14797799065 0.28895140094800004 -0.069742604284 -0.0411862567688 -0.18622367320400002 -0.47312633694600004 -0.5921736413 -0.334720363173 0.008610730523999998 0.107724901588 0.066057769244 0.224383641 -0.0431655208022
monthly	-0.17135816582000002 -0.087282000168 0.09441841024000001 0.06016611869249999 -0.07469891094509999 -0.15859369914500002 -0.18053576892 -0.0576516991554 0.462100028268 0.33425206501500004 0.17472719808 0.180351006293 -0.48472376329999994 -0.41597742768400003 0.0368329378852 -0.197731949976 -0.16955514542199998 0.014549998349700001 -0.06624077987 0.0095411147129 -0.027710744172 -0.0056990107692 0.054931882808 -0.002629752981 -0.06954173520399999
october	-0.24461761229 -0.080888276832 0.33365258995200003 0.331965378125 0.538672168944 0.276105261157 -0.11053627712399999 0.007494391673799999 -0.085505148132 0.18278555369000002 0.022409186868000003 -0.0207930669436 0.059851067136000004 0.0044920729517100005 -0.075174146676 0.08363185712 0.018179864528 0.0219835237791 0.009800913427099999 -0.0229608321242 -0.0042676365312 0.032978037514 -0.071480316976 0.02261393433 -0.0398648848959
arms	-0.14291363934 -0.083817540664 0.101109670464 -0.0329752142725 0.0306049131648 -0.06720536751839999 -0.024332441814200002 -0.0240070075272 0.11861340060799999 -0.035340476409 -0.05089017264 0.18962715344 0.040216705928 0.195781836331 0.388018570772 -0.160837439056 0.68315188724 -0.012017340012000001 -0.22473250125 0.21105671748800003 -0.11345859611999999 -0.115798381636 0.11204705868400001 -0.1462073178 -0.19621294143999998
